"[-1.0660900e-02 -9.7627081e-03  8.5959099e-03 -4.4054217e-03
 -4.9758388e-12  1.5795082e-04 -4.6178545e-03  7.2107464e-03
 -7.5924229e-03 -5.9018307e-03  5.0193886e-04  8.2469704e-03]","[-0.00513556  0.01365308 -0.00157721  0.00298133  0.00043313  0.0001664
 -0.00498412  0.01009099 -0.005424   -0.01219446 -0.00879283  0.00166323]","[ 0.01466326 -0.01106274 -0.00356634 -0.00308259 -0.00273241 -0.00155585
 -0.00154177  0.00180397  0.00842752  0.00907797  0.01089233  0.01641492]","[-4.0184037e-04  2.2872984e-03  1.0278282e-02 -3.6658854e-03
 -5.7506339e-12  7.1400090e-04 -4.7683744e-03 -9.3955437e-05
  2.9408643e-03  1.8437453e-02  2.0231714e-02  4.4188309e-03]","[-9.16903839e-03 -3.54790152e-03 -8.19496531e-03  4.28553950e-03
 -1.52700790e-03  9.21695537e-05  3.91698536e-03  9.79764014e-03
 -1.82234645e-02 -1.57336239e-02 -1.22474665e-02  9.22419038e-03]","[-0.00490518 -0.00760753 -0.01751885  0.01861404 -0.00038557 -0.00611104
  0.00036453 -0.01496066  0.01651537  0.00796042  0.01213858  0.00714958]","[-2.3229818e-03  8.5308189e-03  8.8069675e-04 -1.2327880e-02
 -1.7347491e-11 -2.6483857e-03  5.0196131e-03  1.8407913e-02
 -1.5119681e-02  3.8694518e-03  1.0137456e-02  6.2704482e-03]","[-5.3139487e-03  7.1839700e-03 -2.1974503e-03  4.3852902e-03
 -3.2744249e-03  7.2017065e-05 -6.2808502e-03 -1.0490506e-02
 -9.0740481e-03  3.8922005e-03  8.8925259e-03  8.7072076e-03]","[ 0.00232123  0.01678722 -0.00760592  0.00887941  0.00665665 -0.00746946
 -0.00096446 -0.01478935 -0.01259968 -0.0174326   0.01195771  0.01800198]","[ 8.9240111e-03  1.1445031e-02 -1.9708772e-03  1.0669521e-02
  9.4111368e-12 -3.7359764e-04  2.6985845e-03 -5.1947366e-03
 -6.8778382e-03 -6.8582357e-03 -1.4386026e-02 -1.7533971e-02]","[-8.8109290e-03  1.2265784e-02  3.9142724e-03 -6.3537760e-03
 -2.2230668e-04  1.7385410e-05 -5.5251247e-03  1.1508060e-02
 -6.6560628e-03  5.8267727e-03 -1.4683376e-02 -1.3177329e-02]","[-0.001433    0.00681238 -0.00640059  0.01301132  0.0039447   0.00095442
  0.00073605 -0.0126212   0.01973392 -0.00918563  0.01525407  0.01017427]","[ 1.66478455e-02  1.26425764e-02  4.76891873e-03  1.92191117e-02
  1.24462420e-11  7.29038729e-05 -4.45929263e-03  1.88286859e-03
  1.28080780e-02  1.66194160e-02 -1.90894343e-02  1.01528475e-02]","[-1.5088182e-02  2.7200039e-03 -8.2682213e-03  9.0126917e-03
 -7.5848715e-04  7.4646255e-06 -5.2882116e-03 -4.2235227e-03
  1.6181480e-02  5.2279369e-03  1.3447700e-02 -1.4891088e-02]","[ 0.02032387  0.00817285 -0.01263671 -0.00118104 -0.00626012 -0.00678934
 -0.00234218  0.00419649  0.00465143  0.00270232 -0.01255255 -0.00065332]","[ 9.7472407e-04 -1.0814362e-02  1.0747356e-02 -9.1083134e-03
 -4.9040320e-11 -4.4653579e-04 -1.9618417e-03  5.3602597e-03
 -9.8947566e-03 -6.6311439e-03  1.8975759e-02  1.1585296e-02]","[ 1.0296855e-02 -5.1613143e-03  9.4221914e-03 -1.7104689e-02
 -6.3335791e-04 -4.5582885e-05 -3.2717769e-03  1.7317684e-02
  1.6953202e-02 -5.0612856e-03  2.3862088e-02 -9.3552629e-03]","[ 0.01945427  0.00493586 -0.01263025  0.00339568 -0.0144923  -0.00976644
 -0.00222393  0.00594862  0.00381466  0.00048502  0.00776489 -0.00898856]","[ 1.1448125e-02 -3.4800663e-03  1.3303910e-02  1.4954281e-02
  3.4379111e-11  1.9054569e-04 -1.5227437e-03  1.3203250e-02
 -1.3511155e-03  1.9612530e-02 -2.2332906e-04 -4.1279751e-03]","[-1.1819766e-02 -7.3766527e-03  1.0686330e-02 -1.2791413e-02
 -1.3722909e-03  2.1524961e-06  1.8461003e-05  1.3919083e-02
 -4.1328040e-03  1.1925659e-02  7.4653844e-03  9.1185160e-03]","[-0.00702521 -0.00956284  0.00172916  0.01044314  0.00670651 -0.00432954
  0.00389385 -0.00183555 -0.00335788  0.01083892  0.01227555  0.00233141]","[-1.1112040e-02  1.0231903e-02 -1.3630915e-03  8.4297340e-03
  3.4197750e-10  4.1578934e-04  6.0306722e-03 -8.0395897e-04
 -1.2875709e-02  1.5532775e-02 -4.7221840e-03 -2.3706308e-02]","[-1.60682015e-02 -9.62866005e-03 -4.19896515e-03  1.06317662e-02
 -2.06277356e-03 -7.56827376e-07 -9.23517364e-05 -9.52407625e-03
  1.42700700e-02 -1.07601695e-02  7.07164872e-03  5.10426657e-03]","[ 0.0168119   0.01830859  0.00542252  0.00072169 -0.00260012 -0.00815174
  0.00335459 -0.00657578  0.00683749 -0.00742853  0.01992368 -0.00381938]","[ 1.6195141e-02 -1.2768251e-02 -3.0193196e-03 -1.4479631e-02
  4.1891955e-11  1.4641734e-03  4.4950144e-03 -1.0673118e-02
  1.2860182e-02  4.3434016e-03 -1.2679717e-02 -1.3194362e-02]","[ 8.9120679e-03  1.7367586e-02 -7.4315849e-03  3.6781158e-03
 -1.2739052e-03  4.2179759e-06 -7.5675542e-03  1.1315062e-02
  6.2883296e-04 -2.1507700e-03  1.8843761e-02 -1.8736852e-02]","[-0.0041589   0.02206907 -0.01720539 -0.00973838 -0.00444872 -0.00484114
 -0.00531462 -0.00160513  0.01700705 -0.00219262  0.00321086  0.0111303 ]","[-2.1405036e-03 -4.4548316e-03 -1.8314759e-03  6.7702904e-03
  1.1679158e-10 -6.6767883e-04  2.3733296e-04  1.5312961e-02
 -7.9836724e-03  1.8527657e-02  3.0638594e-03 -9.5059164e-03]","[ 1.4701359e-02  1.0705240e-02 -9.0565952e-03 -1.6976796e-02
 -1.8184502e-03 -3.3392398e-06 -3.7750462e-03  1.2552874e-03
  8.2519958e-03 -9.2668459e-03 -5.7839528e-03 -5.5684452e-03]","[ 0.01833688  0.02082067 -0.00669121 -0.01033823 -0.00876781 -0.00547809
 -0.00645766 -0.00609883  0.01385266 -0.01106594  0.00614637  0.00565765]","[-1.6072530e-02  1.2270688e-03  1.6675187e-02  6.9985958e-03
  4.7508334e-11 -1.6534267e-04 -7.8069814e-04  1.5276677e-02
  5.6335512e-03  1.2382076e-02 -6.8999645e-03 -1.3352328e-02]","[-2.5855305e-03  9.6223243e-03 -2.6584859e-03 -1.6033975e-03
  7.4571486e-05  9.0979993e-06  4.3202867e-03 -8.7952381e-03
 -3.8747592e-03  6.3434155e-03  1.1021347e-02  7.7735488e-03]","[ 0.00829416  0.00570373 -0.00446478  0.02029117 -0.00864987  0.00027331
 -0.00239812  0.01114296 -0.01125455 -0.01002536  0.00455315 -0.00084769]","[-1.0616908e-02 -6.7988397e-03  1.5864575e-02 -1.0012743e-02
  5.3517340e-11 -2.0460652e-04  2.9431703e-03  1.0997862e-02
 -1.1684263e-02  1.8159438e-02  1.3842773e-02 -1.1240558e-02]","[-1.6796613e-02  1.2394587e-02 -6.1298129e-03  9.8347873e-04
 -1.8559851e-03 -1.1201396e-05 -1.2629598e-03 -1.2899760e-02
 -1.9367647e-03  5.1623783e-03 -1.1451983e-02  1.2900013e-02]","[ 0.01941634 -0.01004363  0.00422665  0.01349084 -0.00775055  0.00096978
 -0.00618549  0.00139716 -0.00799561  0.01145497 -0.00063464  0.01687537]","[ 1.11479696e-03  1.42555581e-02  2.31058616e-03  5.29192621e-03
 -1.92352495e-10  3.93133581e-04  6.46140426e-04 -1.19577358e-02
 -5.82036097e-03  5.70925884e-04 -1.74895988e-03 -1.01571595e-02]","[ 1.7238831e-02  7.0685926e-03  9.9583040e-04 -1.6186563e-02
 -1.3432214e-03  2.7017029e-06 -1.4097692e-03 -1.0962016e-02
  4.1089733e-03 -1.2434953e-02  1.9187603e-02 -1.2158455e-02]","[-0.00886186  0.00149225  0.00407271  0.02099005 -0.01111629 -0.00444075
 -0.00314237  0.00723291 -0.00900115 -0.00149189 -0.01633486 -0.00341839]","[ 1.58170126e-02 -2.51332694e-03  7.47284945e-03 -2.55303294e-03
 -6.92276028e-11  1.27946923e-03  1.53214310e-03 -3.36171198e-03
  3.56175937e-03  8.74359347e-03  8.84919800e-03 -1.40816495e-02]","[-1.8014785e-02 -1.5673203e-02  1.0076917e-02  1.9549665e-05
 -1.3700818e-03  9.8538466e-10  1.2418305e-03  2.0784479e-02
 -1.9151593e-02 -8.3087264e-03  7.2994661e-03  2.1028081e-03]","[-0.00576094  0.01736473 -0.00942858  0.00065957  0.00448646 -0.00574826
 -0.00351792  0.00198953  0.00745635  0.00943277 -0.01010965  0.01662195]","[ 9.7599803e-03 -7.7594938e-03  1.6178967e-02  8.0977734e-03
 -1.6439515e-11 -9.3912595e-04  1.0350673e-03 -1.1859548e-02
  7.4336701e-03  9.0139108e-03  9.9339671e-03  7.3190471e-03]","[ 3.7464041e-03  1.7554045e-02  1.0041758e-02 -1.5023898e-02
 -3.3519487e-03  2.6070387e-07  3.1008516e-03  2.0190410e-02
  7.0273201e-03 -1.0941337e-02  1.5524380e-03 -9.4432654e-03]","[ 0.02114916 -0.00208507 -0.00913491  0.00895216 -0.01199827  0.00089862
 -0.00510396  0.00546546 -0.00100155  0.00186603 -0.00797208 -0.00035639]","[ 2.3216279e-03 -5.7822242e-03  1.8443551e-02 -4.2880117e-03
 -3.0944536e-10  3.2730675e-03 -3.5551845e-03  3.0900599e-03
 -4.5668585e-03  3.1909766e-03 -8.8873589e-03  6.6579008e-03]","[ 5.0110165e-03 -3.1069971e-03 -9.4614215e-03  1.2228855e-02
 -7.1421470e-03  6.0426936e-10 -5.0410978e-03 -3.6716759e-03
  1.7817586e-03  8.5505582e-03  1.4798531e-02 -1.2923244e-02]","[ 0.00145158  0.01558019  0.00344741 -0.00863068 -0.01713183 -0.0004748
  0.00037867 -0.01410242  0.00720724 -0.01261229  0.01143411 -0.0050962 ]","[-8.0139749e-03 -1.3472932e-02  9.3673654e-03 -8.9500835e-03
 -2.1549108e-10 -3.3461486e-04 -6.3924695e-04 -7.7895611e-03
 -5.2288640e-03 -7.5601875e-03 -1.1685953e-02  1.0634542e-02]","[ 1.0354903e-02 -1.2154907e-02 -5.5701765e-03 -1.6470423e-02
 -3.9599589e-03  1.2497010e-09 -3.8154367e-03  1.9557660e-02
 -6.5874183e-03  3.0862400e-03  2.3711093e-02 -4.7957557e-03]","[ 0.01712756  0.00021225 -0.00692402  0.00063102  0.00531663 -0.00711499
  0.00284949 -0.01478669  0.01678756  0.01107278 -0.01447687  0.00583825]","[-7.7010854e-03 -8.7150726e-03  6.9301827e-03  7.8616636e-03
 -1.1777472e-09  7.6602038e-05 -1.2015420e-03 -7.2524464e-03
 -4.2102970e-03  1.0384533e-02 -1.0603413e-02 -1.8608846e-02]","[-1.02555845e-02 -2.44856928e-03 -9.03561153e-03 -8.75048805e-03
  1.43529894e-03 -1.60354796e-06  4.10230178e-03 -4.11235634e-03
  1.83846313e-03 -5.91860572e-03 -5.05657983e-04 -2.26904992e-02]","[ 0.0123047   0.01888273  0.00293901  0.00545616 -0.00879792  0.00122023
  0.00302105  0.01173696  0.01267154  0.01193918 -0.01027036 -0.01876151]","[-2.4525390e-04 -1.0164917e-02  1.1043251e-02 -1.3013005e-02
  7.5363405e-12  2.2765559e-03  5.5376999e-03 -1.2538551e-02
 -8.2805697e-03  1.6626110e-02  1.6614657e-02 -4.3817624e-03]","[ 1.3632815e-02 -1.2006902e-02  9.0870718e-03  1.2308355e-02
  3.2752811e-03 -2.0815605e-08 -1.8237154e-03 -5.0319666e-03
  1.0435312e-02 -1.6904445e-02  9.8254913e-03  7.5160931e-03]","[-0.01288798  0.00384076 -0.0167968  -0.00973836 -0.0107914  -0.00543284
  0.00206878  0.01420171 -0.00187496 -0.0179102   0.01518306 -0.00649782]","[-5.2214891e-04 -2.3042567e-03  6.0085116e-05 -9.2782378e-03
 -1.8530460e-11  2.3667257e-04  4.7448017e-03  8.8868076e-03
  1.4182950e-02  1.6231120e-02 -4.4470774e-03  6.9320938e-03]","[-6.07693475e-03  2.13354756e-03 -7.40381947e-04 -1.55571345e-02
 -3.63835017e-03  5.60907154e-10 -2.59153964e-03  7.14534521e-03
 -4.72346880e-03  1.37737999e-03  1.47332437e-02 -9.83163947e-04]","[ 0.0091827  -0.00174413  0.00470546  0.02038476 -0.00779426 -0.00646301
 -0.00338531 -0.00737362  0.00370859  0.00962195  0.01091672 -0.01345266]","[-1.8845987e-02 -8.3252573e-03  1.7008681e-02  1.6639948e-02
 -4.8922671e-11  5.5928825e-04  5.0974023e-03  1.0739142e-02
  5.9761633e-03  1.4156521e-02 -1.7537683e-02  1.7739809e-03]","[ 0.01592191  0.00745137 -0.00575307  0.01506622 -0.00519195  0.00049314
 -0.00128824  0.01497292  0.0039447  -0.01180332 -0.00500332  0.01124711]","[ 0.02195243  0.00608304 -0.01717415 -0.00615485 -0.00162957 -0.00726454
  0.00235579  0.00463175  0.00601722 -0.01345393 -0.00020595  0.01314292]","[ 1.2800073e-02 -3.6051949e-03  1.7848086e-02 -1.1065107e-02
 -5.8618554e-11 -1.0447098e-03  1.5808301e-03  1.5055204e-02
  1.6530175e-02  2.0589864e-02  4.1756011e-03 -8.8577187e-03]","[ 0.01021563  0.01218551 -0.00737722 -0.0061226  -0.00350332 -0.00014434
  0.00318593 -0.0041843   0.00637314 -0.00012739  0.0191945  -0.00172051]","[ 0.01377186  0.00842066 -0.00864146 -0.01265754 -0.00138484  0.0001416
 -0.0001355   0.00982526 -0.00069225 -0.00218351  0.01686749  0.00416204]","[ 1.5376276e-02  1.3676267e-02  8.4124478e-03  1.7304605e-02
  1.2354115e-05 -1.0198328e-03  2.0137748e-03 -1.1883264e-02
  6.0319519e-03  2.0777006e-02 -2.0380091e-02  9.6546002e-03]","[-0.00290797  0.00032428 -0.00613947  0.01101217 -0.0024572   0.00168859
 -0.00500806 -0.0130685   0.00449406 -0.01561219 -0.01526669 -0.01453645]","[ 0.01038732 -0.00954616 -0.01270324  0.01632867 -0.00612276 -0.00148952
 -0.00425513 -0.01681232 -0.00928607 -0.00272576 -0.01279396 -0.00912119]","[-1.36716915e-02 -6.24247594e-03  3.79619445e-03  5.95098455e-03
 -1.44969567e-06  4.77346948e-05  1.61405455e-03  1.12648373e-02
  8.61044601e-03  1.08517641e-02 -1.12348776e-02 -8.42798967e-03]","[ 0.00476623 -0.00725983 -0.00834781  0.01539817 -0.00064536 -0.00136395
 -0.00392921 -0.001385   -0.00497896  0.00579892 -0.01446976 -0.00694978]","[ 0.0097619   0.01875549  0.00544422 -0.00913619  0.00830603  0.00730243
 -0.00233565  0.00195836 -0.01250798 -0.01236739 -0.00351991 -0.01240829]","[ 2.00432399e-03 -1.49857886e-02  5.23820054e-03  2.06805579e-02
 -7.90495724e-11 -1.06303596e-04 -3.56091210e-03 -3.00464779e-03
  1.88226234e-02  5.77074476e-03 -8.61155242e-03 -1.44381048e-02]","[ 0.00314687 -0.01343776 -0.0089917   0.00474881  0.00238491 -0.00045809
 -0.00266392 -0.00270465  0.01108942  0.01051668 -0.00258126 -0.0110489 ]","[ 0.02286967  0.01586895  0.00039941 -0.00357948  0.00213854 -0.00040094
 -0.00261481 -0.00937112 -0.00260959  0.00184231 -0.01753202 -0.00110168]","[-1.2571234e-03 -7.1794749e-03  1.5490362e-02  2.1035451e-02
  7.2983196e-11 -1.5354550e-03 -1.9296377e-03  5.7883277e-03
  3.3980401e-03 -5.5839238e-03  2.0737934e-03 -2.2210464e-02]","[ 1.9131729e-02  1.2338781e-02 -7.6132803e-04 -1.6056828e-02
  3.0735074e-04 -1.1102466e-11  2.2213580e-04 -1.0583154e-02
  5.5905394e-03  4.8182872e-03  1.6837162e-03 -1.0321517e-02]","[ 0.00611574 -0.00210264  0.00941312  0.00323892 -0.01644187 -0.00460149
 -0.00020487  0.00145679  0.01844026 -0.01667666  0.00356948  0.01919815]","[-5.7892185e-03 -9.9428296e-03  1.7588168e-02  2.0723665e-02
  9.0976282e-10  4.1962328e-04 -6.2063063e-04 -2.5487626e-03
 -7.7975229e-03  1.8691672e-02 -1.7084625e-02  1.0998884e-02]","[ 1.8722832e-02 -1.3709857e-02 -9.4608981e-03 -1.1397888e-02
  3.2015364e-03 -1.0742760e-09  2.4944444e-03 -9.1218814e-04
  9.4292220e-03 -4.6657757e-03 -2.2782355e-04 -9.1417674e-03]","[ 0.013414    0.01026497  0.0019414  -0.01480801  0.00510815 -0.00875749
 -0.00179288 -0.00845806  0.01354374 -0.00717003 -0.00555932  0.01370393]","[-3.8065629e-03 -5.1021185e-03  1.0906140e-02  8.7071266e-03
  1.8706765e-10 -2.8645215e-04  1.6291877e-03 -9.1798222e-03
  1.9079905e-02  1.4421861e-02 -1.9740457e-02 -9.4380900e-03]","[-2.4964190e-03 -5.1665884e-03  1.0405463e-02  1.6599176e-02
 -4.2297598e-03  3.8594700e-11 -8.9094380e-04  1.6963327e-02
 -3.0226635e-03  1.2314997e-02  1.0490512e-03  2.6647006e-03]","[ 0.02138181  0.01902866  0.01116674 -0.00105097  0.00225413 -0.0008034
  0.00060615  0.01285572  0.00617652  0.01004134 -0.01388985  0.00810184]","[ 9.1088563e-03  9.2013404e-03  2.0193057e-03 -9.7140120e-03
  5.0185854e-12 -4.6651048e-04  1.2816548e-03 -1.8501345e-03
  3.7985579e-03 -4.2160973e-03 -1.0896270e-02 -1.7138211e-02]","[-1.1190472e-04  1.4010583e-02 -4.6137064e-03  1.2462687e-02
  3.2559899e-03  1.8652800e-08 -7.5896492e-04  7.3446422e-03
  5.7206252e-03  6.0471329e-03  1.1196906e-02  3.1132752e-03]","[ 0.01946051  0.01134362  0.00969731  0.01968695 -0.00480413 -0.00742251
 -0.00131014  0.00028347  0.0136584  -0.00186431 -0.00491732  0.01584072]","[-3.3686296e-03 -1.2153959e-02  1.2861534e-03 -4.7858297e-03
 -5.6769540e-11 -5.9432470e-05  1.8340608e-03  4.7397125e-03
 -2.1515448e-04  6.7527224e-03  1.7213054e-02 -7.1555126e-04]","[-1.9274395e-02  1.7250553e-02 -1.8132686e-04 -5.0022532e-03
 -4.9403775e-03 -1.1634777e-06  2.6209981e-03  1.2760057e-02
 -4.8638494e-03  1.4826830e-03  2.6122378e-03 -2.4863103e-02]","[ 6.0414777e-07  5.0533521e-03  1.1077330e-02 -1.0422098e-02
  7.2652199e-03 -7.9695201e-03 -2.7248084e-03 -5.9746425e-03
 -7.9716872e-03  4.3853562e-04  9.7638918e-03 -6.1990018e-03]","[ 8.81886482e-03  1.38092395e-02  1.17078237e-02  8.27143993e-03
 -7.59013200e-11  2.96898349e-03  3.10486974e-03  1.63208451e-02
  3.78728798e-03  1.44853946e-02  3.75361321e-03 -1.63948964e-02]","[-2.60617060e-04  1.09021105e-02  5.73837617e-03 -4.58408892e-03
 -4.55665030e-03  4.93638424e-07  2.72043259e-03  5.49738063e-03
 -2.38676136e-03  1.10528897e-02 -1.37596726e-02  4.36278712e-03]","[-0.00650515  0.00932066 -0.00923645  0.015956   -0.00134418 -0.00114864
  0.00141608 -0.01584305 -0.00818614 -0.01076697 -0.00548079 -0.00752254]","[ 1.3790257e-02  8.9599472e-03  3.5145655e-03  8.9446818e-03
  4.3606525e-11  2.6945292e-03  1.3857813e-03  1.0146059e-02
 -5.4984423e-03  1.9914832e-02  1.7600561e-02 -5.9000734e-04]","[ 8.9544570e-03 -4.7956514e-03 -9.6383860e-04  9.8295854e-03
  5.1188393e-04  7.0701576e-06  1.3050501e-03  1.3553922e-02
 -1.5384658e-02 -1.5539839e-02 -2.2533222e-03 -1.6492013e-02]","[-0.00140219  0.00667038 -0.00693026  0.00836016 -0.00135269 -0.0095161
  0.00237869  0.0126869   0.01657815 -0.00841473 -0.01014546  0.00122583]","[-1.5263762e-02 -5.8625410e-03  9.1375550e-03  4.8944289e-03
  2.1062603e-11  4.0832362e-03 -3.3737284e-03 -8.5376911e-03
  1.4864299e-02  1.2689842e-02 -1.1423163e-02 -2.1706719e-03]","[-1.0381684e-02 -9.1563500e-03 -6.3426071e-03 -1.1727570e-02
 -2.5461190e-03  3.6584868e-07  7.4615766e-04  1.5866961e-02
 -8.8624861e-03  1.1574644e-02  1.3345167e-02 -1.1921112e-03]","[ 9.5823463e-03  7.2452468e-03 -1.4663402e-02  1.5312952e-02
 -5.5996538e-03 -8.8109728e-03  5.7845031e-05  1.2432763e-02
  4.3047909e-03  7.4362983e-03  5.4874187e-03  1.9279905e-02]","[-3.1396698e-03 -1.5717776e-02 -2.4063170e-03 -6.7328876e-03
 -4.6254923e-12 -7.8769866e-04 -3.5691978e-03  1.7631007e-02
 -9.8334299e-04  1.2144049e-02 -4.7654351e-03  8.5545359e-03]","[-1.8733027e-03  7.8360047e-03  1.4648916e-03  1.4317774e-02
 -4.6390146e-03  3.4699429e-10 -4.6888157e-03 -6.7810635e-03
 -9.3078818e-03 -5.9441137e-03  9.5934076e-03 -1.2980065e-02]","[-0.00738378  0.00999955  0.01218427  0.01656309  0.00970304 -0.00926301
 -0.00079951 -0.01660726 -0.00984931 -0.0061299  -0.01731214  0.01891136]","[-1.1044992e-02  1.2343852e-02  1.1385563e-02 -1.3066486e-02
 -2.5284899e-11  1.0047924e-03 -1.3445078e-03  2.2337956e-03
 -1.6528522e-03  1.9759966e-02 -1.5681552e-02 -2.0041212e-03]","[-5.1226253e-03  1.6637636e-02 -1.1001643e-02  1.3765019e-02
 -3.8762731e-03 -1.1327267e-09 -6.8322540e-04  1.2197091e-03
  1.0584363e-02 -1.1099565e-03 -4.8471028e-03 -1.8671999e-02]","[-0.01120974 -0.00321288 -0.01259945 -0.00918149 -0.00900041 -0.00778495
 -0.00376543 -0.01388572  0.02037489 -0.00519941  0.00566653  0.01157687]","[-1.3688205e-02  9.3199029e-05  4.8854430e-03  2.2988873e-02
  1.1049294e-10 -7.7724566e-05 -3.7818241e-03  5.7810997e-03
  1.5483870e-02 -9.7002694e-03 -1.3279302e-02 -1.8494401e-02]","[-1.8771263e-02  1.0331526e-03 -1.4354866e-03  1.0201438e-02
  3.3797286e-03  2.0494294e-06 -2.1350402e-03  1.9921035e-02
  1.3422060e-02  1.2904646e-02  2.1543555e-02  1.0896449e-02]","[ 0.00402085 -0.00294481  0.0099778   0.01882114 -0.00470846 -0.00353934
 -0.001125   -0.01152676 -0.01166587  0.00794116  0.00238486 -0.01124121]","[ 1.36522194e-02 -1.77497405e-03  5.78182610e-03  4.89317160e-03
 -1.29529187e-09 -1.27165788e-03  4.25255392e-03 -8.71418417e-03
  6.10332564e-03  2.08469480e-03 -8.03676713e-03 -1.55911995e-02]","[ 6.1671337e-05 -6.4606862e-03 -6.2612997e-04  1.6580850e-02
 -3.3809675e-03  4.2926890e-10  3.3096019e-03  6.8015531e-03
 -1.2546406e-02  1.2070654e-02  8.4118126e-03  4.0982543e-03]","[ 0.00129657  0.01989288  0.0028947   0.0084938  -0.00793959 -0.00437654
 -0.00220451  0.0087581  -0.00264556 -0.00533018 -0.01504585  0.00326451]","[-2.0698523e-02  8.0800867e-03  1.1899261e-02 -3.5367813e-03
 -2.0322133e-11 -3.2119667e-03 -1.6688240e-03 -4.1220183e-03
  4.0929765e-04  5.9803468e-03  5.6822905e-03  8.9328559e-03]","[ 4.7066477e-03  4.7426512e-03  4.2439499e-03  7.3184459e-03
 -5.9424206e-03 -4.3442361e-07  4.8307361e-04  1.9073693e-02
 -2.9339530e-03  1.0960380e-02 -7.9579726e-03 -6.3019320e-03]","[-0.00851656 -0.00370925 -0.01551271 -0.00550593  0.0006683  -0.00425185
  0.00253638  0.00543899  0.01985919 -0.00480478  0.00433766  0.00715818]","[ 8.5919537e-03 -1.5395007e-02  1.3558048e-02  1.5863476e-03
 -2.8918904e-11  2.1666492e-04  1.8961166e-03  1.6483208e-02
  1.6880563e-02 -3.6579666e-03 -2.6474234e-03 -1.5706435e-02]","[ 1.90641149e-03 -1.21947015e-02 -1.02458810e-02 -1.57822240e-02
  3.56437545e-03  6.82348897e-08 -3.82795674e-03 -1.35814669e-02
  1.11930585e-02 -1.54772121e-02  5.77646354e-03 -2.40735672e-02]","[-0.00414115 -0.00849853 -0.00961954 -0.01428145  0.0024724  -0.0037416
 -0.00465969 -0.01813192 -0.00563291 -0.00198857  0.01291678  0.00292389]","[-1.0088136e-02  4.6283761e-03  1.6918248e-02  1.2714208e-02
 -3.6029643e-10  1.4590167e-03  1.2607329e-03  9.4335582e-03
  1.7411787e-02  2.0722555e-02 -6.3800556e-03  6.1212713e-03]","[ 4.51386347e-03  1.48236547e-02 -6.99484488e-03 -5.54133486e-03
 -1.11921596e-04  9.37747416e-07 -2.66123959e-03  1.63190905e-02
  7.31643988e-03 -1.42690623e-02  2.32532178e-03  1.17400354e-02]","[ 0.01201486  0.0168821   0.00620862 -0.00311483  0.00629045  0.0014136
  0.00133003  0.00723853 -0.00664413  0.00958033 -0.01138701 -0.0028988 ]","[-7.9919873e-03 -6.7647304e-03  1.4141035e-02  2.0714685e-02
 -2.3942905e-11  1.4576062e-03  3.2428582e-03 -5.2021951e-03
  8.0519443e-04 -8.8623958e-03 -1.8476708e-02  9.8575260e-03]","[-2.2548798e-03  5.1118024e-03  4.6137362e-03 -1.4587634e-02
 -4.4630463e-03 -5.0379066e-11  9.2586932e-05  9.5980400e-03
 -4.6604238e-03  1.3210093e-02  2.3347823e-02  4.1689430e-03]","[ 0.0136558   0.00032463 -0.01856636  0.02119634  0.00475885  0.00401764
 -0.00298029  0.00816424 -0.00341128  0.01045741  0.01876929  0.00282705]","[-1.31194936e-02  1.01349894e-02  1.39675811e-02  3.18201957e-03
  3.42541377e-11 -1.41284650e-03  1.43536646e-03 -1.11068344e-04
  6.70520996e-04  6.43080287e-03 -2.17846548e-03 -1.25278970e-02]","[ 4.4219210e-03  1.1934202e-02 -4.3384121e-03  6.4025084e-03
 -1.4921597e-03  1.4087275e-06  2.8232884e-05  9.8067289e-03
 -9.8793013e-03 -1.7101984e-02  2.1465521e-02  6.8691662e-03]","[ 0.00470526 -0.01143357  0.00025783 -0.0136078   0.00930654  0.0045788
 -0.00188603 -0.00895734  0.01936535 -0.00204645 -0.01306341 -0.0090093 ]","[-1.1505162e-02  7.8939665e-03  8.9732902e-03 -9.1653187e-03
 -9.2845766e-12 -8.7003340e-05 -2.8182759e-03 -1.3210113e-02
 -8.6679216e-03  5.6632161e-03 -4.5516533e-03 -1.8472522e-02]","[ 8.06058291e-03 -1.19877104e-02  2.50452757e-03  9.62260365e-03
 -1.82876026e-03 -1.14338545e-05  3.80093581e-04  9.73119866e-03
 -5.81585895e-03  9.42270923e-03 -1.29629364e-02  9.23175365e-03]","[ 0.02106185  0.01668358 -0.01012013 -0.00488214 -0.00877883 -0.00955083
 -0.00430305 -0.00489526 -0.00786439  0.0074491   0.00613736 -0.00595333]","[-1.5850035e-02 -3.9647315e-03  3.5023717e-03  1.4837248e-03
 -5.9891696e-11 -3.2116177e-03 -2.3445012e-03  1.4364786e-02
  1.1844196e-02  1.9278344e-02  1.6846409e-02  3.9237621e-03]","[-4.94308816e-03 -2.91923294e-03 -1.01707354e-02 -1.49518475e-02
  3.25025106e-03  1.94626038e-10 -4.09751944e-03  1.14428718e-02
 -1.55492062e-02 -1.63616985e-02  2.01944560e-02 -1.12576354e-02]","[-0.01070252  0.01817598 -0.00132249  0.01924166  0.00865934 -0.00662586
 -0.00237695 -0.00578587  0.00934884  0.01105873  0.00244865  0.00549365]","[-2.0503750e-02  2.0351573e-03  4.1803545e-03 -2.5217102e-03
  6.1807059e-11  3.0454679e-04  7.6598959e-04  1.0588400e-02
 -1.0457192e-02  1.8444099e-02 -3.9362432e-03 -1.2496166e-02]","[-5.0948667e-03  1.4551258e-02 -5.7643484e-03  4.0191840e-03
 -2.8252953e-03 -3.7818675e-11 -3.8923514e-03 -3.9252150e-03
 -9.3449755e-03  5.8009787e-03  2.4162350e-02 -9.6991546e-03]","[-0.01094552  0.00144579  0.01280509 -0.01093038 -0.01487438 -0.0019727
 -0.00330557 -0.00830449 -0.00591135  0.0096715   0.01167061  0.01782228]","[-1.01463143e-02  5.59071358e-03  1.34077026e-02  2.59670033e-03
 -1.62962647e-11 -1.51917862e-03 -3.51955462e-03 -1.27300015e-02
 -8.84901918e-03  2.94053392e-03 -7.33903330e-03  3.47094989e-04]","[ 1.2792415e-02  9.5195166e-04 -5.7935133e-03  1.4229485e-02
  8.1867294e-04  4.0608862e-07 -3.8135555e-03 -8.5450634e-03
  5.8037071e-03  5.7013654e-03  1.6174400e-02  1.0125595e-02]","[-0.01141098 -0.00290772 -0.005665   -0.01463273 -0.00864071 -0.00841767
 -0.00206156  0.01184319 -0.00180056  0.00537284  0.01371868 -0.01730967]","[-1.73252728e-02 -1.39174610e-02  3.57515179e-04 -9.66919400e-03
 -1.15452085e-10 -5.00014808e-04  2.75244587e-03  8.57884716e-03
  1.02806874e-02 -1.17574248e-03  8.04508105e-03 -2.16811020e-02]","[-4.5572119e-03 -1.4749556e-03 -9.0839859e-04  1.6665203e-02
  1.3497386e-03 -1.1414106e-10  3.3621283e-03  3.3189273e-03
 -1.8185632e-02 -3.5810084e-04 -9.7752558e-03 -8.0523640e-03]","[ 0.0107174   0.01612409  0.01278569  0.00723694  0.00188078 -0.00112305
 -0.00179436  0.00648325  0.00387116 -0.00621403  0.00252915 -0.01295191]","[ 4.7501731e-03 -1.3341516e-02  1.8429788e-02 -2.2859857e-03
 -1.9210349e-10  2.6477971e-03  2.8414370e-03 -6.5419776e-03
  1.3940604e-02 -1.0292999e-02 -1.8268995e-03 -1.5495520e-02]","[-1.54067297e-02 -6.18187105e-03 -1.11586433e-02 -1.30573865e-02
 -2.44004535e-03  1.74782067e-09  1.45340478e-03  3.77721828e-03
 -1.65338479e-02  1.04630198e-02  2.11176686e-02 -1.84077509e-02]","[-0.0011652   0.00090527 -0.01245839  0.00481906 -0.00311443 -0.00761847
  0.00249961 -0.00293757  0.01794309 -0.00547781  0.0207917   0.00142238]","[-7.0101894e-03 -1.4672750e-02 -2.2179019e-03 -7.4732085e-03
 -2.9321684e-11  4.7758021e-03  5.1682726e-03  6.1210762e-03
 -1.0958807e-02  2.6372203e-03  1.5565757e-02 -9.4525274e-03]","[-0.01058615 -0.00906365  0.00055587  0.00519775 -0.00098218 -0.00017347
 -0.00329023 -0.00846541 -0.01142832  0.0026272  -0.0052417  -0.02515113]","[ 0.01314382 -0.00878709 -0.0147805  -0.00621649 -0.00763982  0.001936
 -0.00418598 -0.00912989 -0.00199403 -0.0005615   0.0196818  -0.01839438]","[ 1.2833293e-02 -1.4734566e-02  2.9721707e-03 -7.8454119e-04
  5.2502464e-12 -3.1996011e-03 -5.2553311e-04 -8.2493515e-04
  1.9972305e-05  4.0988019e-03  2.7936797e-03  5.7452000e-03]","[-1.3421517e-02  5.2333539e-03 -9.6988585e-03 -1.7248696e-02
 -7.9225644e-04 -3.1667929e-05 -2.8878024e-03  1.0774626e-02
 -8.9792265e-03 -9.7602466e-03 -9.2938384e-03 -1.2959258e-02]","[ 0.0163417   0.01405333  0.01314465  0.01459456 -0.0147345   0.00476432
 -0.00467622  0.00192802  0.01962301 -0.00259787  0.00748009  0.00931352]","[ 1.1761909e-02 -9.6377004e-03  2.7083862e-03 -1.2643712e-02
  4.2755136e-11 -3.9433502e-03 -4.2784042e-03 -1.2670281e-02
  5.5425833e-03 -2.1680587e-03  7.7226697e-03 -2.8671420e-03]","[ 1.0179904e-02 -1.0015495e-02  9.7106062e-03 -2.0517768e-02
 -3.0917311e-03  6.1187151e-05 -7.3221559e-03  5.5756127e-03
 -5.9622424e-03 -1.8563727e-02 -4.5322245e-03 -4.5656511e-03]","[-2.1769332e-03 -6.4551041e-06 -1.4162963e-02 -1.5293532e-02
  6.9441455e-03 -7.0379879e-03 -2.5919604e-03 -1.2529507e-02
 -3.2176282e-03  7.1254084e-03 -3.0461159e-03  5.7970006e-03]","[-1.2733973e-02 -5.4789656e-03 -5.9170998e-05  9.6352138e-03
 -4.3616864e-11 -7.8164577e-04 -2.6141626e-03  1.0428093e-02
 -1.5708448e-02  4.6247654e-03  6.9962610e-03  3.9441125e-03]","[-1.8110434e-02 -9.4249183e-03  4.5060785e-03 -1.5250151e-02
  4.2156471e-04  3.3001361e-05 -6.8015549e-03  1.4366780e-03
  2.6768276e-03 -7.4886577e-03 -8.1134923e-03  6.6613895e-03]","[-0.00070007 -0.00228382  0.00400793  0.01549225  0.0016728   0.00400815
  0.00241306 -0.01008799  0.01655317  0.01123866  0.0163762   0.00291719]","[-1.6604260e-02  1.6104047e-03 -5.1629408e-03  1.4195379e-02
  2.3919856e-11 -7.3741924e-04 -3.6516503e-04 -7.8937225e-03
  5.2651679e-03  5.2110055e-03  1.1164619e-02 -2.3225460e-02]","[-0.0151133  -0.0009653  -0.00156448  0.01195582 -0.00244371  0.00013021
  0.00380169 -0.00491965  0.00274582 -0.00794695 -0.008362   -0.02247556]","[-0.00187406 -0.00701916  0.00154724  0.02074598  0.00450801  0.0037832
 -0.00136123  0.00995511  0.01891958 -0.0044764   0.01598409 -0.01213824]","[ 5.0743972e-04  1.3692263e-02  1.6526872e-02  1.9184906e-02
 -5.3029119e-11  1.5416777e-03  5.0799185e-03  1.4479168e-02
  2.5197207e-03  1.9536117e-02 -1.1243724e-02 -7.5151189e-03]","[-0.01000221  0.00845537  0.00434954 -0.0051668  -0.00193782 -0.0001163
 -0.00247579  0.00310269 -0.00690492 -0.00634438  0.00947393 -0.0200523 ]","[ 0.00537547 -0.00978007  0.0045464   0.00225542 -0.0118736   0.00245532
  0.00050219 -0.01229813 -0.01086647  0.00167043 -0.00689305 -0.00315917]","[ 3.1871514e-05 -2.6897055e-03  1.0921228e-02 -4.5278105e-03
 -4.4455395e-09  3.7250160e-03 -3.9628125e-04 -3.1214801e-03
 -8.4558362e-03  2.1070328e-02 -1.9880094e-02 -8.6205211e-03]","[-1.1885357e-02  6.9883028e-03  4.3252553e-03  8.1593385e-03
 -1.4310858e-03  6.9736625e-06 -6.1506731e-03  8.0559272e-03
 -1.3355010e-02 -8.3623483e-04  9.6651423e-04 -1.4666078e-02]","[ 0.02163344  0.01588131  0.01284576  0.01204426  0.00574457  0.00075187
 -0.00362176  0.00641782  0.01978751 -0.00368091 -0.00304244  0.0127061 ]","[-1.2615339e-02  2.5104219e-03 -5.3557726e-03 -6.6339732e-03
  3.9426520e-10 -4.1179340e-03 -3.0510400e-03 -9.3788393e-03
  6.2089171e-03  4.8898679e-04 -1.9963682e-02  1.0364769e-02]","[ 0.01115891  0.00984581 -0.00480015  0.00107236 -0.00160873  0.00038438
 -0.00036552 -0.00177711  0.01383416  0.00524922 -0.00167327 -0.00911976]","[ 0.00082428  0.01412607  0.00770988  0.01909192 -0.01076469 -0.00327796
 -0.00351256  0.00659673  0.00137066 -0.00143542 -0.0159149  -0.01463399]","[-1.5146548e-02  6.4634583e-03  1.0742942e-02  1.5478654e-02
 -2.5711686e-06  5.0980989e-03  5.2409479e-04 -1.1939675e-02
  1.3599052e-02  1.6605617e-02 -7.3337075e-03 -2.0994430e-02]","[ 0.0089445   0.01050883 -0.00434773  0.01631921  0.00133812  0.00010396
  0.00318475  0.00167735 -0.00870073 -0.00031198 -0.00649885 -0.01280703]","[ 0.0143313   0.01859825 -0.0142809   0.01604151  0.00178785 -0.00080587
  0.00075515  0.01070609  0.00596713 -0.00877158  0.01056035 -0.01858756]","[ 7.9138950e-03 -3.0165489e-03  4.2601605e-03  5.0049759e-03
  2.6236917e-11 -3.4423724e-03  3.9758813e-03 -1.1707706e-02
  1.5187501e-02  1.9237954e-02  1.6526518e-02 -2.3281028e-02]","[-0.00494183 -0.00618977  0.00323048 -0.00914741 -0.00060182  0.00025271
  0.00060851 -0.00428767  0.01279439 -0.0140581  -0.01355731 -0.00150601]","[-0.00026175 -0.00757349 -0.00631697 -0.00111571  0.00562986 -0.0030215
  0.0027425   0.01223283  0.01386353  0.00860002 -0.01008138 -0.01018921]","[ 7.4196127e-03 -6.5251854e-03  1.5726030e-02 -1.9717836e-03
 -5.2424082e-05  4.5266151e-03 -5.5704648e-03  7.5480673e-03
  1.1142412e-02  1.9615721e-02  1.8919222e-02 -4.2566466e-03]","[ 1.0771177e-02 -1.4058050e-02  7.3218490e-03  3.0757668e-03
 -1.5046031e-03  7.6204815e-06 -7.7428697e-03  3.9205863e-03
  3.4496146e-03  4.4736811e-03  2.3397284e-03 -2.2852458e-02]","[ 0.00132854 -0.00853459 -0.0135351   0.01596088  0.0074001   0.00247935
 -0.002895   -0.00769914 -0.00819549  0.00957262 -0.01590223  0.0110192 ]","[ 0.00683755  0.00216861  0.00932825 -0.00091554 -0.00033965 -0.00131221
 -0.00501826  0.00085515  0.01758839  0.01523053  0.00296699 -0.02192658]","[ 1.08216265e-02  5.64364949e-03 -7.18053291e-03 -2.01515574e-03
  2.56076292e-03  5.34654205e-08 -6.58517051e-03 -1.18780388e-02
  1.36823487e-02 -7.24067399e-03  1.65299624e-02 -1.24260504e-02]","[-0.00424458  0.01281724 -0.00102619  0.01324489 -0.00942975 -0.00708617
 -0.00114734 -0.01793438  0.0084805  -0.01529103  0.00805566  0.0010809 ]","[-9.9199554e-03 -1.2234527e-02 -2.5938032e-03 -3.0006801e-03
 -3.8488812e-05  5.2446791e-04  2.0413322e-03  9.2228027e-03
 -1.4572223e-03  6.3141674e-04 -4.8223250e-03 -1.4767968e-02]","[-2.3696513e-03 -9.1535421e-03 -4.4366727e-03 -1.1152315e-03
 -6.4821116e-04 -3.2582977e-07 -7.2023515e-03  3.7667411e-04
  4.0856386e-03 -1.7274268e-02 -1.3854876e-02 -5.3744386e-03]","[ 0.01504524  0.0123859   0.00036482  0.00400557 -0.00510321 -0.00604656
 -0.00154482  0.01056296 -0.0123775   0.00855496  0.00550033  0.01112188]","[-4.7003310e-03  1.3777550e-02  7.6549416e-03  2.9852975e-03
  1.1893838e-11 -3.8910029e-04 -3.2334146e-03  1.4912871e-02
  9.6139647e-03  8.9139855e-03 -6.1636390e-03  9.3293134e-03]","[ 1.71279665e-02  3.97584913e-03  7.91151915e-03 -1.17707974e-03
 -7.28065861e-05 -7.14103123e-08 -5.36256097e-03  1.28417155e-02
 -9.14674893e-04 -1.43232476e-02  2.27751136e-02 -7.82324746e-03]","[ 0.02012549 -0.01078486 -0.01182059  0.01099154 -0.01037612 -0.00276172
 -0.00024356  0.00751199  0.00020965  0.00323215  0.00233223 -0.00099899]","[ 1.2820069e-02  1.4829881e-02  2.7339824e-03  1.1811572e-02
  3.3155120e-06 -2.8831184e-05  3.3594139e-03  9.3187783e-03
  7.9146409e-03  6.2193302e-03 -1.0778937e-02 -8.9932233e-03]","[-1.9291217e-02  9.2415744e-03 -1.1486203e-03  1.3131459e-02
 -2.8572208e-03 -2.4026932e-07 -1.3270747e-03  1.4765532e-03
  4.5817024e-03  1.1872560e-02  4.9405862e-03  5.7998006e-03]","[ 0.00252356  0.00698117 -0.01037121  0.00584983  0.00557078 -0.00269837
  0.00095494  0.00079882  0.00309369  0.00915082  0.01544551 -0.01458926]","[ 2.3924469e-03 -1.4979863e-03  7.6118181e-03  1.3263812e-02
  1.4371013e-06  1.6349776e-03 -4.1799922e-03 -1.1705017e-02
 -4.0589445e-03 -7.9316534e-03 -1.3757061e-02 -4.3889722e-03]","[-3.87908751e-03  8.43013264e-03  6.44755224e-03  1.76423590e-03
 -3.58501892e-03  3.41992109e-06  1.66221405e-03  1.56521872e-02
 -9.79317352e-03 -1.25354193e-02 -1.30552165e-02  2.04240647e-03]","[ 0.0080193  -0.0053791  -0.00559576  0.01511361  0.00514825 -0.00988322
 -0.00520032  0.00658682  0.00959848  0.01107438  0.01031651 -0.00634472]","[ 4.5350306e-03 -1.1353080e-02 -3.4097489e-03  8.7476252e-03
 -1.3498441e-10  8.7426312e-04  5.4028528e-03 -5.7771979e-03
  1.4327333e-02  9.2459349e-03  1.3553370e-02  8.1812842e-03]","[ 1.2834069e-02 -1.5090486e-02 -9.3677612e-03 -1.6956788e-02
  1.5814215e-03  6.3289085e-06  3.0367446e-04  1.8399287e-02
  1.3900356e-03  9.1160228e-03  1.8424630e-02  2.2602410e-03]","[ 2.26691011e-02  8.01846106e-03 -5.09156752e-03  1.32166725e-02
 -7.10614212e-03  2.25918484e-03 -1.35475048e-03  9.68505908e-03
  1.33975334e-02 -5.65799070e-04  9.67267915e-05 -1.21561345e-02]","[-1.5359923e-03 -8.6839302e-03  1.3188454e-03 -3.9880731e-04
  3.4055824e-11  1.0138481e-03  1.8137320e-03  7.2788280e-03
  1.5625687e-02 -9.5641632e-03 -8.7744566e-03 -1.0518412e-02]","[-1.2445542e-02  1.4135372e-02  3.6316460e-03 -5.1159356e-03
  9.5797749e-04  1.8588293e-05 -6.8622991e-03  1.0456988e-02
 -1.8623747e-02  4.5218584e-03  7.7024731e-03 -1.5328319e-02]","[ 0.0062774   0.00537805 -0.01794712 -0.00590713 -0.01276893  0.00377931
 -0.0048884   0.00118142 -0.01288594 -0.01555959  0.01794263  0.00784019]","[ 1.70696005e-02 -5.91699313e-03  6.91801077e-03  1.47500739e-03
 -1.10857400e-11 -1.47952256e-03 -5.97523851e-03  1.48869772e-02
  1.79999117e-02 -1.63132616e-03  1.10940804e-04  4.34879167e-03]","[ 0.00523783  0.00273205 -0.00205194  0.00861421 -0.00247099  0.00014374
  0.00109031 -0.00715444 -0.01158443  0.01025986  0.00915871  0.00981114]","[ 0.01263786 -0.00462275  0.0101139  -0.00931546 -0.00911478 -0.00095944
 -0.00578564  0.01236751  0.01657883 -0.00064568 -0.00151284 -0.0080937 ]","[-1.7953241e-02  1.2343753e-02  1.0545218e-03  9.6106163e-04
  2.5188487e-11  5.0853827e-04  2.8119623e-03  7.1919146e-03
 -1.1216728e-02  1.7572949e-02 -1.0076703e-02 -1.9218629e-02]","[-5.5329357e-03  1.4915012e-02 -4.8644748e-03  1.0440266e-02
  1.5913367e-03  4.1498781e-05 -4.6897740e-03 -4.0493771e-03
 -1.5842104e-02  1.3955969e-02  8.8831894e-03 -2.4559535e-03]","[ 0.00494023  0.01276168  0.00253802  0.00078833 -0.00063622 -0.00437788
  0.00383668 -0.01395413  0.01262665  0.01272966 -0.01608357 -0.00372017]","[ 5.2968133e-03 -1.0343157e-02  9.7587528e-03 -9.0643801e-03
 -1.7625335e-11  1.5200251e-03 -3.7953695e-03 -1.3039006e-02
  1.2199876e-02  1.7811147e-02 -1.3837970e-02 -1.3571005e-02]","[ 1.2336014e-02  1.0960749e-03  2.1791852e-03 -1.1516083e-02
 -4.1382159e-03  2.5696986e-06  3.1152877e-03  5.6545502e-03
  1.2148683e-02  1.2889886e-02 -1.0049860e-02 -7.7154459e-03]","[ 0.00845903  0.00383612 -0.00453978 -0.01458914 -0.00984082 -0.00515519
 -0.00245897  0.01296922  0.00848459 -0.00191512  0.01652926 -0.00013224]","[ 1.5952796e-02  9.5734233e-03  5.5777561e-03  2.2460183e-03
  4.2166298e-11 -7.6839892e-04 -5.5703511e-03  8.5727051e-03
  3.0628112e-03  5.1073320e-03  1.8626533e-02 -4.5009898e-03]","[-1.2666410e-02 -1.2689663e-02  4.8242668e-03 -6.2590288e-03
  5.3375849e-04 -2.4444601e-06  4.8489128e-03 -1.6049306e-04
 -7.9207309e-03  3.3215706e-03  1.2516422e-02 -9.5002539e-03]","[-0.00619349  0.01259858  0.00056265  0.0198697  -0.00929687 -0.00723908
  0.00221017 -0.0151348  -0.00019724 -0.00661696  0.00537696 -0.00018469]","[ 3.5500654e-03 -4.4393227e-03 -2.4877065e-03  1.6076934e-02
 -5.0250065e-11 -7.5332978e-04  5.8951619e-04  7.9766102e-04
  3.1628394e-03  2.0180443e-02 -1.3118511e-02 -1.8151760e-02]","[ 6.4271968e-03  1.1577672e-02 -8.7206392e-03  1.4393084e-02
 -6.0677336e-04 -6.7960323e-06 -2.0854461e-03  1.7476281e-02
  1.2632959e-02 -1.6319031e-02  2.4221677e-02 -1.3817420e-03]","[-0.00416571 -0.01202202  0.00145387  0.01640995  0.0022016  -0.00832911
 -0.00497487 -0.00626236 -0.01156428  0.00568271  0.01610254  0.01859939]","[-1.1248282e-02  1.5069418e-02  1.7593194e-02 -1.1557096e-02
 -4.6904515e-11 -1.1762566e-03  4.9554436e-03 -2.9820593e-03
  1.5929321e-02  1.2851871e-03  7.7843838e-03 -9.3557164e-03]","[-5.6739398e-03  3.2510431e-03  5.9826048e-03 -1.9042917e-02
 -3.9475630e-03 -6.1271157e-06  1.3675458e-03  3.1538091e-03
  1.0950338e-02 -8.0073718e-03 -1.4005107e-02 -1.5425548e-02]","[-0.000213    0.0211687  -0.01680708  0.00468005  0.00082335  0.003041
  0.00203878  0.01251791  0.01192182 -0.0168919  -0.01293617 -0.00660091]","[-1.4117275e-02  1.0664639e-02  6.0822833e-03  6.2426804e-03
  6.0059152e-11  1.7642144e-04 -4.7390307e-03 -5.8112917e-03
 -7.4826676e-05  9.7253732e-03  1.7604498e-02 -9.2559066e-03]","[-1.2055241e-03  2.0294196e-03  3.3468679e-03 -1.9999843e-02
 -3.5410619e-03  1.4063601e-05 -6.0245898e-03  1.5227172e-02
 -1.7596584e-02  9.0858424e-03  9.6756043e-03 -1.0912240e-03]","[-0.00511446 -0.00767164 -0.00789006  0.020119   -0.01333031 -0.00162244
 -0.00171348  0.0054219  -0.00948241  0.00284002 -0.0070079  -0.01410243]","[ 1.1460751e-02  3.3651190e-03  7.7269133e-03 -2.3823557e-03
 -1.9321732e-11 -3.3817691e-05  7.0954883e-03 -5.3391367e-04
 -4.5044110e-03 -1.2327431e-03 -1.4325038e-04 -1.3969351e-02]","[ 1.5877418e-02 -8.7204454e-03  4.3355729e-03  1.0190576e-02
 -3.7874616e-04 -2.5197643e-05  3.2548672e-03  5.1162113e-03
 -1.2613472e-02  1.1618600e-02 -6.9839670e-03 -2.0214301e-02]","[-0.01311217 -0.00300622  0.0024622  -0.01520634 -0.00417947 -0.00722227
 -0.00375352 -0.00274228 -0.00630477 -0.01302595  0.0062169   0.00855838]","[-1.0337880e-02 -7.7981884e-03 -5.4631392e-03  1.9630190e-02
  9.8188999e-11 -2.8642107e-04  2.6477794e-03  1.0484206e-02
  9.4763533e-04  1.7792448e-02 -1.5201556e-03  2.6914973e-03]","[ 5.4469500e-03 -5.0244136e-03  4.1213622e-03 -1.7079279e-02
  1.2380950e-03  3.3548138e-06 -7.8333344e-04 -1.3149951e-02
 -8.4407637e-03 -1.5681272e-02  2.0577053e-02 -1.0635842e-03]","[ 0.00240163 -0.00204808 -0.00614119  0.01543793 -0.01423039 -0.0019629
  0.00147959  0.01005874  0.01228503  0.01241408  0.01028671  0.00486098]","[-1.8786641e-02 -1.5779173e-02 -3.2364714e-03  1.1786045e-02
  1.9681079e-10  1.8124090e-03  4.8414841e-03  9.5590055e-03
 -1.0113118e-02  4.1762548e-03 -4.8130914e-03 -5.3086248e-03]","[ 5.4732785e-03 -2.4885000e-03 -6.8200515e-03 -1.8493438e-02
 -1.1718840e-03  1.4910445e-06 -4.2780614e-03  9.9906577e-03
 -1.0971686e-02 -6.6594463e-03 -5.9411000e-03 -1.9324010e-02]","[ 0.02112697  0.01254861  0.0085649  -0.00944905  0.00935589 -0.00775611
 -0.00389666 -0.00070222  0.00052447 -0.01338769 -0.01485301 -0.00746881]","[-1.37517620e-02  4.07888880e-03  8.59323237e-03  1.10617895e-02
 -6.09428197e-09  1.33330084e-03  1.42632605e-04  3.84406792e-03
 -1.50547537e-03  1.80114117e-02  3.54659790e-03 -3.57109122e-03]","[-1.44429663e-02  1.66457221e-02  3.17646103e-04 -1.53390095e-02
  8.69425639e-05  6.38949041e-06  1.87186257e-03  7.75229093e-03
 -1.90026108e-02 -1.19031165e-02 -2.89888633e-03 -1.65189654e-02]","[-0.00315297  0.00282658  0.00185624 -0.00890184 -0.0076858  -0.00569315
 -0.00290622 -0.00195271  0.00560377 -0.00283859 -0.00842908 -0.00978566]","[-1.7800670e-04 -1.4463032e-02  1.0439934e-02 -1.4758782e-02
  1.3270438e-08  1.6820934e-04  6.7124469e-04  1.1259462e-02
 -2.9618822e-03  9.0480931e-03  2.0356327e-02 -2.4365026e-03]","[ 2.9623630e-05 -1.0185652e-02 -1.0648332e-02  1.5532708e-02
  3.2999259e-03  1.4962066e-05  3.4294343e-03  1.0471006e-02
  6.4138016e-03 -1.3362827e-03 -1.1883908e-02  1.2803679e-02]","[ 0.02173893  0.01983211  0.01159625 -0.0139801  -0.01273251  0.00016511
  0.00289947 -0.00934671  0.02012245  0.0077818  -0.00455513  0.00948521]","[ 7.1329833e-03  3.1269388e-03  1.1453204e-04  9.9392459e-03
 -2.7259620e-10  3.0302259e-03  2.7287656e-03  2.3286445e-03
  5.3075785e-03  3.1806796e-03  5.2770268e-04 -1.0330246e-02]","[-5.3379632e-04 -2.9854972e-03  6.0714628e-03 -1.4430085e-02
  2.6611204e-03  2.0621702e-07 -5.3537716e-03  4.1000997e-03
 -7.1261317e-04 -1.6145319e-02 -4.9431925e-03 -2.1567354e-02]","[ 0.00617099  0.01814714 -0.01116636 -0.01183301 -0.00196163 -0.00216462
  0.00328912 -0.0020036  -0.00810867  0.00122812 -0.01545874  0.01504437]","[-1.6438847e-02  5.8800576e-04  1.3500541e-02 -1.2087693e-02
  2.7550020e-12  3.5408088e-05  5.5484585e-03  4.2749010e-03
  9.5784394e-03  5.2688648e-03 -1.4852296e-02 -1.0348478e-02]","[ 1.7714689e-02  7.1675465e-03  9.7479159e-03 -1.1099840e-02
  1.8909114e-03 -9.5049724e-10 -3.1516061e-03  1.0283784e-02
  3.8965843e-03 -1.4187454e-02  1.6227000e-03 -6.9640214e-03]","[ 0.0160399  -0.003705   -0.01654849  0.00480733 -0.00097627  0.00044731
 -0.00602996 -0.0096291  -0.00710338 -0.01249872  0.01140441 -0.00671241]","[ 1.4450027e-02  7.6023949e-04 -3.4494714e-03 -1.4974199e-03
 -5.3427562e-12  2.8351883e-03 -2.6154160e-03 -1.0841425e-02
  1.5764099e-02  1.6588332e-02  1.5584368e-02 -6.4666346e-03]","[ 4.0006479e-03  9.1312389e-04  3.4641710e-03 -1.5376574e-02
  2.6353288e-03  2.7298140e-06 -7.2029033e-03  1.7203698e-02
  3.0828244e-03 -2.8158480e-03 -1.3869282e-02 -1.7427241e-02]","[ 1.9936798e-02  3.0907192e-03 -1.5449746e-03  2.5766019e-03
 -7.0930473e-06  4.3929764e-03 -5.8047548e-03  9.0261810e-03
  7.8285597e-03  8.0128131e-04 -1.7249966e-02  1.7589252e-02]","[-5.9119142e-03 -1.6110430e-03 -2.2984101e-03 -2.5420005e-03
 -1.8456727e-11  2.0294457e-03  1.7233687e-03  8.9856097e-03
 -1.2699513e-02  1.0768413e-02 -9.5547298e-03  1.3726418e-03]","[ 8.7508326e-03  1.6716281e-02  9.9487472e-03 -1.3307210e-02
 -4.9026161e-03  1.4346151e-06 -5.8897282e-04 -1.2099738e-02
 -1.1438442e-02 -5.3681019e-03 -7.3035951e-03  9.7199166e-03]","[-0.00511787  0.0067876   0.00635686  0.00869757 -0.00833335 -0.00906679
  0.00314957  0.00028262  0.01244851 -0.0168924  -0.01861914 -0.00868424]","[ 1.35645615e-02  6.66752970e-03  1.58424992e-02  9.01276618e-03
  5.53855009e-12  2.46179523e-04 -3.02948640e-03 -9.78153944e-03
  8.09615385e-03  6.31624786e-03 -7.47361640e-03 -5.84680773e-03]","[-1.1103309e-02  6.9332367e-05  4.5193825e-03  1.8407602e-02
 -2.9800835e-03 -2.8811526e-04  1.2334817e-03  1.9349359e-02
  1.4634644e-02 -1.3380517e-02  1.8705776e-02  7.0000011e-03]","[-0.01299196  0.01199307 -0.01329335  0.00626491 -0.00117047  0.00177427
  0.00302866  0.00415276  0.00741488 -0.01272266 -0.01287209 -0.00888292]","[-1.07608112e-02  1.24539556e-02  1.72288809e-02  1.09362938e-02
 -5.36112621e-09  1.72800414e-04 -2.98215658e-03 -1.05548594e-02
 -6.02555042e-03  1.37775252e-02 -1.76851719e-03 -1.51593145e-02]","[ 1.6943803e-02 -9.7192386e-03 -1.3405150e-02 -1.2373685e-02
 -6.9051338e-03  1.5309202e-05 -3.1454437e-03  1.1870224e-03
  6.6988762e-03  8.4461225e-03  8.1304265e-03  4.7067488e-03]","[ 0.01744413  0.0125893  -0.01595118 -0.00903084 -0.00787889 -0.00022901
  0.00053356 -0.00775908  0.00335789  0.00839808 -0.0139492  -0.01058561]","[ 1.7715383e-02  8.7864761e-04  5.0934227e-03 -6.7634634e-03
 -3.8684216e-06 -1.6882403e-04 -9.1557764e-04  8.2145538e-03
  6.9229845e-03  1.1016770e-02 -8.5563892e-03 -1.9815588e-02]","[-1.30142784e-03 -8.48995056e-04 -8.75150412e-03  1.62033029e-02
  6.34966476e-04  1.16571910e-05 -4.95213491e-04 -1.26674455e-02
  2.38692597e-03 -1.20948721e-03  6.63270196e-03 -2.22708546e-02]","[ 0.00903558  0.00984876  0.01287014  0.00046794  0.0008292   0.00787252
 -0.00170773  0.00212423 -0.00148486  0.00679367 -0.01097794  0.00743512]","[-4.0738028e-03 -4.4689258e-03  1.5911188e-02  6.2784152e-03
  1.6915452e-10 -3.4347770e-04  4.2348462e-03  7.7137020e-03
  4.6855384e-03  8.6037498e-03 -2.1702521e-02  3.1522391e-03]","[-1.3936692e-02  1.2612849e-02 -1.2527940e-02 -6.7981989e-03
 -5.0805034e-03  5.9636634e-05 -1.5785848e-03 -1.0987427e-02
 -1.6615018e-02  1.2339754e-02  6.3185901e-03 -1.5643656e-02]","[ 0.0188572   0.0083003  -0.01014554 -0.00581126  0.00816959 -0.01432787
  0.00062936  0.00802495  0.00259948  0.00035969 -0.00099965 -0.00259846]","[-8.5167522e-03  4.8165699e-03  9.2140352e-03  7.2135148e-04
 -1.6106342e-05 -1.4316072e-04  3.7035374e-03  1.5384978e-02
 -1.4188337e-03 -5.3132409e-03 -3.3955809e-03  9.2167165e-03]","[ 0.01392092 -0.01051504 -0.00702904  0.00679215  0.00210447 -0.0004483
 -0.00504077  0.00289933 -0.01023922  0.00949572  0.00087151  0.00941569]","[-9.27452929e-03  9.82739148e-04  9.16942395e-03  1.94790680e-02
 -1.43071637e-02 -4.29884158e-03  6.79380100e-05  1.40978778e-02
  2.10534800e-02 -1.47140946e-03  1.66740529e-02 -1.45622585e-02]","[ 6.5721059e-03 -1.0249982e-02 -3.2489009e-03 -6.5653371e-03
 -4.9644100e-06 -5.7019199e-05 -1.4387961e-03  1.0429789e-02
  3.8773664e-03 -1.4943228e-03  1.7941033e-02 -9.9485256e-03]","[ 4.7286367e-04  1.5731474e-02  4.7301631e-03 -1.5932381e-02
 -1.4528598e-03  5.6965717e-05 -3.5885925e-04  8.3491756e-03
  7.2578094e-03 -6.2347339e-03  2.1223394e-02 -3.5041552e-03]","[ 0.00097305  0.01507605 -0.00129337  0.00085195 -0.0107201   0.00096194
  0.00110281 -0.0074387  -0.00262976 -0.00754912  0.00010164  0.01356684]","[-2.5488660e-04  1.2185568e-02  3.2473474e-03  1.6356949e-02
 -6.0574226e-11  1.9272456e-04  7.8439002e-04  7.8594014e-03
  3.1494682e-03  9.0028243e-03 -1.5038323e-02 -1.9973131e-02]","[-1.3851671e-02 -9.4023126e-04  4.4617266e-03  1.5176953e-02
 -5.2420832e-03  6.9253560e-06  9.1197732e-04 -9.0505322e-03
  1.5749566e-02 -1.6330430e-02  9.3687680e-03  9.0187732e-03]","[ 3.69193614e-03  1.31922737e-02 -1.30245481e-02  1.38336895e-02
 -1.70044848e-04 -2.69730925e-03  2.28516245e-03  6.28396403e-03
  8.41774672e-05  7.60460785e-03 -1.80210341e-02  1.63667090e-02]","[-3.0794795e-04 -4.4202157e-03  2.7179737e-03  4.8501911e-03
  5.4852811e-10  5.7016525e-05  3.6449595e-03 -6.6372994e-03
  1.5059099e-02  2.1380348e-02  2.2026866e-03 -5.9695183e-03]","[ 6.9281277e-03 -4.6883388e-03 -6.7758393e-03  8.2361028e-03
  1.0444904e-05  1.3326402e-04 -4.8386906e-03  1.0221843e-02
  8.8287955e-03 -6.0872664e-03 -1.4174395e-02 -7.2073983e-03]","[ 0.00784398 -0.00121279 -0.0174785  -0.00293075 -0.00689292  0.00137966
 -0.0013779   0.00430439 -0.00056372 -0.0062247  -0.00110791  0.00037353]","[-5.8115372e-03 -1.3925914e-02  8.1484606e-03  3.9182315e-03
 -8.4251252e-12  5.8866158e-04  8.4053382e-04 -1.1962736e-02
  1.2448119e-03  7.5693317e-03 -1.9945938e-02 -1.9796070e-02]","[ 1.0680564e-03 -6.8235253e-03 -1.2509879e-02  1.4552995e-02
 -2.5881196e-03 -3.6468784e-10 -4.6175076e-03  1.0248272e-02
 -6.5250695e-03 -8.8948477e-03  1.3966495e-02 -1.9807268e-02]","[ 0.02303938 -0.00065361 -0.00701891 -0.00977629  0.00432333 -0.00110914
 -0.00367316 -0.00129759 -0.00649629 -0.00245444 -0.00960896 -0.00412973]","[-2.9949865e-03 -1.5460440e-02  4.0707397e-03  2.0903375e-02
  8.4613870e-13 -3.2825330e-03  4.6966905e-03  1.7369611e-02
 -4.9514901e-03  1.8031705e-02 -8.9308135e-03  1.1377111e-02]","[ 3.17152543e-03 -1.17481155e-02  9.85055696e-03 -1.03917317e-02
 -2.18397868e-03  3.95639424e-11  3.10435775e-03  1.01581067e-02
  9.10004135e-03 -1.43739805e-02  2.31436174e-02 -1.74067318e-02]","[-0.00093398 -0.0061466  -0.0047266  -0.00800302 -0.00918021  0.00319728
 -0.00124019 -0.00819646  0.02031759  0.01314042  0.01889212  0.0114392 ]","[-1.0425189e-02  2.2548751e-03  1.0503835e-02 -1.0706722e-02
 -4.1308090e-12 -3.0173545e-04  3.8472826e-03  1.6917029e-02
  4.1069789e-03  1.2918855e-02  8.6216116e-03  5.3710081e-03]","[-2.8484603e-03  1.8537708e-03 -2.5407830e-03 -1.3082744e-02
 -1.1633316e-03  3.1314071e-06 -1.2494066e-03  1.8759609e-03
 -1.4421627e-02 -1.2059904e-02  4.7554034e-03 -1.1048601e-03]","[ 0.00179372  0.0164653  -0.0058983  -0.01237115  0.00064881  0.00365148
  0.0004111  -0.00801062 -0.00617467  0.00066156 -0.01518045  0.00286725]","[-7.5105783e-03  7.1992562e-03  1.4613392e-02  7.3656822e-03
 -2.3361443e-11  1.4861312e-03  3.6335124e-03  6.6844807e-03
 -1.1179024e-02  1.9011181e-02  7.3168334e-03 -2.3382885e-02]","[-1.8182885e-02 -6.4667081e-03 -1.1286015e-02  7.6665836e-03
 -4.2803711e-03 -4.8949012e-10  7.4955449e-04  1.1684914e-03
  5.1619750e-03  2.6183706e-04  4.9693389e-03 -1.2600296e-02]","[ 0.01252273  0.00091422  0.00634079  0.00027973 -0.01279699 -0.00302035
  0.00257458 -0.01391179  0.01465443 -0.01719579  0.00764575  0.01805388]","[-1.6831838e-02 -5.3106043e-03  1.3031889e-02  1.0711559e-02
 -1.5088755e-11  3.9701830e-03  1.8323186e-03  1.5142273e-02
  1.1707547e-02  1.0162041e-02 -1.9571701e-02 -2.4019906e-03]","[ 5.26412332e-04  1.05087121e-03  1.39502191e-03 -3.23542103e-04
  3.09907668e-03  1.12193047e-10  3.46981134e-04  2.41959118e-04
  1.25324568e-02 -1.24146072e-02  1.94964428e-02  1.28702503e-02]","[-0.00719321  0.00611383  0.00320417 -0.01280975 -0.00407206 -0.00042731
 -0.00327625  0.00834458  0.0013293  -0.01603435 -0.01362497  0.01059112]","[ 8.7720752e-03 -1.3073523e-02 -3.3492288e-03 -8.7682558e-03
  6.1689109e-13 -8.1928156e-04  2.2431917e-03 -1.5951450e-04
  4.2682705e-03 -7.4084001e-03 -4.9660429e-03 -6.9024032e-03]","[-8.6423736e-03 -1.2179425e-02 -7.1856636e-03  8.1386408e-03
  3.6002817e-03 -9.2905265e-07 -3.2637338e-03 -1.0493638e-02
 -9.6721351e-03 -1.0271754e-02  4.8170099e-03 -1.1976043e-03]","[-6.10468024e-03  8.13777931e-03  2.07910911e-04  1.01938248e-02
 -1.21211912e-02  1.71887204e-05  6.23394561e-04 -1.47278095e-02
  4.86190384e-03  3.59235075e-03  6.96436968e-04  1.69615075e-02]","[-1.1876795e-02  1.3172369e-03  4.9319030e-03  5.8849612e-03
 -6.1172574e-11  5.1059304e-03 -1.5028352e-03 -8.6374162e-03
 -4.2526820e-03 -8.4706303e-03  1.1123050e-02  7.5152675e-05]","[-1.3154176e-02 -5.2431896e-03  2.5509682e-03 -6.8966062e-03
  2.2939679e-03  3.0840392e-06 -5.1948614e-03  1.0047346e-02
  9.8698577e-03  2.2454332e-03  4.6817260e-03 -8.2497224e-03]","[-0.00988261 -0.00835058 -0.00469994 -0.01297775 -0.00358797  0.00151248
 -0.00135706  0.00044757  0.00240329 -0.00879133 -0.01758235 -0.01041834]","[ 5.62504792e-05 -1.37396734e-02  1.36085786e-02  4.92902286e-03
  1.10357404e-10  2.32387008e-03 -2.75322865e-03 -1.14711951e-02
  1.13810478e-02  1.75535120e-02 -2.38132826e-03  9.06012207e-03]","[ 1.71040222e-02 -1.24772999e-03 -6.92335563e-03 -1.39268786e-02
  1.54841784e-03 -1.35403373e-11 -4.64118365e-03  1.81954466e-02
 -9.26676672e-03 -2.65859882e-04  1.21015115e-02  1.20929917e-02]","[ 0.02363638  0.00506589 -0.01614264 -0.01018113  0.0002734  -0.00949455
  0.0009236   0.0133529  -0.00524006 -0.00744616 -0.0018313   0.0002803 ]","[ 1.19430125e-02 -2.73466518e-04  1.15240701e-02  1.73393749e-02
  9.13494454e-12  3.52236046e-03  3.65045387e-03 -1.02002658e-02
  1.40889389e-02  1.64884161e-02  1.39037641e-02  2.10311566e-03]","[-1.2782268e-02  1.6297180e-02 -9.0592531e-03 -6.5186410e-03
 -2.9818262e-03 -2.3392135e-11 -1.3856185e-03  1.5153014e-02
  1.4946990e-02 -1.0489315e-02 -1.4237629e-02 -1.7475324e-02]","[ 0.02178997 -0.01028779  0.00652761 -0.01226311 -0.01517678  0.00351142
 -0.00337432  0.0083351   0.01606055 -0.01287653  0.01789461 -0.00349463]","[-2.2965712e-03  1.1861787e-02 -1.0521684e-03  1.3140601e-02
 -7.8249199e-11  4.8162593e-03 -3.8221709e-03  6.4901966e-03
  1.4709997e-02 -7.6879770e-04 -2.8483823e-03 -1.8572610e-02]","[-3.0523988e-03 -2.4663841e-03  2.8926113e-03 -1.1927069e-02
  3.6094079e-03  2.9844160e-10 -6.9103367e-04  1.8449092e-02
 -5.7932604e-03 -1.0799529e-02 -2.8379629e-03  3.7980648e-03]","[-0.00658241  0.00565021 -0.00460633  0.02058104 -0.01381227 -0.00235952
  0.00021091 -0.01010121  0.00615673  0.00107002 -0.00453588  0.01632311]","[-4.0453901e-03 -3.6397160e-03  9.9803219e-03  8.1963306e-03
  5.0866205e-09 -1.5272342e-03 -2.8932837e-03 -1.0788051e-02
 -9.2846407e-03  1.7332392e-02 -9.8686209e-03 -1.2801355e-02]","[-4.7344873e-03  1.4246353e-02  1.4670550e-04 -1.0806964e-02
 -6.5304182e-04 -1.3793436e-10 -8.8831387e-04 -1.0702864e-02
  6.9565070e-03 -1.1464865e-02 -1.2469204e-02 -6.0412702e-03]","[ 0.01429375 -0.0051477   0.00515405 -0.00613243  0.00505869  0.00344339
 -0.00274644 -0.013057    0.00219116 -0.00562064 -0.00154814 -0.00576777]","[-1.5830681e-02 -1.3455906e-04  1.8844966e-02 -9.6581103e-03
 -2.9524508e-12 -3.7244242e-03  1.5515798e-03  1.2191881e-02
  1.5842520e-02  3.5185618e-03 -1.3599388e-02 -2.4946025e-02]","[-1.2790337e-02 -1.1209390e-02 -1.0573876e-02  3.0759934e-03
 -6.4149853e-03  1.5848701e-06 -6.2532478e-04 -9.8193968e-03
  2.5787745e-03  1.0490708e-02  7.0140501e-03 -2.2211874e-02]","[ 0.0216041   0.01142117 -0.00593427  0.00565346 -0.00719133 -0.00585377
  0.00277259  0.01071351  0.01523906  0.00603264 -0.01443754 -0.01161971]","[-1.6818395e-02  1.1823197e-02 -1.0720891e-03  1.1523107e-04
  1.4978806e-11  1.4668559e-03  3.8781941e-03  1.2587460e-02
 -2.3231688e-03  1.9073371e-02 -1.2584060e-02  6.6538638e-04]","[-1.5762096e-02 -1.1382410e-03  1.8800771e-03  1.1220066e-02
  1.0204159e-03  9.8745280e-05 -2.5795915e-03 -1.4568189e-02
  8.3552403e-03  8.0787251e-03  1.4247538e-02 -7.0051700e-03]","[ 0.00830561  0.00802386  0.00546422  0.02059851 -0.00579007 -0.00431422
  0.00083536 -0.00257847  0.0141177  -0.01415432 -0.01595986 -0.00632943]","[-1.0804063e-02 -5.1193815e-03  5.9375889e-03 -5.0920383e-03
 -9.9071931e-11  6.7283050e-04  2.1673387e-03 -6.3944780e-03
 -1.1669228e-02  1.5840521e-02 -4.5613945e-03 -9.9306433e-03]","[-4.3890942e-03  1.6324194e-02  2.5569131e-03  1.1806866e-02
  1.7752940e-03  1.1095247e-08  6.6149398e-04 -1.7299325e-03
  9.0427347e-04 -1.7450456e-02  1.8471975e-02 -1.1922900e-02]","[ 0.01447453  0.01998108 -0.00241009  0.01383433 -0.01611795 -0.00732029
 -0.00091656  0.01093412  0.01728691 -0.01419896  0.01260254  0.01064812]","[-8.0685774e-03  4.8886281e-03  7.7486299e-03  1.7368443e-02
 -6.4766213e-11 -3.0138929e-04  2.1377113e-03  1.4654211e-02
 -5.2735438e-03 -8.3698323e-03 -1.7460467e-02 -1.1961851e-02]","[-1.4720304e-02 -8.5351104e-03 -5.5423467e-03 -1.1333869e-02
 -5.6778719e-03 -1.3072899e-06  1.8186382e-03 -4.6680570e-03
  1.2248905e-02 -1.6946048e-02  2.0746762e-02 -7.2818445e-03]","[-0.00466055  0.01108334 -0.0192871   0.01705681 -0.00424635 -0.01050176
  0.00295709 -0.01838746  0.02077051 -0.00329714 -0.01217071 -0.00191966]","[-1.8534980e-03  1.1776728e-02  5.1693581e-03  1.8294599e-02
 -2.4600346e-11  3.9666626e-04  9.8631252e-04  1.6539430e-02
  1.1383884e-02  2.3179522e-02  1.3662109e-02  6.2604574e-03]","[-1.8399093e-02  1.7029792e-02 -5.0270637e-03  7.0257396e-03
 -3.1998940e-03 -2.5774618e-06 -2.2114383e-03  1.0591354e-02
 -1.5108523e-02 -2.0984020e-03  9.1269659e-03  9.1248220e-03]","[ 0.00814684 -0.0107972   0.01032008 -0.00909446 -0.00887533  0.00081346
  0.00177223 -0.01392393  0.01697038 -0.01293734 -0.00797028 -0.01855632]","[-9.99539532e-03 -1.03175212e-02  1.64728425e-02  1.81908701e-02
 -1.15409566e-11  3.68952664e-04  3.59985023e-03  1.72366109e-02
  1.36220399e-02  9.63968411e-03 -1.73874237e-02 -2.19305865e-02]","[-1.84150524e-02  1.75760314e-02 -2.93651858e-04 -4.77059558e-03
  7.60497060e-04 -1.49009265e-05 -6.53822324e-04  4.21027275e-04
 -1.64688285e-02 -1.44436993e-02 -1.02748880e-02  1.24198105e-02]","[ 0.01649269  0.0030252  -0.0166846   0.00734511  0.0062105   0.00722368
 -0.00307882 -0.00276733  0.01717095  0.00776031 -0.01709064  0.01349427]","[ 1.1789358e-02  4.5267544e-03  1.5266941e-02 -2.7175411e-04
 -3.8527372e-11 -6.9352286e-04  2.2609576e-03  2.0774994e-03
  1.9395551e-02  1.3701263e-03 -1.8832663e-02 -6.1201341e-03]","[ 7.7892267e-03  1.1153474e-02 -5.7211104e-03 -8.3792685e-03
  1.1632142e-03 -1.6249858e-05 -1.2056036e-03  1.7786760e-02
 -9.9314479e-03  8.7944344e-03 -1.4714604e-02 -1.2442594e-02]","[ 0.02274231  0.00307626 -0.01643673  0.01195378 -0.01305811  0.00659065
 -0.0027795   0.01224025  0.00375831  0.00581906 -0.01788056  0.00039677]","[-3.6803652e-03 -1.5486251e-02  3.1427217e-03  1.7246937e-02
 -3.0738478e-11  4.2642107e-05 -4.4931411e-03  1.1737504e-02
  3.3230393e-03 -1.1170602e-03 -3.4936907e-04 -1.9716494e-02]","[-5.2100169e-03 -6.8021994e-03  7.3505645e-03  4.8163538e-03
 -1.5455724e-03 -6.7571433e-05 -3.4699508e-04  8.9554919e-04
 -1.7910827e-02 -3.8808796e-03 -1.1234610e-02 -2.3575315e-02]","[ 0.01426169  0.01147354  0.00687499  0.00583205 -0.00983692 -0.0125246
  0.00230839  0.00575119  0.00647015  0.00012181  0.00557485 -0.01837106]","[-8.7354699e-04 -1.5970610e-02  8.7921275e-04  5.2782460e-03
  3.5798402e-11  2.0392803e-03  2.6851897e-03  1.2846793e-02
 -8.8693341e-03  8.9324685e-03 -5.0755497e-03 -1.9969283e-02]","[-1.0131455e-02 -3.0453661e-03  7.8334585e-03  2.2215936e-03
 -8.7937602e-04  2.4305038e-08 -2.3448020e-03  2.7095964e-03
  6.5092547e-03 -1.1066387e-02  1.3080300e-02  5.9460010e-03]","[-0.00484049 -0.00145288 -0.00195746  0.01772733 -0.0023687   0.00047869
  0.00066729  0.01366043 -0.01266766 -0.01535683  0.01769754 -0.00572944]","[ 1.1363491e-02 -1.5787208e-02  6.4700367e-03  1.9290520e-02
  1.6849921e-11 -1.2894350e-03 -2.8711755e-03  1.7421616e-02
 -1.1836741e-02  2.1277046e-02 -5.5813584e-03 -1.0555750e-02]","[ 0.00872383 -0.00320139  0.00130663 -0.01130469 -0.00119163  0.00017016
  0.00079386 -0.00670551  0.0077991   0.01235975  0.00600735  0.00398696]","[ 0.02001843 -0.00476266  0.00140579 -0.00996578 -0.004239   -0.00159593
 -0.00195697 -0.00948178  0.00527586 -0.00935411 -0.00098953  0.00579675]","[-5.0481344e-03 -1.4267405e-02  2.6499624e-03  2.5543773e-03
 -1.1874237e-11 -8.4415678e-04  5.8374330e-03  8.1661390e-03
  7.7755130e-03 -8.2525266e-03  7.8567890e-03 -1.2901002e-02]","[ 1.1242148e-02 -1.1341904e-02 -8.0938879e-03 -1.6340010e-02
  3.4602857e-03  2.4088075e-12  1.4925924e-04  6.0734078e-03
 -8.8454355e-03  1.1400420e-02 -3.3583329e-03 -1.5950566e-02]","[ 0.01451943 -0.01043149  0.01150792 -0.0164513   0.00204747  0.00247105
  0.00227872  0.00927229  0.01628912 -0.00717676  0.00020073  0.00856703]","[-1.3313304e-02 -1.0562912e-02  1.0355283e-02 -1.3841736e-02
  9.2270011e-07 -1.2690813e-03  4.0012449e-03  1.3307124e-02
  1.5082419e-02 -1.2628630e-02 -5.8372421e-03 -2.2594372e-02]","[ 1.15054855e-02 -3.18173261e-04 -7.69269699e-03 -2.63507012e-03
 -5.02116396e-04  2.19935847e-09  4.34412621e-04 -6.40687626e-03
  6.41595712e-03 -7.05411844e-03  9.64973401e-03  9.60062724e-03]","[-0.00441309 -0.00741214  0.00958585  0.0118747   0.00191967 -0.0084124
  0.0022821   0.00760434  0.01484195 -0.01091442 -0.01538104  0.00754091]","[ 2.9546076e-03 -7.2359499e-03  9.6410494e-03 -3.9156252e-03
 -6.3970522e-12  6.5133325e-04 -5.2853138e-03 -1.5858961e-03
  1.6383944e-02 -5.8860970e-03  2.6667090e-03  1.9286495e-03]","[-1.94714013e-02  1.48776108e-02  4.01395326e-03 -1.27492668e-02
 -9.05702909e-05 -1.24169033e-04 -5.43903792e-03 -1.01300627e-02
  1.17330135e-04 -1.41059458e-02  2.39581000e-02 -1.49848871e-03]","[ 0.0098067  -0.00438991 -0.01785772 -0.00081693 -0.00875113 -0.0039621
  0.00049993  0.00866864  0.01298331 -0.00135626 -0.00333505 -0.01704355]","[-1.2644000e-03  1.0167184e-02  9.4721708e-03  7.0636855e-03
  3.9921025e-11  2.1561792e-03 -3.0229068e-03 -1.1917794e-02
 -1.2176606e-02 -3.3662801e-03  1.6023498e-02 -2.8428510e-03]","[ 0.00088877  0.01599283 -0.00275267 -0.00680328 -0.00281716  0.00031525
 -0.00439598  0.01374448  0.00037129  0.01227714  0.00365531 -0.00011877]","[-1.3665045e-02  1.2133051e-02  5.5194105e-05 -5.8452813e-03
 -1.4764877e-02  2.2376317e-03 -5.7350430e-03  8.3094630e-03
  9.9429861e-03  1.1466668e-02  1.4410949e-03 -9.0564983e-03]","[-1.22598410e-02 -7.52553635e-04 -1.48269709e-03 -1.10874055e-02
 -6.38317350e-12 -4.51506348e-03  2.01734481e-03 -5.18660014e-03
 -4.42831591e-03 -9.32346471e-03 -4.16943617e-03  8.92159250e-03]","[ 1.09902315e-03  4.08566157e-05  5.89347212e-04 -1.94124766e-02
 -7.56779162e-04  7.77394162e-05 -3.21362028e-03 -6.53099874e-03
 -1.88217685e-02 -1.20910555e-02  1.37292640e-02 -1.83064416e-02]","[ 0.01893149 -0.01118118  0.00566129  0.00395976  0.00413579 -0.00191574
 -0.00375603 -0.00408728 -0.01012245 -0.0140506   0.00454394  0.01216039]","[ 2.0969932e-03 -1.4761576e-02  1.7833242e-03  2.1375192e-02
 -1.6385325e-11  2.8433676e-03  5.4881577e-03 -5.2371155e-03
  4.6865349e-03  1.6806275e-02 -1.9385746e-03 -1.9702651e-02]","[-6.39497535e-04 -2.24616937e-03  6.85064413e-04  3.17010650e-04
  1.10161165e-03 -6.64457548e-06  2.73723202e-03  1.17165837e-02
 -1.19291255e-02 -4.29747952e-03  2.50610318e-02 -1.96800828e-02]","[ 0.00149443  0.00052675  0.0128611  -0.009915   -0.01549212  0.00421001
 -0.00282996  0.01216279 -0.00923159  0.01099802  0.00504953  0.01657651]","[-5.2249609e-03  5.8114468e-03  1.5685042e-02  9.4982320e-03
  3.2258966e-11 -2.3591860e-04  4.1205501e-03  1.6626043e-02
 -1.2481034e-02  1.6929850e-02 -1.1982705e-02 -2.2093114e-02]","[-5.6559430e-03 -1.7530622e-03 -8.3690754e-04 -1.4176315e-02
 -2.9217675e-03  7.1041006e-07 -5.0543458e-03  2.0550029e-02
  8.3208857e-03  5.1804208e-03 -1.4027605e-02  1.2760308e-03]","[ 0.00500434  0.0120498   0.01117328 -0.01246481 -0.00394135  0.00148112
 -0.00598936  0.00287427 -0.00503942 -0.00104777 -0.01690803  0.00541031]","[-7.4865613e-03  2.9485713e-04  4.1702632e-03 -1.7329426e-03
  1.1247832e-11  1.5628467e-04 -4.9988297e-03 -4.3006632e-03
  5.9988466e-04 -6.5436610e-03  1.1942171e-02 -2.0401174e-02]","[-1.0791948e-02 -6.8566650e-03  5.4319599e-04 -5.9034708e-03
 -2.7446351e-03 -1.5402573e-05  4.1310168e-03  1.1658660e-02
  1.5039321e-02  4.1672802e-03 -1.4404944e-02 -3.8881770e-03]","[-0.01287727 -0.00697025  0.01102359  0.01885254  0.00834904 -0.00644566
 -0.00042572 -0.00138683  0.0101043  -0.01511616 -0.0020687  -0.01004857]","[ 1.0442334e-02  5.7362826e-03 -5.4293592e-03  1.7888295e-02
 -4.9905990e-10 -2.4000804e-03  5.8133416e-03  1.4700612e-02
  2.4139942e-03 -4.3372544e-03 -3.9222590e-03  9.0938630e-03]","[-4.55949781e-03 -8.93310271e-03  4.50067082e-03  1.47739437e-03
  7.63564312e-04  8.23450193e-07  6.05129288e-04  1.27025461e-02
 -9.10812151e-03 -5.61149698e-03  1.42297605e-02 -8.77579302e-03]","[ 4.0154830e-03  2.6187010e-03 -7.7964072e-03  1.7464580e-02
 -1.3675760e-02  2.4952022e-03  8.8710658e-04 -1.2501868e-02
  9.4149346e-03  5.3836396e-03 -7.6454453e-05  1.3571772e-02]","[ 1.05035529e-02 -1.10104587e-02  1.21167535e-02  2.75719655e-03
 -2.18279039e-09 -3.24402878e-04 -5.85444691e-03 -3.32378550e-03
 -1.41531257e-02 -3.81796015e-03 -8.42035096e-03 -1.58482548e-02]","[ 0.0069727  -0.00601998  0.00497914 -0.01768275 -0.00069528  0.00015054
  0.00089051  0.00691095 -0.00334933 -0.0098903  -0.00209554  0.00495857]","[-0.00143066  0.01813052  0.00869336  0.01117482 -0.01264115 -0.00688872
  0.00130852 -0.00457652 -0.00975404 -0.01241313  0.01770595 -0.00163273]","[ 1.1659660e-02  5.8357669e-03  5.7270010e-03 -1.5770948e-03
  2.7244664e-07 -1.1430421e-03  4.3659407e-04  1.4989705e-02
  7.8138746e-03  1.8276101e-02  7.2510438e-03 -1.0940255e-02]","[ 1.7933831e-02  8.6690113e-03 -7.6226993e-03 -1.8324284e-02
 -3.7419393e-03 -8.8189947e-05  2.8584192e-03 -5.4670642e-03
 -1.7589727e-02 -2.8141802e-03  1.4112516e-03  1.0046996e-02]","[ 0.00597239 -0.01085456  0.00706071 -0.0131525  -0.00264601  0.00271678
 -0.00150414  0.01178544  0.02084608  0.00201194  0.00330614 -0.00095002]","[ 1.1115111e-02  9.7472634e-04  8.2729217e-03 -1.4165101e-02
  2.2812308e-12 -2.7499280e-03  1.2436091e-03 -1.3645743e-02
  1.3361603e-02  1.3713533e-02 -1.5676046e-02 -2.0319838e-02]","[ 0.0176785  -0.01096877  0.00183909 -0.00582079  0.00118066 -0.00015659
  0.00354727 -0.00089758  0.00997571  0.00622362 -0.00350721 -0.00249077]","[ 0.00429703 -0.00954694 -0.00805589 -0.00918693 -0.00898951 -0.00305019
 -0.00127926  0.01147654 -0.00508474 -0.01221833  0.01031236 -0.01470324]","[-0.00378906 -0.01484922  0.01723805  0.02169451 -0.0005617   0.00055288
  0.0015061  -0.01192573  0.01103878 -0.00185595  0.01166689 -0.00946228]","[ 9.44126956e-03  9.68442950e-03 -4.32181777e-03  1.66507680e-02
 -2.52331444e-03  2.24782298e-06 -6.91288291e-03 -1.39482124e-02
  3.26248584e-03  1.19816875e-02 -6.74510887e-03 -4.88360180e-03]","[ 0.01746006 -0.00599879 -0.0093134   0.0205437  -0.00196116  0.00071274
 -0.00514202 -0.00794517  0.00513281 -0.0105365   0.00709956  0.00514691]","[ 0.00145425 -0.0114666   0.00814824 -0.00303356 -0.00063483  0.00088386
  0.00036184  0.00379719 -0.01109493  0.00327579  0.00641789 -0.01654087]","[-1.8802473e-03  4.1123140e-03 -8.5494649e-03  2.4757327e-03
 -1.5622351e-03  5.9042293e-07  3.2090829e-03 -5.2868174e-03
  1.4552418e-02 -1.2635119e-03 -4.5806443e-04 -6.1021522e-03]","[-0.00680472  0.00456052  0.01067482 -0.00824578 -0.0081325  -0.0033966
  0.00374733 -0.01244767  0.00279064 -0.00365264  0.01767885 -0.01140259]","[-1.4497415e-02  3.8343144e-03 -1.6710124e-03  4.9199874e-04
  3.4081644e-05 -2.3092151e-04  4.8911921e-04  3.1320187e-03
  4.0358747e-03  1.2521281e-02  1.4887861e-02  1.0461954e-02]","[ 1.44816255e-02  3.63156945e-03 -6.43714890e-03  5.38894767e-03
 -4.61794669e-03 -2.18540099e-05 -4.22829203e-03  6.56703254e-03
  7.45919254e-03  9.62036662e-03 -4.46558418e-03  4.12014918e-03]","[ 0.02317076 -0.00826003 -0.01069382 -0.00533468 -0.00300297  0.0032206
 -0.00066743 -0.00175407  0.02088451 -0.00438267  0.00867755  0.01273383]","[ 1.1130501e-02 -1.5563673e-02  9.3724765e-03  1.4975785e-02
  9.8252451e-07  3.0033076e-03 -2.9300740e-03 -6.9956848e-05
  2.1650782e-03 -2.8587505e-03 -4.8427293e-03 -1.3384327e-02]","[ 1.37252510e-02  1.43067185e-02 -3.39620863e-03  1.46186501e-02
  1.20594003e-03  1.94155035e-07  1.85785734e-03  1.70597807e-02
 -7.43290456e-03 -1.33403502e-02 -5.81063970e-04 -1.76230967e-02]","[-0.01288967 -0.00385921  0.00111341  0.00664372  0.00279275  0.00489682
 -0.0062524  -0.0150872   0.01137701  0.00786358  0.01508568  0.0183183 ]","[-4.25379165e-03  1.31573072e-02  7.60170957e-03 -1.17554404e-02
  6.67897839e-05 -2.41823363e-05  3.08071915e-03 -4.93183360e-03
  1.36174625e-02 -9.62390471e-03  6.29214477e-03  9.22656618e-03]","[-1.5802855e-02  1.0124838e-02  5.0950758e-03  5.1635234e-03
  1.5149115e-03 -1.2767355e-05 -2.9864840e-03 -3.5213700e-03
  1.3549237e-02  7.8828055e-03 -7.2782598e-03 -9.6764909e-03]","[ 0.02264394  0.0036419   0.00624499 -0.00193007  0.00249496  0.00089753
  0.00032906 -0.00301553 -0.00875998 -0.01388789 -0.01062095 -0.01493045]","[ 9.5537221e-03  4.6678074e-03  5.4296255e-03  6.6676345e-03
 -5.2047134e-11  4.3646147e-04  5.8943043e-03 -7.4237754e-04
 -1.0334150e-02  1.6300363e-02 -3.2526089e-03 -2.0454492e-02]","[ 9.4357943e-03  7.9778126e-03 -6.9110347e-03 -4.8867040e-03
  2.1838045e-03  1.2598609e-05 -5.7417443e-03 -4.7723707e-03
 -6.3825534e-03  7.9438630e-03  1.8290618e-02 -1.8027799e-03]","[-0.01138607 -0.0001483  -0.01524693 -0.016528   -0.0070931   0.00059061
 -0.00487608 -0.00064512  0.01770917  0.00109055 -0.00568966 -0.01072775]","[ 1.3640339e-02  3.3013341e-03  8.3633075e-03  2.8638528e-03
 -9.7552660e-12  1.5719604e-03  6.2493365e-03 -8.8504879e-03
  1.9406353e-03  1.1162804e-02  9.9572195e-03 -1.3522557e-02]","[-1.2410548e-02  1.2702983e-02  8.8815494e-03 -1.3352609e-03
 -3.5194319e-03 -1.9113080e-05 -8.8240812e-04  1.9567883e-02
 -1.5960023e-02 -9.7605111e-03 -6.1702081e-03 -2.2606755e-02]","[-0.00750195 -0.01182222 -0.00147358 -0.00466744 -0.00317748 -0.00305412
 -0.00052894  0.01123103  0.01013747  0.00551949  0.00161209  0.00964019]","[-1.70820244e-02 -7.39436364e-04  1.18869143e-02  8.05537961e-03
  1.89439957e-12 -8.60141125e-04 -1.33603660e-03  9.06656682e-03
  1.19264815e-02  8.99349246e-03  1.42695960e-02  1.44338503e-03]","[ 0.00968357 -0.01139632 -0.00041351  0.00118923 -0.00411429  0.00015454
  0.00068406 -0.01277802 -0.0166917   0.00874856  0.00929403 -0.00598586]","[-0.00473139 -0.00708716  0.00984202 -0.00998278  0.00697371 -0.01064155
 -0.00023917  0.00275516 -0.01192206  0.0108048   0.01296051  0.01571383]","[-1.5224814e-02 -3.0852521e-03  2.7366187e-03  1.6475264e-02
  4.7224724e-12 -1.5291540e-03  5.3978283e-03 -4.9480824e-03
 -8.6708963e-03 -8.1380866e-03  1.6110441e-02 -7.7175879e-04]","[-3.9235624e-03  1.8795524e-03 -2.4311473e-03 -9.4914129e-03
 -2.1957760e-03  5.9329750e-07 -3.2306432e-03 -1.2256757e-02
 -7.7019916e-03 -1.1568792e-03  2.4101013e-02 -5.9151952e-03]","[-0.00560028  0.0218767  -0.01529863  0.01593381 -0.00706388 -0.00049776
  0.00127964  0.00948681 -0.00373545  0.01285907 -0.00224872 -0.00991837]","[ 1.8986272e-02  1.0644187e-02 -4.6229432e-04  8.8131400e-03
 -9.9020181e-11  1.6243962e-03 -2.2792344e-03 -2.8529186e-03
  1.4348429e-03  9.9871568e-03  1.1977142e-02 -4.8049539e-03]","[-8.0405531e-05 -4.8556370e-03  5.2279043e-03 -1.7688546e-03
  1.3553882e-03  3.4481611e-06  4.2338208e-03  1.3674981e-02
  9.9327657e-03 -1.4626622e-02  2.2903231e-03 -1.7494678e-03]","[ 0.01769623  0.00121232 -0.01398749  0.01733049 -0.01264865  0.00126103
 -0.00323409  0.01098842  0.01621248 -0.0029082  -0.00150078  0.00777503]","[-9.2745051e-03 -9.6666142e-03 -2.4124593e-03 -1.4780554e-02
 -7.2855463e-12 -8.4007526e-04 -2.9892670e-03  8.0097280e-03
  5.8380043e-04  8.5635716e-03 -1.0922955e-02  6.6567855e-03]","[-2.4995715e-03  1.6196704e-02 -8.8573741e-03 -1.5594831e-02
 -4.9412805e-03  1.8995124e-06  3.3002167e-03 -5.4485593e-03
 -1.3360525e-02 -2.0709445e-03  1.1362278e-02 -1.5670065e-02]","[-0.01216343 -0.00894063 -0.00175436  0.01835889 -0.01137074 -0.00621539
  0.00338214 -0.01692501  0.00533023 -0.01011054  0.01424692 -0.01736671]","[ 1.3531231e-02  4.8896074e-03  7.4321511e-03 -7.4603818e-03
  2.3858164e-12  2.7834880e-03  2.7518722e-03  9.6010435e-03
  1.2985199e-02  1.0877190e-02  1.9395439e-02 -1.4113833e-02]","[ 1.0964109e-02  4.7061960e-03  9.7504593e-03  4.5475536e-03
 -2.6703656e-03  6.8057365e-05  1.8251018e-03 -5.0877417e-03
  6.8386034e-03 -7.9243490e-03  2.1468101e-02  1.1813983e-02]","[ 0.01349883  0.02202058  0.0130212   0.00145769 -0.00115342  0.00288003
 -0.00291771 -0.01597387 -0.00829436 -0.01694223 -0.00661637 -0.01517244]","[-1.3010230e-02  2.8194794e-03 -8.6730096e-04 -9.8528555e-03
  9.9002506e-10  2.0292241e-03  8.4315013e-04  9.6459324e-03
 -9.8888215e-04  1.9878624e-02 -1.9455074e-03  7.1459003e-03]","[ 1.2891000e-03  5.0715040e-03 -6.2335050e-03 -2.4065217e-03
 -2.8929049e-03  3.7679525e-05  4.6338034e-03  1.7573098e-02
 -8.0160722e-03  6.2162420e-05  1.6463371e-02  3.0097030e-03]","[ 0.00867754  0.01250783 -0.01778951  0.00619166 -0.01621713 -0.00305587
 -0.00365606 -0.0163195  -0.00545011  0.0109952   0.00901851 -0.01290076]","[ 2.2975260e-03  1.5144995e-02  1.3448388e-02  1.4158196e-02
 -5.4387210e-11  2.9912740e-03  3.8228196e-03 -1.3260210e-02
  1.7178176e-02  1.7026439e-02 -1.1883471e-03  3.5655408e-03]","[-0.01679407 -0.00483481  0.00237315 -0.00236035 -0.00384739  0.00030818
  0.00192035  0.0109034  -0.0136077  -0.00150479  0.02339634 -0.01496741]","[ 0.02163406 -0.00400145 -0.00908884 -0.00982091 -0.01215309 -0.00280775
 -0.00370129 -0.00205397  0.00933916 -0.00123385  0.01654879  0.0084885 ]","[-9.4820652e-03 -4.0952582e-03 -2.8772713e-03  1.2061928e-02
 -5.2421774e-12 -1.5917303e-03  4.8913632e-04  8.4163500e-03
 -6.8947556e-04 -6.8648215e-03  2.9725793e-03 -1.4247807e-03]","[ 0.01613025  0.00897413  0.00632617  0.00479392  0.00185093 -0.00016075
 -0.00095209  0.01212323  0.01083246  0.01203957 -0.00942266 -0.01677239]","[ 0.00134282  0.02188486 -0.00297267 -0.01045552 -0.01428507 -0.00014822
 -0.00171587  0.01202924  0.00495152 -0.01032343  0.01970088 -0.00260269]","[-1.0826541e-02 -6.3007651e-03  1.4823636e-02 -8.2509508e-03
  7.1345430e-12  1.3358211e-03  5.2536111e-03 -2.3295830e-03
 -7.0213936e-03  2.0536032e-02 -1.1918162e-02  5.8061038e-03]","[-0.00824294 -0.00253757  0.00466048 -0.0120356   0.00038726  0.00022438
 -0.00140657  0.0192846  -0.00564847 -0.00355462  0.01715416 -0.00090656]","[ 0.00024361  0.01498893  0.01061563  0.01598448  0.00905629 -0.00720513
 -0.00406089  0.01069494  0.01722342 -0.00582624 -0.0045321  -0.01531759]","[ 7.4655265e-03  1.1589477e-03  5.5711847e-03  1.7902011e-02
  9.4009930e-12  5.5871527e-03  5.5091642e-03  6.0876091e-03
 -1.1348891e-02 -4.1041961e-03 -8.2137799e-03 -1.4774114e-02]","[-5.10054408e-03 -3.14157194e-04 -6.26430055e-03 -1.02370465e-02
 -4.13657445e-03  2.63083621e-06  1.75499870e-03  8.81271146e-04
  1.62750669e-02  7.69544160e-03  1.12075862e-02  6.68390794e-03]","[ 1.8842757e-02 -9.2241820e-03 -1.7834675e-02  4.7872979e-03
  4.2044363e-04  1.1704204e-04 -5.7495893e-03 -1.0725062e-05
  1.1593605e-02  1.1974255e-02  2.0552443e-02  1.1545449e-02]","[ 1.4254194e-02 -1.6718518e-02  1.8176621e-02  5.4790303e-03
  3.3662122e-11  2.4757343e-03 -9.7996648e-04  4.2537679e-03
 -8.7526714e-04  1.7670412e-02 -1.3838577e-02 -9.2933606e-03]","[ 1.4954504e-02  2.4574560e-03  7.0119607e-03  8.7001687e-03
 -3.2854860e-03 -2.3517203e-05  3.6174553e-03  1.3944055e-02
 -1.2897448e-02  4.9130847e-03  2.3155516e-02 -7.8578871e-03]","[ 0.00941374  0.01760888  0.00158901 -0.01401947 -0.00127368 -0.00732314
 -0.003309   -0.00163746 -0.00556069 -0.0016326  -0.00086792  0.00563879]","[-1.7370442e-02  8.2391035e-03  1.6600333e-02  3.3589075e-03
 -4.3204728e-12  5.9322864e-03 -4.9555819e-03  1.5564846e-02
  1.1009525e-03  1.2643398e-02  2.0544603e-02 -8.1630955e-03]","[ 1.4369030e-03 -7.8881867e-03 -8.6034313e-03 -8.2968716e-03
 -3.7067374e-03  1.3244475e-05 -5.8150156e-03 -1.3656298e-03
  1.4116241e-02 -5.3863735e-03 -8.5946023e-03 -1.2762203e-02]","[-0.01007196 -0.01042939  0.00517771  0.01009238  0.00533154 -0.00406682
 -0.00622211  0.00071459 -0.00079668 -0.017422    0.00558911  0.01148282]","[ 1.5178948e-02  1.3143515e-02  6.0577500e-03  3.4777732e-03
  1.3163286e-10 -1.0690598e-03  4.3533868e-03  4.9876869e-03
 -2.9309741e-03 -2.9264993e-04 -1.7598759e-02  9.8598199e-03]","[-0.00951181 -0.00478193  0.00037292 -0.01381159 -0.00600516 -0.00029558
 -0.00481174 -0.01241875 -0.00016267 -0.00473698 -0.01012889 -0.02044109]","[-0.01093795 -0.00797601 -0.00999022  0.01015224 -0.00623276  0.00478649
  0.00113903 -0.01129103  0.01528569 -0.00010904 -0.01407917 -0.001791  ]","[-1.4875664e-02  7.1369377e-03 -3.2177167e-03  4.3697408e-03
  5.6686034e-10  1.1038481e-03 -4.0978743e-03  1.6860187e-02
 -2.8310413e-03  1.6463809e-02 -5.7145734e-03 -4.9791136e-03]","[ 1.0795228e-02 -5.8816175e-04  1.0316416e-02 -6.3487100e-03
  3.7939041e-03  4.9689669e-07 -4.3783551e-03 -2.4864040e-03
 -1.1134229e-02 -1.3552210e-02 -5.3940215e-03 -2.3687322e-02]","[ 0.01459058  0.02001962  0.00638279  0.01335165 -0.01663357 -0.00981917
 -0.00506426 -0.00508002 -0.00415379 -0.00173864  0.02067463 -0.00589178]","[-1.71883516e-02  1.41695645e-02  4.28010942e-03  4.09302209e-03
  1.12786664e-11 -5.67973068e-04 -3.44260741e-04  1.82897481e-03
 -5.77016175e-03 -5.98345278e-03 -1.00978930e-02  1.50180643e-03]","[ 3.88671434e-03 -1.28862606e-02  1.00640934e-02 -1.55594753e-04
 -4.10647271e-03 -5.11101064e-08  2.89230398e-03  1.43373115e-02
  1.36212381e-02 -9.25900508e-03 -7.29076564e-04  6.87810406e-03]","[-0.01253844  0.02054428 -0.00782292 -0.00971092 -0.01312874  0.00519999
  0.00108123 -0.00337557 -0.00526905  0.00114213 -0.00501564  0.01169108]","[-3.18794488e-03  1.32163977e-02  1.19821103e-02 -1.39203807e-02
 -9.69975628e-11  1.50553518e-04  1.33311830e-03  6.46799617e-03
 -1.05242319e-02  1.41647905e-02  1.04690297e-02  8.65365379e-03]","[-0.01104754  0.01210161  0.00579439 -0.00193948 -0.00669333 -0.00024968
  0.00341507  0.01889893 -0.0115912   0.00588433 -0.00819174 -0.00377994]","[-0.00787192  0.00519661 -0.01569965  0.00068744 -0.01082898 -0.00857911
  0.00290997  0.01220182 -0.01106048  0.00629755  0.01007447 -0.00157878]","[-1.9249536e-02  9.4551197e-04  1.1573765e-02  1.9482905e-02
 -2.9772709e-11  7.2260591e-04  2.6810686e-03  5.5394098e-03
  4.9626981e-03 -2.5733297e-03 -2.2624473e-03 -5.4804743e-03]","[-1.2957952e-02  9.8206075e-03 -8.1979306e-03  1.6682846e-03
  2.9799424e-03 -9.5491988e-09 -4.9087270e-03 -1.5622496e-03
 -5.5571548e-03  7.8220675e-03  1.1149285e-02 -2.7264915e-03]","[-0.00937743  0.01669807 -0.0003313   0.00269186 -0.01039117 -0.01249431
  0.0011756   0.00800105  0.00393268  0.00646406 -0.01010447  0.01145749]","[-1.2470295e-02  1.4893451e-02  5.5932919e-03  3.2093402e-03
 -4.3571024e-08 -8.1506623e-05 -4.2640986e-03  1.6639555e-02
 -5.7409187e-03  1.8405410e-03  8.5741971e-03  5.7909940e-03]","[-1.8731220e-02 -1.4780696e-03  5.9911413e-03  5.5490513e-03
 -7.5591328e-03 -6.0274186e-05 -5.9276428e-03  3.5138808e-03
 -9.9954233e-03 -7.7919094e-03  2.4249930e-02 -8.2574673e-03]","[ 0.01475288  0.00753182  0.0121968   0.00699535 -0.01347385  0.00769508
 -0.0017362  -0.01790152 -0.00862443  0.00087833 -0.01528305  0.0119066 ]","[ 1.72489125e-03 -5.32956515e-03  1.18866777e-02  2.07302179e-02
  1.23981814e-11 -7.70087761e-04  9.82834026e-04 -1.28602255e-02
 -1.08014887e-04  1.36038512e-02 -9.48317442e-03  4.80254833e-03]","[-1.7621180e-02 -2.5082717e-03  2.7430323e-03  7.5512300e-03
  2.9414112e-03  4.4830997e-12 -3.6492343e-03  1.4306479e-03
 -7.4171601e-03 -1.3409797e-02  2.8861440e-03  3.0262484e-03]","[ 0.00156538  0.00728649  0.00621994 -0.00585668  0.00656504  0.00561976
 -0.00430601  0.00312169 -0.00235197 -0.01670768  0.01532097 -0.00945192]","[-5.2726530e-03  1.1505080e-02  7.3841790e-04  2.1462817e-02
 -7.3952386e-11  6.6263648e-04 -2.9728091e-03 -6.9475519e-03
  5.0685625e-03  2.2563217e-02 -6.7050516e-04 -1.2068586e-04]","[-1.12709794e-02  9.89695359e-03 -1.84680335e-04  7.32351933e-03
 -3.98417190e-03 -2.64157952e-05 -3.21408408e-03  1.37033584e-02
 -1.41494945e-02 -1.34540824e-02  1.30131021e-02 -1.75476093e-02]","[-0.00124047  0.00225529 -0.00084326  0.01028928 -0.00760216 -0.00339157
 -0.0022579   0.00226832  0.00368737 -0.01052971 -0.01323425  0.00012113]","[ 1.5453311e-02 -9.9394023e-03  1.4491296e-02  3.5858531e-03
  1.0772419e-05 -8.6028938e-04  4.2231153e-03 -1.1630697e-02
  4.3670493e-03  2.1821912e-02  8.3255162e-03 -1.0444991e-02]","[-0.00594344  0.01339873 -0.0051852  -0.00715502 -0.00810262 -0.00042607
 -0.00504985 -0.0049061  -0.00392617 -0.0096932  -0.00860693 -0.01533927]","[-4.9370844e-03 -1.1118034e-05  3.8067491e-03  1.4132971e-02
  3.2153116e-03  6.3705775e-03 -1.0523646e-03  1.2297896e-02
 -2.4583463e-03 -9.0635633e-03 -7.9232911e-03  6.0884813e-03]","[ 0.01300653 -0.01205144  0.01152689  0.01161579 -0.00023819 -0.00039989
 -0.00261925  0.01523601 -0.00782996  0.01659555  0.01372861 -0.00478765]","[ 4.7409325e-03  1.5914485e-02  8.3852028e-03 -7.4310880e-03
  4.4689546e-03 -1.4878060e-05 -1.5639582e-03 -7.8700511e-03
 -6.8031540e-03 -1.3070672e-02  1.3808599e-02  1.0202871e-02]","[-0.00577721  0.0024133  -0.018234    0.01857288 -0.00502185  0.0043055
 -0.00238857 -0.00209016 -0.00116491  0.00331323 -0.0065523   0.01560358]","[ 2.4568257e-03  8.3651384e-03  1.0881048e-02 -9.1459558e-05
 -3.7509279e-05 -1.8499777e-04 -3.7027181e-03  9.3741361e-03
  1.1050119e-02 -8.9997081e-03 -7.7503319e-03 -1.3228156e-02]","[ 0.01220389  0.00302553  0.01028758 -0.01440319 -0.00432444 -0.00020135
 -0.00266356  0.01540934  0.01376118  0.00903757  0.01115314  0.00060357]","[-0.00111503 -0.00596471  0.00332388 -0.01391671 -0.011767   -0.00386653
 -0.00160969 -0.00635168 -0.00927552 -0.00843176  0.00637808  0.00560687]","[-1.5548810e-02 -4.2656492e-03  1.6203167e-02  3.5826282e-03
  3.3928291e-09  3.3016133e-04  4.7234120e-03 -8.8545578e-03
  1.0865587e-02 -1.1004571e-02  9.9838888e-03 -3.9610914e-03]","[-6.7478493e-03  6.8536745e-03 -1.2576738e-03 -5.5918698e-03
 -5.1175202e-03  6.2295118e-07  9.6995675e-04  1.4246893e-02
  5.0690598e-03 -8.1347879e-03  8.5248044e-03  4.2762188e-03]","[-0.00109471 -0.00877326  0.00660485  0.00999686 -0.00481601 -0.01051542
 -0.0008825   0.00262179  0.00069619  0.01135669 -0.00046365 -0.00088942]","[ 1.0856994e-02 -5.3346334e-03  3.6967699e-03  1.7755179e-02
 -2.5964800e-06  1.7000112e-04  1.6752683e-03  5.2616899e-03
 -3.2343271e-03  1.4754480e-02 -1.5640730e-02 -2.9802192e-03]","[ 0.01258599 -0.00285026 -0.00027206 -0.00528994 -0.00621287 -0.00027109
 -0.00127085  0.00652131 -0.00233354 -0.00332822 -0.00067791 -0.02102685]","[ 4.0361872e-03  2.1263219e-02 -1.3118625e-02  2.1261193e-02
  8.8006146e-03  6.3742734e-03 -1.1027654e-03  9.3050010e-05
  1.5799925e-02 -7.3884306e-03 -9.3530174e-03 -5.2319989e-03]","[-1.74174607e-02  2.94899289e-03  1.50876865e-02 -1.16168140e-02
 -9.25236415e-11 -1.16027216e-03  1.54423248e-03  1.79771688e-02
 -7.68477377e-03 -1.71942124e-03 -4.89600701e-03  7.15833809e-03]","[ 1.4857159e-02 -8.6323936e-03  4.8613196e-04 -1.6946871e-02
 -2.1188122e-03  7.5974606e-07 -3.2088615e-03  1.3701885e-02
 -1.5199785e-02 -1.6030468e-02  1.9675149e-02 -1.5150039e-02]","[ 0.0064504   0.01709876  0.00673508  0.01962638  0.00158027 -0.01221673
 -0.00057327 -0.0065562   0.00733257  0.01290638 -0.00919462  0.00656379]","[ 7.7788099e-03  6.9641699e-03  4.6912450e-03 -1.0054245e-02
 -1.3441519e-11  1.5199279e-03  3.4372406e-03 -4.1957735e-03
 -1.0061755e-02  2.0382354e-02 -1.8366748e-02  8.1749773e-03]","[ 1.6935835e-02 -2.4119753e-03  1.2997785e-03  1.2658061e-02
 -1.8326084e-03  7.7137798e-09 -1.2868099e-03  3.4285698e-03
 -8.3486298e-03 -1.2911327e-02  1.6488560e-03 -2.9385290e-03]","[ 0.00865832 -0.0123489  -0.0080847  -0.00022907 -0.01207521  0.00204869
 -0.00109413  0.01367151 -0.00367758 -0.00571726 -0.01690549 -0.00404787]","[ 1.1106234e-02  1.2117302e-02 -3.7364122e-03  1.4196149e-02
  1.0658664e-12  2.3049519e-03  1.2765448e-03  5.0902894e-05
  1.1265553e-02  9.5894746e-03  1.5107029e-03  9.9715479e-03]","[-1.0163494e-02 -5.3922343e-03  8.6673973e-03 -7.3482576e-03
 -5.0671916e-03 -1.0265075e-10  1.3990706e-04  1.6726416e-02
 -1.2634113e-02  1.1127712e-02 -6.4339605e-03 -2.1866031e-02]","[-0.00440915  0.01893406  0.00748404 -0.00146701 -0.00884723 -0.00380102
 -0.00098581  0.00141825  0.01101121 -0.01668058 -0.01701633  0.00030013]","[-1.7881544e-02 -2.2261885e-03  1.0661351e-02  2.0154987e-02
  2.3777081e-12 -2.7660960e-03  1.8143796e-03 -2.0201106e-03
  1.6739059e-02  1.4022506e-02  9.0726735e-03 -6.0549495e-04]","[-1.2566007e-02  8.2331328e-03  4.7928845e-03  1.5734453e-02
  1.5927729e-03  6.1590101e-11  8.2651491e-04 -2.6914941e-03
 -1.5453086e-02  1.2051992e-02  1.2025499e-02  5.2152453e-03]","[ 6.0358783e-03  2.1904873e-02 -1.5269320e-02 -8.6453054e-03
 -9.2695551e-03 -2.7392379e-03  6.5126852e-04 -3.0680248e-03
 -1.0413431e-03  2.9147654e-05 -7.9592941e-03 -3.8986057e-03]","[ 1.68691054e-02 -1.42718724e-04 -7.96084525e-04  1.28560392e-02
 -1.05859987e-10  2.68488470e-03  2.10158736e-03  1.51841091e-02
  1.15397405e-02  8.41474393e-04 -1.11601111e-02  1.17812464e-02]","[-4.7694971e-03  1.7606359e-02 -4.2660031e-03 -1.3636408e-02
 -8.9313358e-04  1.4053675e-11 -3.4919449e-03 -1.3223785e-02
  1.3227762e-02 -9.4916150e-03  2.2368731e-03 -1.4642990e-02]","[-0.010294    0.01740416 -0.01812388  0.00611264  0.00203908  0.00197324
  0.00131918 -0.01097554 -0.01151763  0.00252357  0.0166226   0.01731316]","[ 1.4925662e-02  1.4412760e-02  1.5391591e-02  1.3038328e-02
  9.8243538e-13  4.2632753e-03  1.6760161e-03  1.3509178e-02
 -9.6973311e-03  1.8701717e-02  1.6660474e-02  5.6481725e-03]","[ 1.9234890e-02  9.4862357e-03 -2.3629598e-03 -2.5735230e-03
 -4.7070393e-03  1.5702627e-08  2.6649120e-04 -1.0844563e-02
 -1.2187729e-02 -7.9020681e-03  2.2283761e-02 -1.3456079e-03]","[-9.4179548e-03  2.1856148e-02  6.6682231e-03 -5.9297485e-03
  6.9616097e-03  5.4033604e-03 -1.4263185e-03 -7.5371703e-03
  4.2264597e-05  1.3515830e-02  6.4261453e-03 -1.2361396e-02]","[ 5.8100815e-03 -5.8001741e-03  7.1979333e-03  9.4412351e-03
 -4.5475224e-11  8.1300840e-04 -2.2921686e-03  1.3124367e-02
  1.7204022e-02  1.4527780e-02 -5.1955250e-03  1.2774776e-02]","[-1.00009376e-02 -7.42670288e-03  3.65416822e-03  1.18213939e-03
  2.01889407e-03 -7.41005382e-11 -4.90978640e-03 -1.19808065e-02
  2.57038651e-03  2.70974357e-03  1.83249414e-02  1.04582179e-02]","[ 0.00920474 -0.00159426 -0.00349034  0.02263568  0.00540899 -0.00715125
  0.00095711  0.00755477  0.01766263 -0.01497773  0.00973354 -0.00360095]","[-1.3199696e-02 -1.3199117e-02  2.5346163e-03 -4.4618146e-03
  4.5831627e-11 -3.4868128e-03  2.8863144e-03  3.6422175e-03
 -7.2425243e-04  9.6030524e-03 -1.9180890e-02 -2.9254374e-03]","[ 2.5206902e-03  1.1975090e-02 -1.1499444e-02  1.0374287e-02
  1.9540996e-03 -4.4945279e-13 -1.7471442e-03  1.2178589e-02
  3.5877647e-03  5.3991382e-03 -4.1402285e-03  3.5711384e-04]","[ 0.00231048  0.00439402 -0.00091181 -0.002926   -0.01081485 -0.00336647
 -0.00028313  0.00596845  0.01036946  0.00537112  0.01478705  0.01131745]","[-7.2527165e-04  5.8964023e-04 -5.4959897e-03  8.9116963e-03
 -1.5475312e-08 -1.4005423e-03 -1.4357421e-03  2.8872057e-03
 -4.4168225e-03  1.4245611e-02  1.4733132e-02  8.5093267e-03]","[-1.75852682e-02  4.52987803e-03  5.90863684e-03 -1.32340752e-02
 -6.74472563e-03  2.80365620e-09  1.60321302e-03 -3.49083939e-03
  1.43407714e-02 -1.79661419e-02  1.71429962e-02  1.11896405e-02]","[-0.01232347 -0.00526263 -0.00042742  0.01767261 -0.0083672  -0.00228172
  0.00038611 -0.01317971  0.02040855  0.00811772  0.00577367 -0.01239647]","[ 1.31509472e-02  1.03534525e-02 -1.63601700e-03 -7.31888833e-03
  4.45555988e-11 -2.12089834e-03  8.27617187e-04 -6.27858471e-03
  3.14274943e-03  2.07885206e-02 -5.87126287e-03 -1.48733724e-02]","[-7.1143177e-03 -3.3227676e-03  8.9343544e-03  1.3794927e-02
 -8.3501443e-05  1.5751242e-06  9.5805631e-04 -8.1153745e-03
  7.9969717e-03  3.1714663e-03  2.0880178e-03  6.7649735e-03]","[-0.01094212 -0.00085111  0.0012397  -0.00601361 -0.01393659  0.00230848
 -0.00146833 -0.01335585  0.00417166 -0.0178282   0.01477246  0.00204734]","[-1.4360995e-02 -7.3826145e-03  1.1913421e-02 -6.7997458e-03
 -2.6010028e-08 -3.5878256e-04 -4.0755607e-03  1.7542046e-02
  9.1127958e-03  2.7617356e-03 -1.4012050e-02 -1.1677627e-02]","[-7.57137220e-03 -1.53417345e-02  5.67648793e-03 -1.55623350e-02
 -4.70815692e-03 -5.19602181e-05 -5.90701727e-03 -5.19645121e-03
  5.67635195e-03  7.45609170e-03  1.87250264e-02 -1.44418301e-02]","[ 0.00464264  0.01887278 -0.00360745  0.01401433 -0.0166374   0.00562534
  0.00267483  0.01153945  0.01125765 -0.01038914 -0.00104817  0.01301852]","[ 5.3945291e-03 -1.0712678e-02 -3.7383500e-03 -1.5828685e-03
 -2.1633929e-07 -5.5265875e-04 -7.9133146e-04  2.1461169e-03
  3.6112566e-03 -1.8362645e-03  4.9420809e-03 -5.3331074e-03]","[ 0.01385816  0.01168041  0.00392353 -0.01244086 -0.00412834 -0.00019101
 -0.00391782 -0.0108679   0.00936969  0.01229321  0.00557082 -0.01662727]","[ 0.00590855  0.01817225  0.00425357  0.00971553 -0.00141181 -0.00668958
 -0.00018323 -0.00203278 -0.00024237 -0.01653106 -0.01225431 -0.0157219 ]","[ 7.6515102e-03  4.0588579e-03  1.6585529e-02  8.1920043e-05
 -1.4244095e-07 -1.0346298e-04 -2.9777798e-03 -4.5064851e-03
 -1.1612637e-02  5.6925653e-03  2.4431469e-03  1.6246983e-03]","[-0.0167491  -0.00744142  0.00749376  0.00183076  0.00246007 -0.00033363
  0.00177781  0.01121366 -0.01133849 -0.01635371 -0.00402583  0.00954786]","[ 0.0109557  -0.00128692 -0.01068211 -0.00155539  0.00324421  0.00324217
  0.0009585  -0.01643876  0.01562416  0.0036629   0.01060187  0.00951262]","[ 9.7380085e-03  8.9686643e-03  1.7981572e-03  5.4768045e-03
  1.0442476e-07 -5.6428729e-05 -1.6631916e-03  1.2339356e-03
  2.0034526e-02 -8.1339888e-03 -1.4050048e-02  8.0990922e-03]","[-0.01649073  0.00876701  0.00884637  0.00163392 -0.0046701   0.00028772
 -0.00189183  0.01125715 -0.01232824 -0.00156527  0.01126968 -0.01705153]","[ 0.0039562   0.01607855  0.00634284 -0.00716198  0.00489309 -0.00548934
 -0.00268985  0.00404726  0.01389412 -0.00861828  0.0119662  -0.00031794]","[-4.98640258e-03 -3.42712016e-03  8.62892997e-03 -8.26912280e-03
 -4.75247619e-09 -3.60194448e-04 -6.55077340e-04 -6.96897833e-03
  1.19250035e-02  2.08635181e-02  3.02851986e-04  7.34485406e-03]","[-0.01065541 -0.00897602  0.00324865 -0.00330512  0.00271273  0.00011201
 -0.00081476  0.01695461  0.00113264 -0.00538235 -0.00546471 -0.0031376 ]","[ 0.00043855  0.02237056  0.00590818  0.01660142 -0.00124333 -0.00514998
  0.00241011  0.00831842  0.00323904 -0.01197269 -0.00728448  0.01553674]","[-8.34553875e-03 -7.83562381e-03  8.44332535e-05  2.17130091e-02
  1.24663802e-09 -1.02161150e-03 -2.92697898e-03  1.29391132e-02
 -9.91816074e-03  2.20622290e-02 -1.52137065e-02  5.78275649e-03]","[-9.4820932e-03 -4.8945025e-03  7.4646733e-04 -1.1964607e-02
  1.6102353e-03 -2.0872432e-05  2.6781887e-03  1.7717414e-02
 -2.7345596e-03  4.2873891e-03 -1.2935573e-02 -2.5244838e-02]","[-0.01010645  0.02037038  0.00054107  0.00402755  0.0046614  -0.00043136
 -0.00359821  0.01103253 -0.00279134 -0.00152519  0.01922844  0.00364248]","[-5.7545388e-03  1.2526501e-02  5.7821674e-03 -8.1418250e-03
  8.6232443e-13 -1.5459654e-03  3.7094553e-03 -9.0851616e-03
  1.3236857e-02  1.4586278e-02  1.1755919e-02  9.9047031e-03]","[ 1.2530709e-02  1.3393741e-02  2.0580592e-03  2.2636139e-04
  2.0859840e-03  4.3129653e-11 -6.6693546e-03 -7.3270680e-06
  9.6959928e-03 -1.9023944e-02 -5.8772569e-03  9.2469612e-03]","[ 0.01016336  0.00161664 -0.01896508  0.01543823 -0.00689048 -0.00177133
  0.00217085 -0.01540553 -0.01118403 -0.01055772 -0.00663847 -0.00593933]","[-3.0336934e-03  1.2207546e-02 -2.5244395e-03  3.1581814e-03
  1.0573104e-11 -9.7682257e-04 -4.2139059e-03 -6.1714053e-03
  3.9073123e-04  1.5382324e-02 -1.9620337e-02 -2.3812322e-02]","[-1.10898409e-02 -1.08566545e-02  4.85858927e-03  9.68604255e-03
 -1.04317456e-04  6.59194921e-15 -3.04446206e-03 -9.28508304e-03
 -6.38471358e-03 -1.18153598e-02 -1.19516784e-02  2.36080261e-03]","[-0.01051469 -0.0061625  -0.00494665 -0.01208634 -0.0095521  -0.00981148
  0.00094146  0.00115395 -0.00589143 -0.00487148  0.00412988 -0.01068865]","[ 7.5692446e-03  1.0623638e-02 -2.3391880e-03 -5.7667773e-03
 -5.6079114e-11 -1.7813416e-03 -2.4704784e-03 -3.7171051e-03
  1.1095445e-02  2.0010648e-02 -5.5530849e-03 -4.6745776e-03]","[-5.50334714e-03 -2.68825097e-03  3.79540212e-03 -1.83311272e-02
  1.71303051e-03  8.13338216e-11 -4.58995579e-03  2.55275820e-03
  9.04511008e-03 -2.52999045e-04 -1.30842505e-02 -1.18169338e-02]","[-1.3599151e-02  2.7205731e-05  1.1541913e-02  1.1700104e-02
 -5.7624183e-03 -2.4397720e-03 -1.7748552e-03 -1.6571440e-02
  1.8737843e-02 -3.3026852e-03  1.4554949e-02  1.7721457e-02]","[-1.3528917e-02 -1.6141655e-02  1.2339510e-02  7.8411940e-03
  2.7228452e-11  2.2569168e-04  3.6714156e-03  7.6201069e-03
  8.0328602e-03  4.5756609e-03  9.9786287e-03 -1.2379274e-02]","[-1.89782083e-02 -7.02712685e-03  4.42482205e-03 -1.90743078e-02
 -1.38466898e-03 -1.06562696e-10 -2.31876457e-03  1.54230306e-02
 -9.86668747e-03  8.56694300e-03 -8.19327496e-03  1.00676734e-02]","[ 0.00304445 -0.00930415  0.00165726 -0.00316069  0.00376215 -0.00478363
  0.00131975 -0.01573546 -0.01213153 -0.00946276  0.00578894 -0.01324096]","[-4.6630735e-03 -1.3692030e-02  9.0759313e-03  1.4581433e-02
 -1.9967270e-12 -1.6145464e-03  5.1388661e-03  2.8368698e-03
 -1.0348520e-02  1.9764982e-02 -4.0365799e-04  5.5926065e-03]","[ 6.0699387e-03  1.4149322e-02  5.7082144e-03 -1.4536223e-02
  9.2598051e-04  4.3227959e-09 -1.9292294e-03  1.6876550e-02
 -6.3386527e-03 -6.7568305e-03 -4.2128321e-03 -5.5153538e-03]","[ 0.00516001 -0.01180612  0.01324967  0.00992681  0.00234462  0.00534702
 -0.00377465  0.00704796 -0.00117941  0.00298354  0.01182705  0.00673555]","[ 2.66866467e-04  6.93404581e-03  8.33221804e-03 -5.78003936e-03
  4.42144828e-11 -2.00953288e-03 -2.14348081e-03 -5.14951593e-04
 -1.37820775e-02 -4.32979455e-03 -1.17019126e-02 -1.21724000e-02]","[ 8.6563583e-03  1.2855313e-02 -3.0956301e-03 -5.8891834e-03
 -3.1012902e-03  2.4300020e-10 -2.3789958e-03  4.9763820e-03
 -7.6968293e-03 -2.0583051e-04  1.7965585e-02 -1.3876276e-02]","[ 0.0131032   0.01368738  0.00747129  0.00220602 -0.00670751 -0.00180301
  0.00233218  0.00720816  0.00847764 -0.00575742 -0.00272416  0.01906659]","[-3.3792241e-03  2.3965195e-03  2.4123332e-03  1.3345941e-02
 -3.6900244e-10  2.5811133e-03 -2.5495400e-03 -2.6302931e-03
 -2.6210555e-04 -6.6242153e-03  6.8118451e-03 -2.5500864e-02]","[ 8.5282726e-03  4.1309190e-03  1.2620173e-03 -1.0721028e-02
  6.6162919e-04  1.0395797e-07  1.4556861e-04  1.5226350e-02
 -1.6356915e-02  9.4411470e-04  1.0564856e-02 -2.4212232e-02]","[ 0.01107874 -0.00746047 -0.0092637   0.00723555  0.00814968 -0.00526493
  0.00138528 -0.01645023  0.01884277 -0.00811931  0.0137456   0.01082587]","[-1.08247288e-02  8.03428330e-03  6.40467275e-03 -9.59468714e-04
  4.48016832e-11 -2.72518187e-03  1.55773396e-05 -1.23019535e-02
  1.27230417e-02 -4.27688845e-03 -1.60367936e-02 -1.77151002e-02]","[-6.8176817e-04  9.3925362e-03 -2.9374515e-03 -5.5855309e-04
  5.2595284e-04 -7.5778785e-06 -4.9316678e-03  1.3415607e-02
 -1.3557635e-03  3.4249472e-03  1.8220052e-02  5.4422067e-03]","[ 0.01616222 -0.0109739   0.00538879  0.01561634 -0.01087457  0.00271562
 -0.00128601  0.00934085  0.00323793 -0.01043091  0.00815778 -0.00406238]","[-2.0438183e-02  3.7312564e-03  1.8628305e-02  2.7131228e-04
  8.5168553e-11  6.2492327e-03 -1.8743757e-04  1.3279745e-02
  5.7499786e-03  1.7326031e-02  9.7328508e-03  1.9164422e-03]","[ 0.00833991 -0.01515305 -0.00093088  0.01663658 -0.00055657  0.00010936
 -0.00165741  0.0075855  -0.0117946   0.01034711  0.00536688 -0.00266586]","[ 0.02248858 -0.01123398 -0.01013184  0.01822495 -0.00478081 -0.00828957
 -0.00527097 -0.00976189 -0.00456834 -0.00914347 -0.00360537  0.00618191]","[-7.6170038e-03  1.0500384e-02  1.2179385e-02  3.7929544e-03
 -2.3488494e-11 -1.6624358e-03  4.0457473e-04  9.4761578e-03
  3.6750797e-03 -7.6574949e-03 -1.2654072e-02 -2.3211788e-02]","[-1.3274062e-02  4.4373786e-03  8.6594354e-03  1.5453193e-02
 -3.0628082e-03  3.9368842e-06  2.0069110e-03  1.6008760e-04
 -1.9132067e-02  3.4708313e-03  1.5602957e-02  9.0239560e-03]","[ 0.0144356   0.01411155 -0.01457618  0.00288958  0.00649474 -0.00068967
  0.0025139  -0.00578013 -0.00979825 -0.00632695  0.00086556 -0.00426975]","[-1.4152428e-02 -9.8330528e-04  9.0832440e-03 -4.7175135e-03
 -3.1915208e-12 -3.3482208e-03  3.1915065e-04  6.3865329e-03
  1.6377509e-02  5.8262129e-03 -1.2057833e-02  1.0943962e-03]","[-4.2925365e-04 -6.7670108e-03 -6.2306332e-03  1.7151546e-02
 -2.4382302e-03 -5.3664489e-06 -9.0884685e-04  1.8997746e-02
 -6.4031831e-03 -8.8974610e-03  6.6477796e-03  7.0838011e-03]","[ 0.01711498  0.01426247  0.01067298  0.01743793 -0.00783308 -0.00369337
 -0.00216439 -0.00945714  0.01019599  0.00345894 -0.01743485 -0.01552144]","[-4.3404503e-03  6.5914779e-03  1.7245457e-02 -7.3301662e-03
  5.3158419e-11 -9.2217454e-04  2.7345383e-04  3.4921952e-03
 -8.2498593e-03 -7.4133682e-03 -8.7213097e-03  1.1466962e-02]","[ 1.0404439e-02 -7.9323007e-03 -4.1704206e-03 -1.7652910e-02
 -1.4071559e-03 -2.1080708e-05  1.5832360e-03  5.0755066e-04
  7.2306395e-03 -5.8286502e-03 -7.0897117e-03 -1.6353171e-02]","[ 1.2840152e-02  1.2015296e-03 -1.9427897e-04  7.3539466e-03
 -1.4077155e-02  2.2403442e-03 -9.3586619e-05 -7.5078541e-03
  3.5867775e-03  2.0290079e-04 -1.5334793e-02  6.0579629e-04]","[-1.1310320e-02 -9.3597863e-03 -5.7341685e-03 -1.0583991e-02
  1.1071632e-08 -3.1593712e-03  5.0595915e-03 -3.1321035e-03
 -1.0716772e-02 -6.5362155e-03 -6.7145908e-03  6.4353650e-03]","[ 9.44056548e-03 -1.02694770e-02  5.64257288e-03 -8.22814461e-03
 -4.45927167e-03 -2.99681950e-08  3.43273184e-03 -8.46233964e-03
 -8.74382257e-03  8.92170705e-03 -1.36819165e-02 -1.72174126e-02]","[-9.06614368e-05 -4.38409857e-03  3.23617877e-03  1.67493839e-02
  1.36468117e-03 -9.71492846e-03  5.84457710e-04 -1.17145069e-02
  6.90668169e-03  1.33039905e-02 -1.31374840e-02 -1.37028284e-02]","[-1.6101573e-02  2.0203865e-03  5.9171105e-03  5.3564762e-03
 -4.8710108e-10 -7.4574159e-04 -3.5435145e-03  3.5202631e-03
 -1.1124432e-03  1.7184513e-02  1.7105844e-02  1.0713573e-02]","[-2.8178750e-03  7.9013780e-04 -9.7166169e-03 -1.4225800e-02
  2.1157186e-03 -3.9435322e-06  2.9246276e-04  1.4669368e-02
 -1.2779240e-02 -1.5997849e-02  1.5639065e-02 -2.4223344e-02]","[ 0.01316631  0.01303323  0.0123625  -0.00427376 -0.0122218  -0.00584845
  0.00178113 -0.01653195  0.02072566  0.01345812 -0.00276936 -0.00801744]","[-5.4811975e-03 -1.9751929e-03  1.2606659e-02 -1.4144731e-02
  4.0336706e-10  4.1219378e-03  4.6755257e-03 -8.7343371e-03
 -1.4109315e-02  6.9659781e-03 -9.4349524e-03 -1.0457816e-02]","[ 5.3798449e-03  3.4775375e-03  3.0165783e-03  9.6433368e-03
 -2.6795429e-03 -8.2549641e-06 -7.7173188e-03 -3.7487526e-03
 -8.5420310e-03  2.4949727e-03  1.1127490e-02 -4.4477773e-03]","[ 0.01992726 -0.00256789 -0.00744752  0.00069173 -0.01195721 -0.00512094
  0.00154239 -0.00438811  0.00033748 -0.00977838  0.00563617 -0.01405893]","[-1.1551539e-02 -9.5533719e-03 -4.8153959e-03  1.8829368e-02
  1.8697363e-06  3.1912168e-03 -4.0116678e-03 -7.2236359e-03
  1.4613944e-02 -8.7782051e-03 -7.6727704e-03 -7.2957971e-03]","[ 1.3617397e-02 -6.1866748e-03 -2.3747131e-03 -1.0360756e-02
 -3.2567177e-03  1.9151566e-08 -6.8525528e-03  1.4570245e-02
 -1.7384791e-03 -1.1765044e-02  1.9980626e-02 -1.3972857e-02]","[ 3.4448043e-03  4.3824846e-03 -1.1014388e-02  1.8111598e-02
 -1.2667809e-03  6.9273378e-06  3.5928257e-03  5.4770370e-04
 -8.8234032e-03  1.4417258e-02  1.7828278e-02  6.5438063e-03]","[-0.00250376 -0.00031666  0.00426788  0.00425684  0.00039817 -0.0007072
  0.00667688  0.00564154 -0.01096629  0.01211329 -0.01540851 -0.02055086]","[ 0.00351114  0.00322855 -0.01164261 -0.00358366 -0.00294092 -0.00012283
  0.00180627 -0.00567173  0.00803917 -0.01867014  0.00895092 -0.00159124]","[ 7.48338789e-05  1.17941704e-02 -3.83557868e-03 -1.49568245e-02
  6.29010517e-03 -5.18344948e-03 -3.46749113e-03  1.44041739e-02
 -1.32111050e-02  3.41181690e-03 -1.65342819e-02 -1.84673816e-02]","[ 4.5074173e-03  7.3213256e-03  1.4989375e-03  1.4429514e-02
 -9.0774029e-07 -3.7953971e-04  5.3983508e-03  1.9257324e-03
  9.4175041e-03 -8.7867836e-03 -5.8846250e-03  8.8565415e-03]","[ 0.01262982 -0.00784136  0.0068509  -0.01863929 -0.00157282  0.0001415
  0.00052106  0.01934677  0.00920649  0.00118948  0.0140978  -0.02249498]","[ 0.00568587  0.01939877  0.00638593  0.01558102 -0.00331355 -0.0060908
 -0.00025607 -0.00916498  0.01057243  0.01164321  0.01435131 -0.00376634]","[ 1.3913580e-02  7.1403832e-04  1.0094697e-02 -3.1149609e-03
 -3.1721761e-08 -2.5841032e-04 -4.1936534e-03 -2.9643793e-03
  1.9615743e-02  2.0130333e-02 -1.5596740e-02  6.6835391e-03]","[-1.3102639e-02 -7.6874932e-03  6.6682491e-03 -1.1139256e-02
 -2.6195128e-03  3.2585902e-08 -2.7716856e-03  9.2312535e-03
  4.0444979e-03  3.2625911e-03  1.7689411e-02 -2.2796784e-02]","[-0.01301186 -0.00120662 -0.01456895 -0.00781315  0.00209839 -0.00753458
  0.00391803 -0.01105705 -0.01109304 -0.0088852   0.00834162 -0.0050993 ]","[-8.0727898e-03  3.9293077e-03  9.8824073e-03  2.0671234e-02
 -8.0025675e-09  7.7939499e-04 -3.7841536e-03 -2.2095572e-03
 -1.5289057e-03  1.3639207e-02  1.4354622e-02 -2.4662197e-02]","[-0.01345115  0.01262342 -0.00669088 -0.00933684 -0.00173909  0.00034817
 -0.00146568 -0.01177658  0.00086921  0.00955408  0.0167976  -0.01764094]","[ 0.01206227 -0.00832914 -0.00517616 -0.00706303 -0.00329568  0.00085895
 -0.00519694  0.01040017 -0.00715202 -0.01616962 -0.01150651  0.00795277]","[-9.8056346e-03  5.4832003e-03  1.0652924e-02 -4.5344299e-03
  5.8611865e-12  2.8201649e-03 -1.5040325e-03 -1.2925346e-03
 -1.1454408e-02  1.0051100e-02 -1.5562243e-02 -2.3938509e-02]","[ 0.00011256  0.00139586 -0.00929436  0.00266395  0.00152174  0.00015115
