-0.00686083,-0.004334949,-0.013860467,0.008439929,-0.008060342,0.015802715,-0.004680917,0.013023704,-0.006841614,0.01130278,0.011112218,-0.00464549,0.001257125,0.001005895,0.002762414,-0.002241166,-0.01591711,-0.011123376,-0.016513841,0.007635719,0.008193127,-0.007132028,0.013588191,-0.006624545,-0.009246747,6.73E-05,0.000395116,0.015411352,-0.01611091,0.005053692,0.007217701,-0.003563287,0.009182954,-0.002203201,-0.00371401,-0.007610367,-0.005636725,0.0165718,0.015354338,-0.003536079,0.000258584,-0.0084858,0.00265885,0.005763498,0.004450409,-0.007614026,-0.005103785,-0.001114881,-0.012680285,0.007455488,-0.013101363,-0.009724664,0.011864044,0.009305144,-0.014350372,-0.000474326,-0.010287649,0.008225524,0.000321296,0.010745143,-0.000972085,-0.005502124,0.001905973,-0.01485103,-0.013649953,-0.006921574,-0.002334005,0.015705336,0.01054872,0.013516065,-0.010343129,0.00527001,0.014191922,0.014709742,0.005164287,-0.000975559,0.001777154,-0.005782704,0.008725326,0.013880112,-0.009700562,0.015474234,0.001674446,0.012726018,0.002649622,0.009449794,-0.016288947,-0.015299415,-0.004886089,-0.003107757,0.001351338,-0.001144845,0.011395773,0.004881805,-0.011894385,0.004452858,-0.007740722,0.011059408,0.003421623,-0.007310848,0.011154038,-0.005526659,-0.001393665,0.004682646,-0.001179482,-0.011365122,0.001828465,-0.000205422,0.001495689,-0.000455299,0.016555956,-0.014112298,0.014326574,0.00649426,0.012456248,-0.013800146,-0.013225211,-0.015815273,0.006020322,0.004785403,0.001563816,-0.009160976,0.004987606,0.004372413,-0.001067734,0.005010261,-0.011518641,-0.016952747,0.013893976,-0.008784084,-0.015536379,-0.013487232,0.007560494,0.001530038,-0.001745432,-0.016891293,-0.004671972,0.002930423,0.014482553,0.014719083,-0.011765001,0.000235302,0.000556531,-0.009239834,0.009556189,-5.93E-05,0.010567343,0.013867347,0.005079211,-0.012303626,-0.017418642,-0.006370608,-0.003600432,0.015566271,-0.009161735,0.000121723,-0.001742979,0.00333674,0.000395613,0.00570402,-0.014235516,0.007572776,0.00376358,-0.001109785,0.005471718,0.000742804,0.007293552,0.000328033,-0.000348732,-0.005730387,-0.002689965,-0.001069345,0.01394738,0.006117479,0.00953895,0.002568471,-0.007163907,-0.017421283,0.016656855,0.016704135,-0.00586897,-0.002663028,-0.002921751,-0.007544064,-0.008865457,0.004264017,-0.003045204,-0.010666858,0.011649212,0.001160852,0.015263204,-0.005317594,0.017065465,-0.001311253,-0.012407061,0.007578455,-0.000472198,0.014171746,0.01671452,-0.006441257,-0.000597541,0.00814606,0.006277308,0.003162911,0.016120084,-0.014766075,0.015573712,-0.015539979,0.014958563,0.004569905,-0.006837989,0.006213868,0.007885382,-0.007631953,-0.003871086,-0.010891296,-0.005967252,0.000664835,-0.00655585,-0.011072692,0.010427297,0.01168315,0.011111757,-0.010144363,0.014574034,0.006265428,-0.012158869,0.002716371,0.004912762,-0.013431481,-0.000893526,-0.00776278,-0.009206931,-0.002617968,0.01256172,0.012978364,0.004095036,0.005689203,-0.002386336,-0.01558416,0.003995147,-0.005017328,-0.005777892,0.016955342,-0.002756131,0.001518492,-0.01156751,0.010666952,0.010357343,-0.008366081,0.012677427,-0.013414953,0.012671356,-0.016211413,-0.009064467,0.001807882,0.005481852,0.010066986,-0.003715853,-0.007683936,-0.016891137,0.011563484,0.001502451,-0.012369637,-0.007595338,-0.00289258,0.007268282,0.002005504,-0.010214657,0.013757065,-0.018130459,0.008566778,0.012263914,0.015009838,-0.004659008,-0.01521955,-0.014053842,0.015010634,0.011916547,0.014693398,-0.00666497,0.004478898,-0.001828599,0.002194427,0.003635314,0.002523133,-0.003068031,-0.003645087,-0.008184921,-0.001404088,0.016482472,-0.008843788,0.004366605,0.005791696,-0.006119215,-0.016594209,0.006567863,0.012518811,2.91E-05,0.007958291,0.005200191,0.01416137,-0.008283591,0.015438832,-0.012807074,-0.011285996,-0.009507784,-0.003046796,-0.00531379,0.009553053,-0.006945243,-0.007780933,-0.002684222,-0.006108627,0.01301607,0.000818618,-0.000322131,0.012604889,0.012148995,0.013777628,0.000978186,-0.010709653,-0.008165648,0.013065148,0.010215742,-0.004306085,0.009799357,0.004470848,-0.008393388,0.007698343,-0.005231028,0.011405123,0.01537366,0.010317605,-0.014206438,-0.000656248,-0.001295814,-0.013937085,0.004504524,-0.013825156,0.003593476,0.003381534,-0.008191831,-0.017147534,-0.002428748,-0.010073852,-0.008388491,0.003530319,-0.014468041,0.008792868,0.006013969,-0.005042466,-0.01522695,-0.009191752,0.002407616,-0.006113684,0.006434658,-0.008926638,0.013812727,0.006420198,0.002769578,0.007313248,0.003175192,0.011341819,0.016169244,0.012739221,-0.010537995,-0.006927701,0.005302118,-0.013746418,-0.007394681,0.010517769,0.002593787,0.010523753,-0.001680014,0.000440264,-0.012967516,0.007846807,0.006617222,-0.008681272,0.016277134,-0.009549038,4.63E-06,0.015363854,0.002793783,0.002031603,0.008774373,-0.010563061,-0.010057875,0.007359747,0.01722948,0.010328419,0.004755411,0.011681226,0.000290041,0.00800422,-0.010735735,0.015791964,0.014036784,0.0161708,0.010301959,0.009753941,0.011202868,-1.62E-05,0.006442823,0.001578766,0.00097957,-0.006286103,0.003209101,-0.00166015,4.54E-05,-0.017449312,-0.013214241,-0.002040224,-0.013489893,0.016012149,-0.01513336,0.001894494,-0.008963738,0.007187696,0.006046105,-0.002996241,-0.014328226,-0.001127084,0.005144229,0.011712259,0.003561698,-0.013203411,-0.016560722,-0.00776169,-0.002146462,-0.010605627,-0.010492211,0.008208224,0.007940035,-0.013842387,-0.004146853,0.006222703,-0.006850694,0.003364492,-0.002064041,0.016948035,-0.00273401,-0.008981598,-0.007275844,0.010635918,0.010938608,0.014336762,0.010059122,-0.006953643,0.001163774,-0.016117577,-0.009653648,0.012381012,0.004601941,-0.015976416,-0.007816046,0.002000155,-0.002329782,-0.002996243,0.014916923,-0.007510804,0.015332295,0.013193339,0.001087136,-0.013421428,0.011408787,0.005174285,0.012086151,0.008330843,0.001654318,0.006344341,-0.004733374,0.013305289,-0.01657221,-0.005532367,0.002585673,-0.010086714,-0.001001121,0.015591153,-0.000675917,-0.010458785,0.009462898,0.012422488,-0.007111863,0.010293951,0.01549005,-0.012010149,-0.012955178,-0.008241031,0.003784444,-0.015946005,0.001174666,0.014256381,0.015404066,0.011592591,0.007863551,0.000703825,0.017111257,-0.015767911,-0.015776739,0.012520578,0.000496767,0.001490821,-0.012349229,-0.005954517,-0.00328867,0.006665363,-0.012451586,0.006350298,0.004550736,0.011136917,-0.004805858,-0.004616071,-0.002142327,-0.011061781,-0.00435334,0.015329411,-0.015214305,-0.013592014,-0.004724187,0.00372061,0.01637739,0.009290886,0.013817191,0.012326771,-0.003009786,-0.011620137,-0.013089826,-0.008213471,-0.011008889,-0.016697003,0.005457557,0.01099529,-0.011448563,0.004157094,0.007773913,0.013475439,0.000685482,-0.007723494,-0.008150917,0.005134551,-0.00343885,-0.014507058,0.013175899,0.013861285,0.01647778,-0.00765963,0.007770529,0.011224993,-0.007817416,-0.008265087,-0.017201668,-0.004182883,0.003415791,-0.002507568,0.004291664,0.013992323,0.001793047,-0.006866109,0.010129105,-0.013987013,-0.0027713,0.004663013,-0.015442785,-0.005987563,-0.002428296,0.00327749,0.003676195,0.008725401,-0.005999484,0.000566204,0.014597747,0.011412209,-0.001915931,-0.000371944,-0.00133735,-0.015483663,0.002762079,0.005700566,0.00938361,0.00561602,-0.007240625,0.015742538,0.00015524,-0.01206778,-0.01134633,-0.00943025,0.001837998,-0.011723575,0.004211626,-0.007817999,-0.015534104,-0.011766507,-0.000114537,-0.008660547,0.005973913,0.010094862,-0.005834469,-0.011517274,-0.009880197,-0.000675172,0.006309191,-0.002519441,-0.008859755,0.007488743,-0.009421621,-0.000730995,0.011482641,0.009550421,-0.00132559,-0.010022071,-0.008151116,0.000758456,0.00086274,0.001519538,0.015682653,-0.006528392,-0.003129177,0.008254968,0.01327233,-0.004514824,-0.015744671,-0.007049339,-0.002752701,-0.014986069,0.010799711,-0.00699685,0.00514146,-0.006454108,0.005690682,0.016283296,0.008307949,-0.018076912,0.003607241,0.015525797,-0.007729323,0.004654578,-0.013098701,0.013086382,-0.000114108,0.003651627,0.015712421,0.002273037,0.000516887,0.001696051,0.004912276,-0.003251937,-0.009066298,0.013436587,0.008744453,0.007782975,0.004823382,0.016818346,-0.004831905,-0.012343704,-0.016370054,-0.014181485,0.005435758,0.006733422,-0.018049177,-0.005363327,-0.015605317,-0.007493018,0.002107532,0.014091444,-0.009584955,-0.012037372,-0.004248361,0.00499741,0.006050874,-0.01635028,-0.013628775,-0.014546137,-0.005785993,0.011415333,-0.011528399,-0.001176861,0.009162452,0.008703722,0.011852995,0.016375866,-0.002357065,0.011146788,0.013406065,0.015317583,0.002859384,-0.009358378,-0.000543053,0.014448553,-0.008438413,-0.012654088,0.012576788,0.0171692,0.013242135,-0.015700862,-0.016017312,0.002818151,0.002000818,-0.009598792,-0.005814139,0.009864046,-0.007291494,0.001628983,0.002982497,-0.01066689,0.012969747,0.003512463,0.004097309,-0.015256082,0.009621467,0.008660749,0.000746721,-0.014490103,-0.011452043,0.012967981,0.00428054,-0.005715912,-0.004826294,0.005058325,-0.000274643,-0.001534268,-0.003893983,-0.000158033,0.011974774,-0.009898582,-0.005401449,-0.000554815,0.010371802,0.011610325,0.003828762,-0.007087199,0.017354168,0.004758524,-0.013539308,-0.003046204,0.010776989,-0.004540511,0.014354439,0.002483487,0.003049119,-0.00123308,0.008063299,-0.011845512,0.007901826,0.007031308,0.004361435,-0.005982008,-0.001880913,-0.015216936,-0.013786598,-0.004904692,-0.001392329,-0.003750183,-0.015832016,0.003683396,0.009891259,0.011282348,0.005668483,-0.004843852,-0.008116227,0.009197158,0.016364267,0.011853327,0.008397509,0.013735885,0.007558266,0.002087726,-0.014246354,0.010953752,-0.015785078,0.001558661,0.016541896,-0.000651856,0.00250393,-0.007837272,-0.006879492,0.007715867,-0.00708339,0.001391245,-0.00786442,0.014640053,-0.001515703,-0.001085912,0.001214206,-0.003094144,0.000723383,0.007769596,-0.001231266,0.003359265,0.000702762,-0.006783065,0.015736042,0.002451705,0.010132366,-0.003399293,0.001244674,-0.013124511,-0.011882359,-0.009372464,0.00276448,0.004557575,-0.001507317,0.017029632,0.001137157,-0.010009205,-0.006055205,-0.010172632,-0.003698828,0.013424408,-0.016486984,0.001964566,0.007666666,-0.010493922,0.009262552,-0.006242388,-0.004511768,-0.003785149,-0.013941432,-0.009827424,0.000343967,0.013369111,-0.01811995,0.000845124,0.00328965,0.007146091,0.005471679,-0.006610883,0.001273512,0.01525364,0.002669856,-0.015894411,-0.005398218,0.011115836,-0.006798087,-0.000284511,-0.016120335,-0.015212134,0.015614648,-0.009667633,-0.011148484,0.011362547,0.005560204,-0.011216119,-0.004540878,0.00516321,0.009699562,-0.005136741,0.011614227,-0.005236935,0.008602777,0.003126134,-0.013993148,0.013171904,-0.005515654,-0.006826688,0.0136349,-0.005457788,-0.007618052,-0.004289515,0.017387409,-0.00227416,0.00219743,0.010751897,0.007153055,-0.013688917,-0.013731626,-0.014276912,-0.007125979,0.006206961,-0.017599907,-0.012204586,0.0172427,-0.018197268,0.005010907,0.009516323,-0.015874797,-0.001507104,0.003514319,-0.005853953,-0.000659322,-0.012100656,-0.000250018,-0.008521377,0.010819506,0.010092851,0.014309581,0.01638804,-0.010637664,-0.009540388,-0.003068391,0.005913616,-0.001991322,-0.006410627,-0.016281685,0.011867817,0.005952709,0.009938761,-0.010689476,0.010436564,-0.00394098,-0.001041153,0.009088651,-0.007192122,-0.006670157,0.003286829,-0.009705455,-0.01269285,-0.008728934,0.01027137,0.011835353,-0.008173351,0.002238819,0.00021134,-0.008965158,-0.001198202,-0.014589124,-0.011353002,-0.000166527,0.012272359,0.002496843,-0.005259868,0.001861314,0.002247001,-0.005056313,0.000445958,0.011258533,-0.001935376,-0.015078958,0.013896274,-0.001982923,-0.006399514,-0.009852775,-0.003929438,0.000285487,-0.011289186,-0.000487137,0.014940938,0.017026985,-0.007911072,-0.014838748,0.006761512,0.006074094,-0.003665833,-0.010292054,-0.016654937,0.015602164,0.000214735,-0.015195083,-0.007701682,-0.007443927,-0.00930901,-2.60E-05,-0.007853501,0.003241373,-0.003030832,-0.003549838,-0.001641567,-0.01285667,-0.01203555,-0.005518136,0.008536493,0.001342677,0.01197794,-0.001689185,0.006413107,-0.001076095,-0.009446959,0.012261254,-9.50E-05,0.002026281,-0.010708879,0.017127767,0.01441959,0.008482942,-0.010488799,0.005622733,-0.003039267,0.00634423,-0.014676057,-0.004363585,0.005624546,0.002681369,0.017615387,0.015273838,-0.005521637,0.007071871,-0.001676193,-0.012453195,-0.000378004,0.017243896,0.000818906,-0.013353708,-0.012504582,0.003491155,-0.001561354,0.008456974,-0.009360475,0.015367502,-0.006793559,-0.009649458,0.00952416,0.008388956,-0.014835172,0.008809344,0.005176725,-0.004336804,-0.016086888,-0.005185507,0.001733407,-0.007224978,0.006609227,-0.005989412,0.00339704,0.01663031,-0.003654102,0.005522644,-0.017185714,0.016661502,0.006523609,0.008880128,-0.000434758,0.005328373,-0.011786727,-0.014393719,-0.000893913,0.015451484,0.00934441,-0.010385684,-0.00148944,0.005145211,-0.016435154,0.013811529,-0.002649856,-0.011898396,-0.000528256,0.000223917,0.002725007,-0.003953171,-0.000138118,0.007385646,-0.011333268,-0.000851332,0.006374507,-0.010081458,0.006452212,-0.010868711,0.001775176,0.012606823,0.006250945,0.01639687,-0.014547478,0.00805674,0.008157815,0.011714066,0.006526987,-0.00999266,-0.009704482,0.003433335,-0.016717039,0.016565753,-0.012166616,-0.016436312,-0.003516221,0.005155973,0.004794773,0.007812773,0.013059268,-0.008952141,-0.001187682,-0.006738707,-0.011082315,0.012679975,-0.011472309,-0.011057016,0.008554111,-0.012030272,0.008689301,-0.005858061,0.009942751,0.002913697,-0.012784897,0.006333056,0.000770332,0.01591171,0.006490205,0.016837496,0.006423649,-0.015157631,0.011980311,0.016970985,0.010932174,-0.004241665,0.004566385,-0.006638154,-0.004743415,-0.001528052,0.007617193,-0.007744028,0.00802961,-0.003124778,-0.015814707,0.008889071,0.010543974,0.012659857,-0.008758186,0.007385362,-0.017944472,-0.001439854,-0.014742734,-0.006531433,0.007094738,0.00391892,-0.004088818,-0.005713938,-0.008008164,0.01097997,0.015292741,0.005770129,0.002197831,0.001815991,-3.35E-06,-0.001287091,0.002443714,0.003414143,-0.014895646,0.015624161,0.001978547,-0.008376282,0.003323227,0.002731046,-0.006791223,0.001015674,0.003982582,0.017079715,-0.014418555,-0.011634213,-0.017521665,-0.010626231,-0.015596333,-0.003404046,0.004181167,-0.003834911,0.00788769,0.002377974,0.011876434,-0.004010396,0.008686102,0.013708292,-0.003784994,-9.28E-05,-0.000932017,-0.011647139,0.006240801,-0.004979745,-0.016541824,-0.003567213,0.013022707,0.007351343,-0.000830818,-0.012914583,0.00956386,0.000426078,-0.011376081,0.008271842,-0.001730528,-0.003177318,-0.011005354,-0.011852814,0.006726499,0.002950304,0.014344736,0.00060547,-0.001940847,-0.004055383,-0.01047839,-0.014534455,0.016914688,-0.006417903,0.017212644,-0.008408579,0.011994202,-0.002516493,0.003371752,-0.015589899,-0.008098649,0.015012207,0.005839395,-0.005848569,0.012225554,-0.015157752,-0.002246734,0.003976061,0.005582305,0.005809073,0.010420497,0.015980992,0.010101319,-0.013687605,0.004722401,0.005248274,-0.006943801,-0.000628706,0.013971952,0.001176813,-0.014802277,-0.003260332,0.010396239,0.011516947,-0.008636134,-0.009639736,0.015494205,-0.015246029,0.000832533,-0.011331261,0.006459813,0.014167206,0.000290392,-0.014719724,-0.002342322,0.005096949,-0.011310421,-0.012381476,-0.014483835,-0.014473551,0.006578842,0.007512057,-0.013494492,0.003972633,0.012981162,-0.01109103,-0.004250398,0.005604206,-0.006031121,0.007103262,-0.010070323,-0.015153835,-0.00174661,0.010283203,0.016819127,0.004600993,-0.011500797,0.009530676,-0.008915341,0.012064467,-0.000641979,-0.003427454,-0.005482573,-0.006625696,0.00309564,0.005737446,0.008170308,-0.005138273,0.01343354,0.0020579,0.004116579,0.003829045,-0.007565762,0.003801992,0.010087286,0.008532135,-0.004128958,0.01751049,0.017100869,-0.007689814,-0.005244023,0.013323801,-0.013990934,-0.002582663,-0.006502377,0.004689612,-0.013993137,0.002373832,0.005809405,-0.013554408,-0.017515149,0.012397227,0.002871962,0.008874686,-0.002307398,0.00909722,-0.00688008,0.004999894,0.000745217,-0.011717618,0.015079446,0.007037341,0.005917779,0.006845465,0.006486663,0.000491388,0.012150797,0.003307105,0.008102922,-0.016906332,0.012550036,0.00050574,-0.005111793,0.008499923,-0.002493605,0.003183794,0.016817503,0.005689365,0.012278433,0.003639642,-0.012075479,-0.011154401,-0.009946064,-0.010229298,-0.011602652,0.009074638,-0.017451348,-0.000533885,-0.009689941,-0.000160022,-0.005181638,-0.01697136,-0.010726539,0.009294481,-0.001009928,0.013935925,-0.011105076,0.00837307,-0.015953772,-0.004870418,0.004509873,0.00814769,-0.008846893,0.016355699,-0.008591161,-0.011107006,-0.012748924,0.007565854,-0.002639748,-0.007311764,-0.005953128,0.000708035,0.007797297,-7.15E-05,0.005790475,-0.010030667,5.60E-05,-0.011214322,0.016340006,-0.001717108,-0.010075131,-0.00410311,0.004435777,0.00518307,0.002804793,0.009746594,0.009819496,0.015126956,-0.010942576,-0.006451461,0.000848836,0.008288645,-0.002012947,0.017520582,-0.009604377,0.002174523,-0.012824902,-0.00556525,-0.010674941,-0.006222913,-0.005857073,-0.007259295,-0.009574707,0.014167493,0.010088845,0.015855752,0.015306572,-0.002966734,0.002028708,0.001968241,-0.001420622,0.003177882,0.004171032,-0.008180839,-0.006529604,0.007254984,-0.009261633,0.002151366,-0.00244865,0.005949747,0.014026292,-6.69E-05,0.002844096,-0.003817669,-0.013327599,-0.005472725,-0.003597741,-0.016943539,0.003299536,0.01308337,-0.003806005,0.001643576,-0.000657835,0.006564645,0.013178195,0.011673708,-0.00844531,-0.010636467,-0.008143847,-0.013535281,0.004907362,-0.0160066,0.001550578,0.00128068,0.017558504,0.003366329,0.011019782,-0.008935418,0.010516554,0.005208989,0.006300398,0.010332518,-0.003179849,-0.006314791,-0.002949592,-0.014701899,0.008418619,-0.006634162,-0.010478303,-0.001994713,0.001448793,-0.002823232,0.003974401,0.009515633,0.001977795,-0.012700914,0.00440047,-0.003431754,0.01781234,0.004728004,-0.010948937,-0.012761558,-0.006510231,-0.000894434,-0.01270997,0.001082113,-0.014571803,-0.013378988,-0.000963834,0.002683309,0.017527986,0.009245748,-0.000823759,0.001879517,-0.005388682,-0.016565604,-0.004275769,-0.007680247,0.015812756,-0.012530337,0.014551915,-0.008704187,-0.009235378,0.001965352,0.012755424,0.003461493,-0.0039942,0.002784422,-0.002019005,0.009394267,-0.014386659,-0.014957096,0.010176851,-0.006840147,0.015543425,-0.004821749,-0.00207344,-0.013365621,-0.017185882,-0.008232215,-0.006271883,-0.009096427,-0.004474491,-0.014687079,0.004572258,-0.006215097,0.007347574,0.016623024,0.015564582,0.008146214,0.007416657,-0.014102721,0.000170812,0.009137002,-0.013310075,0.009515042,0.002326505,0.010801786,0.004204175,-0.010324364,0.004602639,0.000774588,0.014230241,0.001916182,-0.013634869,-0.002303241,0.006904692,-0.0086486,0.009445668,0.00505827,-0.01098037,0.008638781,-4.77E-05,-0.000423715,-0.000741697,0.012181316,0.012532458,-0.002378592,0.010333021,0.002515471,0.012464867,0.015813693,0.011814183,-0.000236444,-0.015533376,0.011076495,0.01597594,0.010836122,0.010628348,0.015205701,0.008205443,0.016411308,-0.013261636,-0.016379915,-0.002741952,-0.004650396,0.0063506,0.014339011,-0.009821234,0.00126804,0.012384564,0.017089864,-0.001442808,0.002612858,0.009864405,0.009733799,-0.003503774,-0.010181721,-0.001488561,-0.012813341,-0.007212741,0.001202566,-0.014747051,-0.010300376,-0.003017136,0.011821698,-0.012244416,-0.001109946,0.000867602,-0.006639757,-0.008595162,0.000694525,-0.004995747,0.007703676,-0.008466471,-0.00444353,-0.002852402,0.016448041,0.001607296,-0.010400519,0.016223453,-0.005519372,0.014551536,0.003564567,-0.010395989,-0.015863732,0.007766941,-0.008951898,0.001310628,0.015914055,-0.000552082,-0.01713459,0.003977415,-0.011644508,0.010080987,-0.016294308,-0.002614874,0.004196456,-0.000377062,-0.001474023,-0.003114073,0.01600255,0.01354996,0.002690383,-0.001530629,-0.008017425,0.007320388,0.016182696,0.016743213,-0.01387062,0.01603336,-0.01230617,0.001897698,0.014549077,0.007147638,-0.001331453,-0.002262237,-0.003966648,-0.01248352,0.009863602,-0.005930792,-0.00580253,0.014295475,-0.006210862,-0.014843461,0.014420065,-0.003417903,0.003556981,-0.000576019,0.011752707,0.002745642,0.016088333,-0.009549504,0.008827276,0.002596349,-0.003877926,0.010593587,-0.016651388,0.015688408,-0.006577807,0.004608775,-0.01016388,-0.011896466,-0.01466339,0.013952433,-0.005676896,0.000237846,0.005350908,-0.011797705,-0.011630649,-0.009730052,0.010603094,-0.012883027,0.017159766,-0.001782927,0.007892774,-0.012472828,-0.008611972,0.012023509,-0.005543726,-0.005247665,-0.012617249,-0.002331712,7.53E-05,0.001032843,-0.001854646,0.003306401,0.014993119,-0.011202379,0.000857301,0.004922141,-0.002647522,0.013246226,0.014674402,-0.013431471,0.012822913,-0.015167072,0.005002054,-0.013656459,-0.002403017,-0.014239362,-0.008819748,-0.009464713,-0.003548275,0.004383217,0.014376988,0.002274321,0.005878031,0.008401977,0.016571108,-0.007820076,-0.008497593,0.017161088,0.011541119,0.000449308,-0.004408708,0.005620043,0.01242517,-0.00147526,-0.014681567,0.002459753,-0.003990384,-0.015308401,0.005448078,-0.010812365,0.010763688,-0.012430872,0.012201777,-0.007505124,0.006597628,-0.005445809,0.004775673,-0.007560002,0.010500839,-0.013698249,-0.00180473,0.014437492,-0.00182647,0.003636927,0.007477951,-0.016172394,-0.005325716,0.011210242,-0.002706734,-0.009358964,0.005785318,0.000571993,0.010136211,-0.017203746,0.015405512,0.014196797,0.003501786,-0.000429631,-0.012541114,-0.014488649,0.005847603,-0.008448117,-0.004445008,-0.006161611,0.003131856,-0.016095882,-0.000317653,0.015367546,0.001149188,-0.007483291,0.008252053,-0.013290211,-0.015878461,-0.007339922,-0.014010635,0.01586084,-0.004474943,-0.017349813,0.005167766,0.013427921,-0.006778574,0.000246913,0.005939903,-0.016304668,-0.009286949,-0.009483988,-0.008900736,0.007796888,-0.01063928,-0.012515748,0.005107775,0.007208214,0.00053189,0.008978533,-0.016712675,0.00409529,-0.017132595,-0.002875618,0.01439199,0.002607873,0.005168421,0.011079164,0.008303236,-0.009592008,0.006419142,0.016078796,-0.003805657,0.015775088,0.003231979,0.010952584,0.003613836,-0.01440332,-0.01128649,-0.009096311,-0.001379219,-0.005147659,0.01122116,0.002368687,-0.004703675,0.010702333,-0.002946785,0.014638699,0.010632284,0.012115187,-0.01446015,0.013430559,-0.017119387,0.006989395,-0.00121698,0.013054295,-0.000212101,-0.00940958,-0.001062109,0.010982667,0.004892503,0.008410543,-0.006364011,0.005873334,0.002110775,0.012526936,-0.003435271,0.016763119,0.011028772,0.000854572,-0.002430607,-0.002878176,-0.007103337,-0.001093013,0.002760275,-0.007965917,0.009782828,-1.20E-05,-0.00222689,-0.016568134,0.010341425,0.006412999,0.000414527,-0.008652043,-0.00464235,-0.011035577,-0.006014408,0.000634508,0.015994668,0.009426479,-0.017307704,-0.001871168,0.008573477,-0.009986103,-0.000453009,-0.002505497,0.009688068,-0.009972543,0.01662263,-0.000578003,-0.000402188,0.009166567,-0.00234486,-0.00150535,-0.013042824,-0.012338687,-0.009067096,0.009094157,-0.001180405,-0.014122921,-0.012699383,0.000163308,-0.01002637,0.016932635,-0.011962944,0.00072059,0.007231829,0.011575063,-0.00200406,0.007035923,-0.015561942,0.008467484,0.003062742,-0.002140512,-0.003576563,-0.014692182,-0.008940289,-0.016871216,-0.010722521,0.00206905,-0.015462743,0.008929995,0.0114382,-0.002292455,-0.01387351,0.013092321,7.86E-05,-0.009471747,-0.013763056,0.012234807,0.007776151,0.013920556,-0.009407647,0.003267812,0.005396142,-0.002370325,0.016214961,7.47E-05,-0.003361119,0.015628563,-0.00191616,-0.012215111,-0.007767737,-0.015347433,-0.009383365,0.007181045,-0.008213051,-0.004149957,-0.010851906,-0.013193317,-0.008207353,-0.008124832,-0.007037469,-0.004542749,0.008980553,-0.015071311,-0.004967419,-0.013052084,-0.004408217,0.013477962,-0.011747934,-0.012881393,0.015526995,-0.010311554,0.015180252,0.004304216,0.007323346,-0.003252966,-0.004352759,-0.015699413,0.005157371,0.006146824,-0.005540331,-0.00576661,0.009634466,0.006038892,-0.015073987,-0.004994511,-0.015000253,0.01653497,-0.01540135,0.017488692,-0.015480447,-0.010238767,0.00231134,-0.00475668,0.004491642,-0.008511497,-0.003217314,-0.003732503,0.002790427,-0.006501335,-0.004218246,0.01241212,0.012319127,-0.012205401,0.006439306,-0.006719095,-0.013061019,-0.008531355,0.008561052,-0.002619184,-0.001413772,0.006829907,0.006696834,0.010546749,0.016985998,-0.014829217,-0.007065752,-0.00914505,-0.001949218,-0.000712855,-0.008244004,-0.016417421,0.015399104,0.010853422,0.010036644,0.005245598,-0.014059248,0.001954058,0.003171252,-0.001595551,-0.013693644,-0.008410601,-0.005508792,-0.013272397,0.014821695,0.00688892,0.001224579,0.016247872,0.014394017,0.003488761,0.011356137,-0.002784537,0.005154002,0.002551871,-0.001137692,0.011722171,-0.012564166,0.006741981,-0.009551066,0.009718617,-0.014407729,0.007989146,-0.001642717,0.006931234,-0.001669649,0.002245612,0.006113992,-0.002097486,-0.01620294,-0.005801214,-0.008292039,0.003698092,0.015707208,-0.013574592,-8.16E-05,0.014164027,0.014423221,-0.001336496,0.00574592,0.000289912,-0.001563219,-0.014928956,-0.002265445,-0.005718,-0.013465012,-0.00986258,0.018141663,-0.013166871,-0.004573189,-0.001052826,0.010321938,0.000714102,-0.007709083,0.004556797,0.00821237,0.009305721,-0.004305909,-0.015880262,0.00762105,-0.008687078,0.014173212,0.002172292,-0.006371604,-0.005200194,-0.015633095,0.007242635,0.01284915,-0.015921269,-0.008137699,-0.01585696,0.010895981,0.002991469,0.004802205,-0.006077013,0.001254786,0.008554861,0.003095253,0.007342293,0.000897144,-0.006140217,0.013999794,-0.001182459,0.006679936,-0.01626423,-0.00129596,0.015955284,-0.00297968,0.010787018,0.006587728,-0.010932394,-0.009145865,0.000584647,0.000637688,-0.014243732,0.000128933,-0.018127017,-0.014341249,-0.002235235,0.009870977,-0.001244186,0.011485539,0.004246445,-0.015122276,-0.016419383,-0.007571579,-0.011163248,-0.001198097,0.005164641,0.013146058,-0.005777222,0.01484482,-0.003109409,-0.0041423,0.013857162,-0.010457389,-0.008922712,-0.002302482,0.00666974,0.012109906,0.017350765,0.010422088,0.016148007,-0.004823213,-0.016350418,-0.004328969,-0.005019505,0.014231692,0.013780568,-0.010383873,0.003897121,0.010174297,-0.011624315,-0.011213002,0.008289224,-0.016407462,0.01544824,-0.008733775,0.000438978,0.004357855,-0.006068648,-0.004656105,-0.005392907,-0.01112364,0.000138246,0.015980281,-0.009234997,0.011638105,-0.000710101,0.012254925,-0.00019897,0.016093662,-0.01671734,-0.007423667,0.014665102,-0.013819768,-0.013720168,0.012944187,-0.003378427,-0.002757725,-0.013335614,0.002321007,-0.012462927,-0.001245782,0.010992105,0.00445725,0.006911162,-0.011119604,0.005336796,-0.001075124,-0.001701383,0.006317912,0.004952251,0.003711245,-0.008552666,-0.015755337,-0.006280817,-0.015897889,0.000780328,0.002917989,0.002027237,-0.010426411,0.005721045,-0.002275376,-0.005453327,0.009809297,-0.009138736,-0.006915064,0.002780032,-0.01320477,-0.003037324,-0.01161026,-0.007396164,0.001527621,0.003246917,-0.017555984,-0.004806897,-0.010396597,0.017152563,0.00138541,-0.00780338,-0.013497463,-0.007653477,0.006261681,0.006486905,-0.007234615,-0.012410751,0.01600931,-0.007573262,-0.006341423,-0.004613361,-0.004082064,-0.001648763,-0.000469259,0.009007223,-0.004899541,-0.002841687,-0.011780504,-0.013768033,0.006675175,0.00588648,0.014868983,-0.017281428,0.004711551,-0.002151391,-0.001863889,-0.003540488,-0.01690482,-0.01592551,-0.015000018,0.008033619,-0.014995297,0.016391305,0.009705341,0.008720264,-0.011535293,-0.00946474,0.011528959,-0.015028509,-0.01613421,-0.010231626,0.001851711,-0.011658997,0.011681631,0.008921216,-0.016384808,-0.005575456,-0.004220471,0.008819387,-0.00684195,8.79E-05,-0.015028812,-0.004067401,0.004639476,2.96E-05,-0.003675381,-0.01122264,-0.013568884,-0.004012743,-0.014367776,0.000898995,-0.008182788,0.00185485,0.010398994,0.016993482,-0.015759086,-0.000635824,-0.007457498,-0.005224462,0.000135914,0.014156539,0.015694926,-0.011597863,-0.010593537,-0.003513993,-0.003360803,-0.010113665,-0.013856502,-0.015009123,-0.007925923,0.013949106,0.005933012,-0.007015618,-0.005811307,0.01011617,0.0020624,-0.004342916,-0.001400268,0.002754703,0.015441087,0.01572669,-0.008969781,-0.000485201,-0.008490852,0.01587182,0.000740933,-0.012238958,-0.006262738,-0.002499983,0.00847411,-0.00889244,0.009781004,-0.014128798,0.005378878,0.003988966,0.003911044,0.005752862,0.0149652,0.008975318,0.000855508,0.010306719,0.016314099,-0.004840933,-0.012460964,-0.000666672,-0.000111204,-0.010648354,-0.00238001,-0.003147691,-0.00830044,0.003587242,-0.017620556,-0.008814596,0.015876928,-0.003376607,0.000506885,0.016590556,0.016982548,0.012827002,-0.00587062,0.008724793,0.011871217,0.011073731,-0.006224321,0.006389837,-0.007952306,-0.00824611,0.015202044,-0.006784559,0.00584819,0.008067543,0.001946713,0.012241459,0.001828607,0.014905268,0.005312375,-0.008646834,-0.003683485,0.001821744,0.001738204,0.013792879,0.014541957,-0.003661619,-0.00752057,-0.005640871,-0.015959844,0.002238501,-0.004175834,-0.002619202,0.010965666,0.013518154,-0.015017206,0.013483833,-2.67E-05,-0.011052916,0.010493776,-0.012267564,-0.002494512,-0.017034885,0.014550581,-0.007335508,0.005660792,-0.000159931,0.014400255,-0.009373527,-0.004388734,-0.00176642,-0.005940936,-0.00142496,0.014146949,0.011110291,0.012506293,-0.015053132,0.00154621,-0.006904207,-0.012250789,0.010415334,0.011593709,0.010284821,-0.011127004,-0.018239142,0.008855946,0.006409929,0.001679181,-0.000497804,-0.002069789,0.017097853,-0.012585086,0.010633934,0.003357209,-0.010911622,-0.017055089,0.001243301,-0.003506931,0.008438638,-0.005261882,-0.016178025,0.002953749,0.007614291,-0.010200856,0.003563397,0.00277129,-0.01407717,-0.014822843,-0.00930308,0.016303493,-0.011593219,0.000106697,0.011361429,-0.016672742,0.013798045,0.004974918,-0.002570598,-0.007184197,-0.008414482,0.002069867,0.002820975,-0.008423829,-0.008726244,-0.007812594,0.012647518,-0.015462772,-0.002871097,-0.015781075,0.016091075,-0.002359524,-0.003933515,0.006351319,-0.00780217,-0.015731478,0.004560104,0.002426026,-0.002936442,0.004390143,-0.000213301,0.00968807,-0.006927388,-0.016566977,-0.01171971,0.013815255,0.004029182,0.016811162,-0.007442017,0.013351106,0.007026054,-0.002155167,0.006630619,0.011523939,-0.015488374,-0.008132859,-0.012578423,0.003744897,-0.014423989,-0.013257306,0.009275379,-0.008084725,0.000790815,0.00823089,-0.004209594,0.008175046,0.00126146,-0.001612002,0.01247956,-0.013539308,-0.012094198,-0.00031534,0.003263169,-0.00929951,-0.002294456,-0.008572905,0.012915559,0.012457489,0.000288299,0.010754513,0.009535731,-0.014099546,0.010268686,-0.00367015,0.015188178,0.008262183,-0.004874445,0.0124165,-0.004555068,0.013587462,-0.010268303,-0.002151334,-0.001637302,0.003095364,-0.005634383,-0.001463493,-0.007379179,-0.008817621,0.003571994,0.000391352,-0.016308358,0.004141156,-0.011997525,0.010198327,-0.015277682,-0.014831711,-0.002064053,-0.005860088,0.002051983,-0.000854692,0.007043223,0.014351714,-0.001617044,0.0066528,0.003088255,0.006916609,-0.000609299,0.001419633,-0.013029879,-0.001789534,0.006203278,0.000668864,0.011059457,-0.007437985,0.003901213,0.008022069,0.009277356,0.003611989,-0.004538945,-0.003098735,0.008388712,-0.006069211,0.005717211,-0.004340034,-0.005982635,0.00650675,-0.011224669,-0.00814078,-0.002608509,-0.006461715,-0.016418943,0.005434507,-0.002969841,0.004676501,-0.00529998,0.005607641,0.002143095,0.006385697,-0.016906597,0.008379346,0.015956772,0.000190184,0.005594499,0.006972014,-0.013122255,0.012154736,-0.005953408,-0.001444381,-0.011199167,0.003496945,-0.001065821,0.006842005,0.007111275,0.015068425,0.010784728,-0.002970492,-0.01670885,0.01022807,-0.001927299,0.011941206,-0.011787705,0.000577561,-0.004937604,0.017069126,0.015585487,0.001744086,-0.013745423,-0.001129451,0.004505458,-0.009199915,0.003480867,-0.008416032,-0.004540002,0.003798037,0.015985923,0.005129753,-0.011588145,-0.017241823,-0.005792302,0.010591493,0.015333222,0.01181321,-0.011686044,0.003473426,-0.001150286,-0.016292933,-0.014533282,-0.001891731,0.009042736,0.002431707,-0.000508293,0.005419834,-0.007270171,-0.003671284,-0.014238432,-0.012201703,0.015915684,-0.009602143,0.004698589,-0.008716363,-0.008891499,-0.008830586,-0.009620342,0.015475,0.012552184,-0.002742219,0.007562368,-0.013174894,0.000916262,0.011694751,-0.011131861,-0.007212044,-0.002706309,-0.005653354,-0.007884004,-0.001791607,0.007935016,-0.009550839,-0.004022257,-0.010641316,-0.007542514,0.009367592,-0.008629842,-0.003245537,0.008449716,0.016174413,0.00494461,0.005577224,-0.013729545,0.000762197,0.015148959,0.015022033,-0.008031618,-0.009916028,0.011056735,0.012585522,0.006733701,-0.00988322,-0.003606635,0.013581332,0.016454853,-0.001847287,-0.013534409,0.000802868,0.001813715,0.013880309,-0.004746648,-0.001562731,-0.012379482,-0.01807134,0.009866183,0.010468587,-0.009056474,0.006125545,0.015052326,0.001619157,-0.0143772,-0.008543769,0.015479677,0.017018916,0.008260867,0.004930108,0.016613426,-0.005035432,-0.012784517,-0.014209757,-0.014631482,-0.017193563,0.008944695,-0.003151579,-0.002848573,0.006268324,0.006236438,-0.008913321,-0.011589173,-0.003630611,-0.015857872,0.014998427,-0.00790311,-0.017461484,-0.016561557,-0.006512521,-0.002246063,0.009409101,0.009046421,0.00095427,-0.011177176,-0.002184247,-0.001952135,0.016449388,-0.008491035,0.002569999,-0.002903768,-0.006248355,-0.016035503,-0.005036413,0.0156723,0.005119719,-0.005205918,-0.0074865,0.002201883,0.009769016,0.017480774,0.005907544,0.005797018,0.010255281,0.003877873,-0.015575099,-0.009115792,0.001192699,0.002626928,0.010926074,-0.012815546,0.008719504,0.001961979,0.009515045,-0.007483545,-0.0166086,-0.018030034,0.005995114,0.008861926,0.007481102,0.008799073,-0.01652878,0.016322115,0.004129263,0.007893245,-0.007231183,0.013753817,-0.00453259,0.001827762,0.006964319,0.001856307,-0.001330191,0.015382575,0.00856927,0.001947398,0.016609509,-0.009403,-0.011036945,0.01615675,-0.01301945,5.85E-05,0.013291749,-0.015449647,-0.007017056,-0.012639806,-0.00427598,0.007344487,-0.003332623,0.013238291,0.006366612,-0.017132409,0.00669383,-0.012499986,-0.007356674,0.001287755,-0.007155178,-0.006429908,0.012499804,0.009585258,0.007037444,-0.006239894,0.016318042,0.011551046,0.017415227,-0.014450443,-0.001937894,0.018139692,0.006235011,-0.007388919,-0.013587646,-0.016667133,-0.013127768,0.008396308,0.016645905,-0.002237692,-0.012904387,0.000736442,0.010452588,0.006107791,-0.006693459,-0.002681533,-0.013931136,0.01053068,0.001912717,0.005791845,-0.018374423,-0.013474124,-0.015161973,-0.00286243,-0.009526574,0.011285025,-0.005727429,0.003483563,-0.013748608,-0.001234278,0.009515189,0.009692343,-0.01730729,-0.016864454,-0.007952042,-0.011157423,-0.003849482,0.010306974,-0.001841945,-0.006622527,-0.003695187,0.011532736,-0.014430357,0.013047421,-0.015008039,-0.008924061,-0.000642835,-0.014999173,-0.000269529,0.015222308,-0.012219412,0.004269236,-0.007741361,-0.007364957,-0.002721228,0.002839981,0.007427428,-0.014132974,-0.004645884,0.010262088,-0.013475108,0.003617919,-0.006172038,-0.006402688,0.00246638,-0.010434013,-0.008279767,-0.016546322,0.001239034,0.010485993,-0.000196929,0.012950273,-0.000156666,-0.014620828,-0.004154074,0.012901919,-0.01158955,0.009077535,0.010388492,0.008930738,-0.006040151,-0.006383198,-0.007820113,0.00070829,0.003046785,0.000168012,0.010725514,0.004959854,-0.001293025,0.010504918,0.010864255,0.0177781,0.000525196,0.006080332,0.005763158,-0.010799853,0.00225996,0.014147054,-0.006814177,-0.009543167,-0.015020809,-0.018355876,-0.0042135,-0.000474921,-0.001520244,-0.00236156,0.004807463,0.002237259,0.010043465,-0.009585525,0.009804828,-0.014360926,0.000846055,0.01539546,0.013068872,0.002682552,-0.012031068,0.003584508,0.003224469,-0.007406458,0.005137478,0.016755978,-0.005177548,-0.01640267,-0.004734331,-0.001431191,-0.014998222,0.007840506,-0.011042543,0.01671122,-0.006129405,-0.01491483,0.003478003,-0.015575797,0.015099576,-0.006827709,0.016341668,-0.002301658,0.013561676,0.002915152,0.012290414,0.006464516,-0.006441494,-0.007605051,0.012348906,0.006028212,-0.006253449,-0.001985384,-0.001475452,-0.01093681,-0.014217889,-0.01698414,-0.017425578,0.015535105,0.006489149,0.008591789,0.016272597,0.002148988,-0.001555735,-0.007345787,0.014485552,0.009902728,-0.01545746,0.004199247,0.004677991,-0.00855438,-0.014375276,0.015328975,0.003321478,0.003502364,0.005903102,0.007230952,-0.015680932,-0.014860249,-0.000910666,-0.016073348,-0.002765036,-0.014363815,0.007651371,-0.014568128,0.007983423,-0.012562634,0.003975731,0.002222378,0.013698467,-0.006855737,0.002056553,0.009039409,-0.005773122,0.016182916,-0.012529556,0.006666197,-0.003456734,-0.007725277,-0.008054481,-0.001725882,0.010513461,-0.000699274,-0.003669215,-0.003010302,-0.006516011,-0.015295356,-0.00287643,-0.001785877,-0.016085567,-0.005347725,-0.012763714,0.013553548,0.010962813,0.007240688,-0.005096683,0.002655021,-0.008285146,0.008348149,-0.00134637,0.006381661,-0.001243924,-0.00350394,0.004464866,-0.012806024,0.000452252,-0.013849722,0.013126244,0.006621832,0.013518576,0.015494986,0.007405354,-0.010011392,-0.009251051,0.010068691,-0.001708698,-0.003412508,0.002094276,9.45E-05,-0.003834882,0.007954372,-0.000634812,-0.014054512,0.003819976,-0.002600349,0.00085655,-0.013743708,0.012451408,0.01078783,0.009272628,0.002114455,0.002272378,-0.005264196,-0.006505155,-0.010327824,0.005617362,0.012768208,-0.010194005,0.002831696,-0.005372013,-0.00712048,0.00306966,0.014955413,0.00356915,-0.00280673,0.016628373,0.001420849,0.005279381,0.014411305,-0.007870782,0.004716809,0.007372792,-0.001638509,0.012308774,0.011266475,0.006902361,-0.001338001,0.004280799,-0.013737956,0.017254978,0.014324022,-0.001052344,-0.00585808,0.015141919,-0.004417534,0.003321902,0.016896382,-0.004166158,0.00910986,0.002102032,-0.008073246,0.006797551,-0.009500609,0.005957425,0.005468937,0.00708293,-0.002363316,-0.007980729,0.009202849,0.011669906,0.015082927,0.011128501,0.001096802,-0.013154543,-0.008141198,0.017054392,-0.008041351,-0.004852085,-0.005516556,-0.002619894,-0.000622173,0.003510307,0.004664425,0.007363491,0.001627832,0.006440972,0.015760057,-0.015793314,0.012043172,-0.011021636,-0.005392783,-0.006891339,0.010344025,-0.016322132,-0.003442467,-0.004724346,0.003377167,-0.007070945,-0.01768758,0.009816471,0.001524366,-0.009095691,-0.009089901,-0.003514008,0.005770093,-0.002599142,-0.003301286,0.017162338,-0.00767659,0.004026069,-0.003028909,0.00706221,0.006648453,-0.011358238,0.010615652,-0.00316504,-0.004481847,-0.011561153,0.012765204,0.003786289,-0.011558655,0.000777325,-0.009136136,-0.00629644,0.00383151,-0.006762821,-0.009243887,-0.015304346,-0.009040953,-0.003121499,-0.016441831,0.002462079,0.009819262,0.014272561,-0.007957862,-0.004975118,0.016796608,0.014821886,-0.009464183,-0.00700617,-0.010218245,-0.006979284,0.016554642,-0.00718001,-0.013261435,-0.016707366,0.014818991,0.008569425,0.008344146,-0.008007476,0.000221952,-0.012751396,-0.013368784,-0.00482867,-0.007841342,-0.005009636,0.001742753,-0.004190843,-0.000189399,0.016034028,-0.008624829,-0.007119963,-0.001537051,0.001019204,0.003507074,-8.42E-05,0.006883787,-0.005590603,-0.007867154,0.005717798,0.000311278,-0.003819703,-0.005514949,0.006467855,0.002200893,0.003731791,-0.011709707,-0.000689017,0.00967921,-0.002906151,-0.005833747,-0.013354453,-0.005569006,0.001740805,-0.003401657,-0.007983906,0.001378511,0.006458616,-0.005162492,0.004019462,-0.012434047,-0.008823962,0.011739542,-0.010925558,0.009896295,-0.013207834,0.003939414,-0.00095513,-0.015693739,-0.014393772,0.001330459,-0.01571987,0.011592884,0.016672842,0.015341502,0.005523782,-0.012392242,0.004865078,0.008601895,0.009792409,-0.012142647,0.017453672,0.00763094,0.001567056,0.015975058,-0.002903205,-0.005707346,0.013560073,0.016581967,0.009948513,0.018394489,-0.002923265,0.005844477,-0.015271998,-0.01659573,-0.003247686,0.018195307,-0.004259042,-0.00813575,0.013620019,-0.012246634,0.010931121,0.01504375,-0.015750157,0.008346631,0.005372233,0.006574135,0.001457425,-0.015383128,-0.009161858,-0.003604607,0.00795009,-0.005065612,0.009516372,-0.016226986,-0.010397732,-0.004406899,0.013320347,0.002837446,0.011607979,0.005167241,0.012364311,0.016475433,0.007995168,0.016758649,0.005685684,-0.007910632,-0.001036648,-0.008475889,0.005057822,-0.00074069,-0.002360389,-0.005972987,-0.000137176,-0.009613966,-0.009017643,-0.011057231,-0.004608884,0.000164732,0.010816663,-0.009611131,0.016042776,-0.013315757,-0.010518397,-0.011070341,-0.010757854,-0.006396324,0.008980637,-0.012173633,0.016727803,0.004960921,-1.37E-05,0.010129235,0.006806617,0.001389183,-0.00111362,0.003145752,0.014566017,-0.002778273,-0.006893293,0.010304325,0.01394127,-0.005666713,0.011418875,-0.007399533,-0.014360124,-0.007175103,-0.004648495,-0.004239082,-0.012837968,0.000372991,0.001340757,-0.002506523,-0.006705062,0.006606905,-0.000870132,0.003217558,-0.008439375,-0.013549369,0.015184661,0.004120637,-0.015331549,0.015082412,0.008855529,-0.004999408,0.003233925,0.012095013,-0.012937917,-0.006791635,-0.013960985,-0.015780756,0.011166488,0.003942206,-0.010656822,-0.006460114,0.014685553,-0.002833134,-0.004102997,0.016164023,0.000311218,-0.011113063,0.018027721,0.006413149,0.001065341,0.005057731,0.003465127,-0.010327455,0.007634295,0.013841904,0.002981637,0.01061676,0.005052965,0.001403119,-0.006642643,0.004357182,-0.014121204,0.007892481,0.002464092,0.009651821,-0.015061177,-0.005001879,0.014369794,0.011328646,-0.007609991,0.002001009,-0.002195287,0.017005203,-0.010126218,-2.72E-05,-0.004235294,0.000348455,0.010061092,-0.018192492,-0.004669721,0.005287166,-0.016943097,0.00975554,0.013240103,-0.004085847,-0.001896015,-0.000167068,-0.009268681,-0.012027941,-0.007768088,0.005760955,-0.009701719,0.015619097,-0.011407376,-0.00343005,0.016990205,-0.005247014,0.002772566,0.004119951,-0.011021939,-0.01332961,-0.007795223,-0.002556863,0.002539523,-0.014826554,0.005224005,0.011489365,0.00747219,0.011889051,0.003577445,0.000814115,-0.001658923,-0.009629243,0.008434411,-0.012703804,-0.011290455,-0.010373498,0.011803575,0.003334358,-0.003562135,-0.003990599,0.011346675,-0.005364378,-0.000792458,0.008250631,0.011545887,0.004408257,0.00200618,-0.015752427,-0.001682584,-0.003152323,-0.002757783,-0.010839611,0.00443496,0.016503602,-0.010437053,-0.010592955,-0.011429129,-0.003019092,0.00133607,-0.004751271,0.003252383,0.008064157,0.007086221,-0.002981291,-0.00383664,-0.013088554,-0.008610787,-0.009021658,-0.002266571,0.002079076,-0.01481061,-0.003488279,-0.008578707,-0.015050069,0.01050962,-0.003990038,0.009355954,-0.006485771,-0.004949845,-0.017018499,-0.000750902,-0.002855185,-0.000550278,-0.002551562,-0.005705864,-0.008002471,-0.016158108,-0.017971661,-0.003289361,-0.007857226,-0.003857564,-0.00156211,0.010290456,0.016255397,0.004710637,0.008617782,-0.008937274,0.006800636,0.017134845,0.004249561,0.01544141,0.012492665,0.005499126,-0.006102313,0.007868559,0.008577251,0.006259718,-0.008655001,0.005495607,0.004376701,0.009075465,0.000278816,0.000211847,-0.008160061,-0.001679137,0.00268677,0.01688692,0.01401644,0.00219719,0.008243363,0.015808254,0.008571138,0.004376415,-0.007341984,-0.004525897,-0.006832331,-0.016302887,-0.001624653,-0.016855184,0.015972175,-0.002687488,-0.005898611,0.005791415,0.009341911,-0.012779325,-0.000885433,0.007795608,0.016754735,-0.011398655,0.013318008,0.014640724,0.005344513,-0.012154233,-0.011010995,0.00316224,-0.007448338,-0.003438474,-0.00759336,0.002846544,0.009074751,-0.013977048,-0.002142356,0.006049983,0.011848406,-0.002847402,0.014093213,0.004277743,0.006543058,0.003528025,-0.014154666,0.001156622,-0.014760473,-0.012640122,-0.009688421,0.010967635,0.012147307,-0.009534746,0.007784978,-0.00624409,-0.00155805,-0.013688342,-0.011205383,-0.001243068,0.004533831,-0.013645859,-0.007380839,0.010888429,0.009407174,-0.005709814,0.012298494,-0.016330527,-0.008991303,0.006514439,0.007245421,0.012696072,0.003623459,0.014872818,0.010099937,-0.014098082,-0.011716276,-0.012361492,-0.013246357,-0.005907025,-0.010235004,0.006498619,-0.0158865,0.005044937,0.008404125,0.007795432,-0.011051395,0.010327156,-0.013317426,0.004966443,-0.003509511,-0.006090777,0.007766265,0.009716313,-0.006533427,-0.01493978,-0.006269012,0.00385712,-0.014554102,-0.004758846,-0.01590578,-0.01161834,-0.004416607,0.014793307,-0.0096758,0.017952362,-0.011870466,0.007611203,0.00081942,0.010641116,-0.002148205,0.010341548,0.000211855,0.01118695,0.011132122,0.013045734,-0.000523896,0.014899285,-0.000288958,0.013668021,0.015648415,-0.003468318,-0.016333604,-0.011181492,0.013973567,-0.012081609,0.017167717,-0.007524177,-0.015822196,-0.00330485,0.00871251,-0.00203976,0.001717894,0.016502861,-0.014508062,0.009727404,-0.006307563,-0.005937271,-0.007583895,0.00341556,-0.003688106,0.007216541,0.01639604,-0.00211134,0.010112,-0.004305925,0.006772088,0.006950903,0.012343164,0.010002865,0.008066566,0.001412465,-0.012141755,-0.002167461,-0.008908177,0.001361267,0.016342811,-0.004472857,0.000813135,0.015732205,-0.006041797,-0.003442386,-0.011348632,-0.004935994,-0.014277867,-0.011131654,-0.004995716,0.002524937,0.002044693,0.01315307,-0.003750766,-0.016334198,0.002373879,-0.00728242,-0.005441894,-0.003626654,0.000303429,-0.015325456,0.005783682,0.013942554,0.005261059,0.013979533,0.004086249,0.001675271,0.001358166,-0.010260223,-0.006245068,0.009245954,0.000267763,-0.004764961,-0.004108002,-0.005108928,0.015497405,-0.001959455,0.005319182,0.003158772,0.015571699,0.004227787,0.000267866,0.016032588,-0.009085221,-0.008055111,-0.018174717,0.008007832,0.010257214,0.007662856,-0.013645344,0.002370753,-0.012304215,-0.007255638,0.009039762,-0.007694482,0.010151036,-0.001170166,-0.000291204,0.00639464,-0.013009256,0.01221894,0.004182119,-0.00052016,0.010546233,0.005343987,0.011512303,0.008963266,0.011714471,0.017612776,0.005004885,-0.004331628,-0.000368895,-0.004999725,-0.002986893,0.006022999,-0.005177595,-0.002172996,0.00258809,-0.002971371,-0.012918087,0.002532847,-0.009433129,0.004785109,-0.013823825,-0.004196675,0.000401523,0.009480588,-0.017062847,0.010681313,-0.014596283,0.009708256,-0.002763209,-0.016775664,-0.003920573,0.012318543,0.00426486,-0.001721708,0.002386842,-0.012157736,0.012021247,-0.01009823,-0.015434673,0.011907013,-0.000731122,-0.007086013,0.000574622,0.013578417,0.006807503,0.013772995,-0.002365401,0.006982318,-0.005610404,-0.000638386,-0.005982321,-0.011814607,-0.006999175,-0.00840409,-0.00676078,-0.004170461,-0.013695066,-0.011210684,-0.006793225,0.013491445,-0.006314491,0.006995211,-0.009505528,-0.001827276,0.010758805,0.012644996,-0.012896393,0.014998574,-0.012363041,-0.015238647,0.001631266,-0.008363752,0.007365367,0.014997895,0.0021915,0.013277626,-0.014252509,0.008669377,-0.006982243,0.001240979,0.002582184,-0.011995571,-0.002408147,0.010149242,-0.006455327,-0.012298879,0.007690488,0.002598089,0.006822059,0.005911368,-6.63E-05,-0.001295296,0.016298372,-0.00724325,-0.01185146,-0.003466548,0.003109832,0.001118028,0.011830094,0.008914339,0.010608597,0.010109205,0.012559934,-0.000589822,0.005260621,-0.017361311,0.000201685,0.001960766,-0.002521846,-0.009745869,0.015705466,0.001740882,0.005093976,-0.013202424,-0.017731704,0.009377904,0.004921361,0.000372145,-0.003290408,-0.011215085,0.014341855,0.000822343,0.001114112,-0.010228203,-0.005236099,0.013853611,0.006613745,-0.011098621,0.016128043,-0.005888136,-0.006181193,0.006360976,-0.008691594,0.01128791,0.014425639,0.016420934,0.013414331,-0.007101628,-0.013479554,0.007203321,0.00116522,-0.006206021,-0.002585817,-0.010664933,0.013161756,0.003986233,0.016276134,-0.000154879,-0.001913463,0.016195223,0.001715398,0.00757483,0.013510071,-0.012062212,-0.002730949,0.016305206,-0.00119402,-0.006951365,0.013688724,0.002919373,-0.003337125,-0.008623739,-0.010939122,-0.00676128,0.005609659,-0.015600259,-0.001555593,-0.012793103,-0.010641532,2.20E-05,0.007041981,0.001074905,-0.006248223,0.001297565,-0.011001611,-0.011415511,0.011789358,-0.008610536,-0.007422802,0.009263691,0.011046987,0.016535688,-0.008816166,-0.013807094,-0.017310085,0.013286552,-0.017871333,0.015589295,-0.000876351,0.002835817,-0.004216312,-0.002013752,0.0020136,0.003273325,0.004952925,0.014968718,-0.005103107,-0.016087018,-0.003771533,-0.016269026,0.003670387,0.011939338,0.009819653,0.006045657,0.015862307,0.006008527,-0.003825996,0.014155593,-0.005495386,-0.001573303,0.000977217,-0.012135013,0.007725172,-0.007902932,0.002330296,0.010250491,0.015460239,0.002588156,0.005940337,-0.015979484,-0.016672218,0.007629259,-0.004825211,-0.003507196,0.002981546,-0.007587532,0.005317138,0.011245726,0.001327966,0.001162295,-0.003946162,-0.004480319,0.001711113,0.014444276,0.000910322,-0.004058544,0.014024182,-0.01662124,0.00134987,0.006488073,0.000605129,0.001769817,-1.45E-05,0.015067042,-0.001793355,0.004440778,0.015578172,-0.012988949,0.001720908,-0.00996414,0.006978253,-0.006916135,0.013364271,0.007182866,0.01722102,-0.009186086,0.003675415,-0.007840846,0.003031898,-0.013913915,-0.005678678,-0.006133758,0.00594078,-0.001117753,-0.015190349,0.000493985,-0.008259556,-0.002858351,-0.012970327,0.007926645,0.016680527,0.003126901,-0.000474959,-0.003106092,0.006350363,-0.006788253,-0.003288615,-0.011072353,0.015366665,-0.017363168,0.00764004,0.009506629,-0.006916079,-0.003234207,0.007924948,-0.00386633,-0.001193683,0.017986497,0.001583532,0.000149361,0.004638064,-0.002549355,0.003615715,-0.01391022,0.009139628,-0.013954261,0.003550969,-0.006655238,-0.008367932,0.018085703,0.016899839,0.014949842,-0.009419923,-0.007703755,0.015925717,0.007240555,-0.009425311,-0.000588066,0.016843885,-0.006115724,-0.003708013,-0.008454576,-0.007074423,0.001911473,0.005575715,0.010821477,-0.004663378,0.008322878,-0.015483462,0.004387066,0.005268152,0.008027825,0.013376529,-0.002073417,0.00151129,-0.001932987,0.005416538,0.012160776,-0.0169796,0.005009775,-0.003134767,-0.001300644,-0.010427614,-0.007684036,0.01695802,0.005403512,0.003865498,0.013059764,0.009572007,-6.84E-05,0.008663976,-0.002445919,-0.009185641,0.008203929,0.009424707,-0.014617266,0.010579246,-0.011702153,0.00702052,1.55E-06,-0.003619584,-0.010801065,-0.011757231,0.000699045,0.007956868,-0.007511099,-0.015189828,-0.004827451,-0.003530822,-0.002449994,0.008860129,-0.004988535,0.013973619,0.009445848,0.002784739,-0.014181097,0.011258616,0.009785706,0.011578792,-0.006875176,-0.013927073,-0.006617673,0.015319577,-0.002338639,-0.013152966,0.006216292,-0.004821119,-0.003483336,0.015774038,-0.002811407,0.004512025,0.001402133,-0.012210176,-0.000311793,-0.017940857,-0.007096747,-0.007826906,0.003040874,0.01441102,-0.00512604,-0.010674947,-0.012156362,-0.007593545,0.016586684,-0.008753751,-0.009874854,0.012454224,-0.00748298,-0.003769981,0.010602054,0.008666642,0.013307113,-0.005310024,-0.004603967,-0.003783179,0.005323893,0.013696424,0.00566859,-0.002706742,0.01377808,0.009325038,-0.013162869,0.007189826,0.00754418,-0.012191541,-0.010678281,0.015591251,0.001179859,0.003003784,-0.005895502,0.009824483,0.012118466,0.017937236,-0.00888088,0.012974415,-0.000723052,-0.000708258,-0.00460475,0.018393626,-0.00642517,-0.015957832,0.012841041,0.005941164,-0.00714715,-0.011192478,-0.0086,0.016348846,0.008259716,-0.002627642,0.012901251,0.007969615,-0.004848358,-0.006751507,-0.013685763,-0.011983793,-0.014984375,0.004726388,0.005316719,-0.013684562,0.014100386,0.009117625,0.009929366,-0.011684463,-0.004956617,-0.015714213,0.013211351,0.009438667,-0.001558719,0.008409554,0.014255052,0.001423102,-0.012168337,0.008974372,-0.001413131,0.0175179,-0.013675958,0.006603086,0.014857674,-0.004584347,-0.002011815,-0.009647332,0.00096662,-0.016844181,0.007038377,-0.01669916,0.007487156,0.010666742,-0.016909204,-4.45E-05,0.012720827,0.012039164,0.007583823,0.002048849,0.010835848,-0.002354912,0.006733044,-0.017214352,-0.005377434,-0.00157446,-0.012894048,0.005512042,0.01823698,0.010662688,0.005013932,0.012394325,-0.005156495,-0.003573061,0.00058472,-0.007373714,0.005309141,-0.008058698,-0.014796755,-0.004343018,-0.002604575,-0.006597837,-0.013419773,0.006362933,-0.002989994,-0.008100752,0.000663208,-0.007919396,0.013160721,0.017049761,0.011203174,0.006021727,0.016678225,-0.006255087,-0.004943744,-0.005898642,-0.004638117,-0.013138135,-0.01313126,-0.016215349,-0.001637037,-0.00662452,-0.00664053,-0.009257915,-0.010291727,0.011403422,0.011848463,0.010868087,0.011047189,-0.01313486,0.005219933,0.002504476,-0.01677066,-0.010774423,-0.003635687,-0.007950362,-0.002806005,0.010801497,-0.008642281,-0.013192875,0.014382256,0.005554849,-0.01619485,0.002551078,0.001194598,-0.014671162,-0.017977286,0.014576127,0.00057545,-0.013972213,-0.001329275,-0.013410034,-0.005752321,0.006153754,0.000455588,-0.009429898,0.009104669,-0.00104416,0.005056885,0.007211073,0.008475526,-0.003046831,-0.00898239,-0.008929175,-0.013773738,0.00853409,0.007928597,-0.006027734,-0.000495826,0.01479898,-0.002622566,-0.0071348,0.003508143,-0.017622832,-0.016915718,-0.00166854,0.005410946,0.000219632,0.011776694,-0.011097365,-0.008045257,-0.007247839,0.00814522,-0.010557957,-0.007853047,-0.006639171,0.001967325,-0.007316749,0.013333289,-0.012760934,0.009118595,-0.012401941,0.003397104,-0.000309401,-0.004856339,-0.001591513,-0.006505084,0.00767335,0.001677019,-0.011332292,-0.013023712,-0.009993914,-0.010708793,-0.004979468,-0.005206954,0.009376424,0.01709352,-0.011168532,0.002038915,-0.017829195,-0.009081907,0.001050287,-0.000166908,-0.008887054,0.016842557,-0.007548663,-0.00976836,0.017997725,-0.015714545,-0.004404157,0.00364022,-0.009727485,0.015553474,-0.001508876,-0.00687839,-0.01040851,0.011871588,-0.00624432,-0.010187365,0.018398132,-0.009280942,0.010578389,-0.016657542,0.000250288,-0.000831869,-0.004504948,-0.007519899,-0.013624573,-0.01021666,-0.003344532,0.003693898,-0.010159987,-0.001606361,0.011257605,-0.009430309,-0.014242983,-0.002068137,0.001181116,0.015844794,0.004334777,-0.002351429,0.016783997,-0.000637237,0.014989514,0.000556528,0.012379976,0.014242449,-0.016622601,-0.000213165,-0.015090398,-0.000696901,-0.011873941,0.010980007,0.00716616,0.00035131,0.004297106,-0.015851464,0.00738445,0.017281005,-0.004400702,0.000544987,0.013076751,-0.01753773,0.005918338,0.00666253,0.007770659,0.010845782,-0.004138887,0.007247943,-0.005314397,0.00593025,-0.005735315,0.004882209,-0.013690928,-0.014639647,-0.013126023,0.01803692,-0.013886382,-0.004132056,0.018819543,-0.003442394,0.007749563,0.01862077,-0.010416395,0.004984248,-0.013138491,0.00093473,0.002504846,0.001868345,0.015081174,-0.008389725,0.000612844,-0.00240453,0.002021724,-0.004970411,0.008188597,0.009819922,0.01417624,0.001880347,-0.002818376,-0.010709865,0.016221764,0.00842328,0.013640619,-0.013666729,-0.00815723,0.014507683,-0.015833665,0.003894538,-0.010709828,0.000926314,0.008267272,0.013164597,-0.009278152,0.000172327,0.009608749,-0.014756491,0.015490916,-0.004418823,-0.003852132,0.012880788,0.009610645,-0.01312092,0.007251743,0.010247563,0.002760454,-0.005481974,0.005067142,-0.001515105,-0.004859179,-0.006110024,0.010982825,0.012362919,-0.001491737,-0.003884562,-0.00486118,-0.013135545,0.004810263,-0.00557088,-0.006681851,0.008866285,-0.015403909,-0.012348527,0.01617401,-0.014289526,-0.010564219,0.007651115,-0.013150951,0.009150511,0.001639981,0.016038425,-0.015897967,-0.011975497,0.009942811,0.013904465,-0.000716795,-0.011147483,0.014635465,-0.009041414,-0.000451334,-0.012108848,0.006276981,-0.002555679,0.013655689,0.01700717,-0.015503512,-0.01319801,0.001473356,-0.012218748,-0.004710058,0.011739808,0.001527638,-0.002670037,-0.00790202,-0.00142462,-0.011736073,0.00312404,7.67E-05,-0.002288165,0.008374149,-0.016314292,-0.01610663,0.011653177,0.015627308,-0.016186934,0.0007364,-0.002952727,-0.013657326,-0.013466886,0.00114745,-0.016572094,0.000226884,-0.004073632,-0.012417602,-0.00987511,0.001865646,0.012624713,-0.016719934,-0.004612312,0.012117543,0.01501843,-0.005406767,-0.001390667,0.016347487,0.000662648,-0.007036321,0.012196794,0.004769145,0.008453521,0.005248956,-0.002139406,0.01068773,0.002118856,-0.001971574,0.004213985,0.005317907,-0.009881213,0.009595366,-0.01537681,0.001108161,0.010538776,0.008323894,0.005642907,0.008816766,-0.003319188,-0.005792712,0.008707403,-0.001921135,-0.012230225,0.007890382,0.002909091,-0.013727528,-0.010560995,0.007432998,-0.002764411,-0.015136862,-0.006762406,0.000860894,0.012298007,-0.00338081,-0.010244569,-0.010744346,-0.003288233,-0.005342736,0.012043956,-0.017539015,0.00565191,0.009553064,0.0082725,-0.001332509,-0.015364556,-0.00904431,-0.001740264,0.015569449,0.006083318,-0.001438353,0.005514288,0.003405343,0.014710161,-0.005720962,0.000546077,-0.00195129,-0.010016412,-0.007958332,-0.005822329,-0.011425016,0.012958402,0.013302787,0.004164099,0.00049936,0.008576984,0.003357083,0.002927205,-0.01454374,-0.010826516,-0.013826303,0.006843022,0.007328142,-0.005727942,0.002586664,-0.001471256,0.012801209,0.005004155,-0.001543674,0.012714861,0.004677544,-0.015532457,0.01148239,-0.012992748,0.014562514,0.012926913,-0.008589319,0.016745094,-0.008499986,-0.004959642,0.013601365,-0.007410592,0.008110148,0.009486709,-0.010126218,0.013769585,-0.003979016,0.016422201,-0.005226261,-0.010770194,0.004009932,0.016606743,-0.016165616,-0.000353709,-0.010802832,0.013485746,-0.0038926,0.008640715,0.015423038,0.001022542,-0.011430138,0.001987194,0.010431641,-0.01306153,-0.009644887,-0.015039937,0.016554551,0.00071258,-0.002204751,-0.006865315,0.012051673,0.010921759,-0.004188767,0.011606935,0.015458008,-0.003239991,0.005230813,-0.014503461,-0.000218495,0.011147408,0.005595588,-0.005392099,0.017314838,-0.00403371,0.016139586,-0.006248301,-0.005228401,-0.001169645,-0.011664096,0.013307323,0.002291211,-0.00809149,0.012947306,-0.01628052,-0.016623927,-0.004164304,0.009045251,0.010461602,0.010295589,0.003091805,-0.005796354,0.01724155,-0.008208405,-0.004514975,-2.65E-05,-0.005277139,-0.002669022,0.002061928,-0.001776629,-0.001219611,-0.006240485,-0.014899414,-0.012317278,-0.017792482,0.000188175,0.013718587,-0.006471172,0.016823111,-0.005401067,-0.010617952,-0.006202773,0.005527682,-0.00223032,-0.006123036,0.001056591,0.01496068,-0.015069404,-0.006616213,0.005905242,-0.012319165,0.004546279,-0.000921951,-0.002952148,0.005703137,0.008814166,-0.002538776,0.01397342,-0.011756534,-0.011687079,-0.003990784,-0.002838311,-0.004557416,0.01703056,-0.016918492,-0.002599291,-0.009023183,-0.00433553,-0.008398976,-0.014048121,-0.014127649,-0.016047562,0.004687254,-0.009887749,-0.002428497,0.004691435,0.007046558,0.005460703,-0.010307246,-0.011089451,-0.005615894,0.00328546,-0.010434053,-0.000341419,0.002527241,0.009502425,0.001359749,0.01598561,0.011240806,-0.004293629,0.00925679,0.002800539,0.004237541,0.01109669,0.000566949,-0.013230579,0.006511048,-0.010405189,0.004244627,0.015416949,-0.008353179,0.005699341,0.014687141,-0.004506001,-0.00645732,-0.010376919,0.003477781,0.001791789,0.003488384,-0.00255739,-0.010202927,8.00E-05,-0.006710677,-0.01181513,0.017031336,-0.00739228,-0.011319052,-0.006020102,-0.006803696,-0.002329638,0.012846211,-0.007996752,0.003551154,0.009043031,-0.001914953,0.005157586,-0.013857146,-0.006427666,-0.005912871,0.01541657,0.005816591,0.003576154,0.005422736,-0.009752037,-0.000677355,0.007921857,0.008718168,0.009004495,0.009489276,0.001140435,0.0129943,0.005594518,-0.006624815,0.001398283,0.012458687,0.003810009,0.013401942,0.008245369,0.000376769,0.004016859,0.002325618,-0.008103,0.007104235,-0.00960043,-0.005567327,0.012307727,0.004028404,0.004922221,-0.01619835,-0.013022031,-0.008433414,7.35E-06,0.008105938,-0.013064733,0.001538495,0.007050568,0.014748538,0.012730997,0.002176342,-0.007647448,-0.009376483,0.007205528,0.0162324,-0.0031523,0.010267656,0.006502179,-0.001810938,0.010817244,0.011796027,-0.000913748,-0.000725602,0.00609516,0.004650648,0.0018176,0.009083052,-0.003446237,0.013729911,0.004264605,0.00499208,0.005770264,0.014465996,-0.009313983,0.007433819,0.014512613,-0.005792646,-0.004892449,-0.00372147,-0.004312871,0.005364929,-0.001636628,-0.004495778,-0.009565976,-0.002255598,0.010833642,-0.012801075,-0.009679822,0.003557357,0.003264959,0.006903802,-0.001131252,0.009177139,-0.013233935,-0.008759565,-0.015162837,-0.010450892,-0.005877541,-0.013432412,-0.005143554,-0.003118794,-0.006224242,-0.008517605,-0.003476189,-0.013760801,-0.00363175,0.004533083,0.009318824,-0.012599291,-0.012961001,0.010776274,0.014992211,-0.001388957,0.005735576,0.005198901,0.014769413,0.014715309,-0.012400211,-0.010207221,-0.006542767,0.014265806,0.007728078,-0.009557775,-0.006443024,-0.00241005,0.0022667,-0.010592149,-0.016424363,0.006226253,-0.00556696,0.010934811,0.012685978,-0.0145594,-0.009559616,0.008409316,0.002188594,0.002371068,0.001346409,-0.003671881,-0.011499573,0.018292615,-0.004301323,-0.008277338,-0.003681659,-0.010645703,-0.009052572,0.00338644,-0.009298546,-0.000285149,-0.004999583,-0.01537116,0.004172591,0.00780257,-0.000834075,-0.010859662,0.000460335,-0.012514933,-0.008643637,-0.016435534,0.009689292,-0.014590789,-0.005040347,-0.006159707,-0.015787413,-0.000808204,-0.007819366,-0.015474309,-0.009322153,-0.006520492,0.016230294,0.005501152,-0.010081873,0.011891007,0.00116343,-0.002825224,-0.001333793,0.003873532,0.00034361,-0.009366517,0.00265115,0.000261126,0.015228143,0.001635215,0.010547212,0.005748041,0.004460078,0.014327067,-0.008021934,0.013724475,0.011343624,-0.009456587,0.012647109,0.009197135,0.012575096,0.018634485,-0.01069815,-0.010505684,-0.006846148,-0.008693921,-0.00456547,-0.009373042,-0.014342128,0.001545608,-0.01335376,-0.001241306,-0.005133434,0.017991398,-0.011246693,-0.004784224,0.007211464,-0.014727765,-0.01100041,-0.001533952,-0.012554924,0.014388831,-0.003627356,0.004515581,-0.006637126,0.009132496,-0.003553821,0.001988936,0.005987832,-0.012022081,0.002846255,0.012679776,0.013570201,-0.008965117,-0.012482743,-0.017756194,-0.000615013,0.007181946,0.011307912,-0.002753216,-0.016291616,0.000191981,-0.011550603,0.003257223,0.017135374,-0.010587721,-0.010102135,-0.013537303,0.011122631,0.010919158,0.003243796,-0.003680761,-0.01568058,-0.012814192,-0.015564483,0.015202701,-0.00281746,0.001609897,-0.004517179,-0.007119893,0.005345609,-0.002152789,-0.011669194,0.000282891,-0.015129399,0.003674815,-0.002230151,0.011485209,-0.000917246,-0.016544089,-0.012304977,0.004172142,0.008108728,-0.002018395,0.002860269,0.00518703,-0.006496847,-0.01162244,-0.012469143,-0.012315323,0.012619819,0.005303124,-0.01627775,0.005362273,0.003768456,0.01324238,0.002673877,-0.004447212,0.013517813,0.003626526,-0.008333992,0.016035909,0.004681613,0.00451462,-0.012924115,0.015149813,-0.009010998,-0.013930146,-0.005079786,0.009485401,0.013851294,-0.008396535,0.002531727,0.016299138,0.002522854,0.00966048,0.007531562,-0.007100792,0.009585002,-0.001571084,-0.010194558,-0.004625356,0.015059572,0.010080986,0.004093761,0.013740642,-0.016888646,0.002514161,0.016237373,0.015140802,-0.005607134,0.009625613,0.003056019,0.003344905,0.012012203,-0.006185114,-0.001231722,-0.006661017,0.006206365,-0.011865269,-0.001963372,-0.000370712,0.001704032,0.007147981,0.005327913,0.001837857,-0.013475551,0.009093367,0.011910906,-0.004162531,0.003007092,-0.002245805,0.013482888,-0.015305006,0.001801101,0.009951193,-0.005012428,-0.003354641,0.015885184,-0.012911485,0.016139958,0.015674872,0.000954084,0.000176295,0.01479344,0.015991159,-0.014716029,0.004063778,0.011834769,0.005132099,-0.008147793,-0.001001194,-2.68E-06,-0.012852825,0.006643875,-0.005487465,-0.0067846,0.0003255,0.000172529,0.009324743,-0.005147447,-0.000673713,-0.002913495,-0.004127064,-0.01044052,0.014269074,0.002842474,-0.005732843,0.014166907,-0.001220203,-0.011460346,-0.002596392,0.00334927,-0.011955089,-0.002546692,0.013161789,-0.000362147,0.017797135,0.016090402,-0.01448648,0.009007099,0.001272963,0.008683111,0.002124323,-0.009354716,-0.015414787,-0.010839929,-0.013630374,0.002295877,-0.015412139,-0.015736705,0.006697045,0.018121708,-0.001279668,-0.002324528,-0.011692146,-0.008915989,0.006913574,0.017970894,-0.01584965,0.004840326,-0.011527987,-0.010721341,-0.000126694,0.009084954,-0.004775805,0.006621153,0.014848481,0.014898152,0.010338788,0.007843042,-0.008048039,-0.008878124,0.015940953,-0.009357692,0.015654566,0.015273957,-0.005867584,0.002539386,-0.001861787,-0.0043007,0.002120095,0.017310973,0.01325833,0.000880402,-0.003367587,-0.0023066,-0.006147158,-0.003299889,0.014999636,0.005502445,0.01755532,0.008710788,0.003610793,-0.00086102,-0.017188488,0.002623144,0.001351322,-0.000619048,0.004189415,0.009288444,-0.017417978,0.010199841,0.007805254,-0.014239604,0.000758178,0.001881087,-0.016093232,0.014335221,0.001618398,0.015075848,-0.002911437,-0.003797727,-0.013388257,-0.001684951,0.007931775,-0.005392279,-0.011037891,0.013950152,-0.011104755,0.00284824,0.014665633,0.001805066,0.001629814,0.00629623,0.011834431,0.005220657,0.0004601,0.00417795,-0.009232285,-0.006228157,-0.001087091,-0.011547006,0.006228866,0.011181031,0.005146936,0.012934763,-0.00753724,-0.01574019,0.005591668,0.012338677,-0.012722936,0.003828163,-0.007705426,0.001710952,0.001476554,0.015031873,-0.009554253,0.007041253,-0.009003826,0.001811271,0.00814719,-0.01761604,-0.009814789,0.006313438,-0.001985943,-0.000855728,0.006342802,-0.009706983,-0.002196274,0.008122746,-0.013251496,-0.016012784,0.016168563,-0.003268796,0.015117173,0.015834484,0.001225773,-0.014978428,0.019120825,0.008197653,-0.004911115,0.006260808,-0.009481725,-0.013811253,-0.00762839,-0.01236776,-0.014470394,0.01261842,0.015125738,0.011272301,-0.003335653,-0.011981306,-0.016678173,0.003458155,0.006935261,0.008864922,-0.004877908,-0.007268041,0.013698426,0.012453958,0.005202401,-0.00046787,0.004270788,-0.003692506,-0.003260788,-0.009886468,-0.000427141,0.012563508,0.012896346,-0.008418135,0.007844594,-0.013453892,-0.010812938,-0.010217464,0.001963475,0.01487701,0.008756065,0.012986945,-0.01786399,0.007806894,0.009842086,-0.004107296,-0.008713109,-0.005701759,0.007943274,0.016455507,0.016235227,-0.013377057,0.013585394,-0.01704992,0.008208983,-0.004361063,-0.00898504,0.012898079,0.001166805,0.011789366,0.012241224,0.006551046,0.017118305,0.010928602,0.000391593,-0.01381202,0.007689105,-0.006085823,0.013392608,-0.013366208,0.012692056,-0.015906997,0.011977492,0.006464972,0.003902687,-0.007595482,-0.008481938,-0.017019361,0.006965612,-0.002785688,0.002321255,0.014131546,0.005834702,0.0043217,-0.001098694,-0.01677762,-0.00110674,-0.004176052,-0.005146775,0.008586852,0.004241038,0.014534674,0.005397316,0.004786727,-0.00725981,0.009305009,0.005022552,-0.005640455,-0.016920261,-0.010635367,-0.006682493,0.003267876,-0.007643072,-0.005085243,0.012328824,0.009265005,-0.011702746,0.01719727,0.003880705,0.003817797,0.015570567,0.006714736,-0.003568149,-0.007773413,-0.005928369,-0.005302058,-0.009861439,-0.009207521,-0.000751374,0.003389029,-0.007977441,-0.004282428,0.003475841,-0.00572424,0.007213904,0.00177659,-0.004292687,-0.006769437,0.002658662,0.000294344,0.01651063,-0.003539994,-0.006405002,-0.002628197,-7.96E-06,-0.015116847,-0.006537337,0.015517609,-0.012012025,-0.00237142,0.004536241,-0.011204109,0.005141658,0.004100912,0.006654095,0.009050281,0.006328008,-0.012630537,-0.004284057,0.016510896,-0.017449394,-0.005026204,0.007819048,-0.006671145,-0.001666638,0.012378993,0.009749499,-0.001043755,0.013274941,0.004022569,0.006323407,0.009038577,-0.01688159,0.015718393,-0.006730442,0.007257578,0.014160193,-0.006407269,0.015158195,-0.001970456,0.007471586,0.012032686,-0.003353968,0.00850204,0.00682557,0.008422671,0.013428752,0.012175459,0.001952243,0.0098159,0.004381771,-0.013425306,0.00328642,-0.007401894,-0.001746492,0.003218376,-0.002260395,0.003934609,0.011862633,-0.017449865,-0.0007456,0.014205812,0.001344922,0.001418736,-0.006591931,0.002674954,0.008349553,-0.007083469,0.004985451,-0.002528926,0.006222818,0.015394886,0.012488245,-0.014830318,0.002946611,-0.001783908,-0.009208167,0.005360161,-0.006940627,0.008360942,-0.005291385,-0.003639401,0.010018988,-0.006713352,0.007116529,0.013044367,0.006766615,-0.004551811,0.006573487,0.012141762,-0.009336263,0.004798094,-0.01776845,-0.009270874,0.011916369,0.015956067,-0.004610195,0.014147254,-0.010030911,-0.002780121,0.000155874,0.01185101,-0.001099043,0.004826027,-0.012896561,0.010043184,0.009927483,-0.005812115,0.004086461,0.018874234,0.002396033,0.004104655,-0.005518631,0.016800268,0.005317874,0.016775483,0.009488122,-0.003216457,-0.006556089,-0.003446332,0.014750663,-0.012113555,-0.008715896,-0.006107869,0.013633261,0.003421672,0.006656087,-0.013993181,0.009982062,-0.002415981,0.008810255,0.006973872,-0.013646673,-0.008488818,-0.003611414,0.009412113,0.011189841,-0.005421618,0.005517649,0.013082879,-0.007981858,-0.00187891,0.009545873,0.004082509,-0.010800213,0.003397964,-0.01606197,-0.013673238,-0.01370249,-0.01460251,-0.002935405,-0.000636403,-0.016079035,-0.000982972,-0.005510243,0.006158914,-0.004007323,0.004933113,-0.010385203,0.007396762,-0.007140516,0.000140346,-0.014564596,-0.002772462,-0.013794228,0.014300981,-0.010028278,-0.010022692,0.011681431,-0.013430403,-0.016015172,-0.001406573,-0.016209709,-0.004142178,-0.000239746,-0.000438821,-0.009325063,-0.017126057,-0.011877129,-0.012893375,0.016111776,0.00869445,-0.00290537,0.005142315,-0.000329101,-0.013715803,0.003179687,0.006574604,0.010875332,0.01395522,-0.005040237,-0.01117358,0.005998284,-0.001570226,0.012077679,0.015123086,-0.00291332,-0.000180735,-0.012771173,0.012860533,0.011384978,0.015303182,-0.004105983,0.010157788,-0.008992977,0.015923671,0.006068632,-0.002003693,0.010096581,0.001965605,0.008393596,0.004575391,0.004151817,0.007569522,-0.003613861,-0.009725095,-0.008357598,-0.005499629,-0.002990263,0.013656823,-0.005291663,0.008026138,0.012824112,0.00550732,-0.012993852,-0.00267656,-0.000860891,-0.014645366,-0.000689379,0.013482415,0.010934324,-0.015533679,0.014049795,0.011989716,-0.006652658,0.010200909,-0.017672744,-0.005288612,0.002889951,0.017025398,-0.009790182,-0.01698418,0.001739536,-0.010483699,-0.009672967,-0.005284443,0.009685218,0.017365787,-0.008766838,0.013883334,-0.0102529,-0.010711612,-0.008754878,0.014782458,0.016184887,-0.007286657,-0.003766415,-0.007184804,0.015960492,0.016706584,-0.011733262,-0.009314953,-0.008497073,0.000485239,0.002517196,-0.005885183,-0.006772564,0.000185857,-0.003543803,-0.006778113,0.012326811,-0.001059253,0.016436547,0.006487453,0.01566967,0.006774878,-0.002788441,-0.014406485,-0.014783834,0.006272748,0.009934396,0.013203152,0.009976245,-0.005698793,-0.007271517,0.007824567,0.008232363,-0.00312294,0.010737757,0.008231138,-0.012117229,-0.010776717,-0.005103338,0.011339203,0.001287919,-0.016820725,-0.004820423,-0.00917908,0.014158868,-0.015848177,-0.004148396,0.005626553,0.001802979,0.005827348,0.018778177,-0.015961956,-0.001306382,0.007984086,0.010502158,-0.002391241,0.015256533,-0.010904434,0.000230391,0.016124805,-0.015221648,0.007130452,0.00453642,-0.010060406,0.0092097,0.017563839,0.008167102,-0.005960392,-0.011984129,-0.013902189,-0.012511976,0.003912132,-0.005614341,-0.005356957,-0.014760012,-0.003248273,-0.009688359,0.002533047,-0.017356856,0.004115887,-0.010384565,-0.003241584,0.016743608,0.010281271,-0.006460219,-0.001405645,-0.012523368,-0.002335668,-0.003192384,0.011431108,0.009265181,0.01498913,0.007253583,0.009779396,0.011258219,0.008599405,-0.006786828,0.011223857,0.005784634,-0.00424554,-0.010940382,-0.004942241,-0.003556193,-0.015453457,-0.016863102,-0.003411772,-0.000884017,0.003140163,-0.012672388,0.014635543,-0.00433272,0.003366433,0.008980062,0.011197359,-0.014430091,-0.006731889,-0.0154758,0.016547056,-0.016755344,0.000638971,-0.009306408,-0.007315738,-0.009449442,-0.012746518,0.010181202,0.011676672,0.001552694,-0.01473864,0.003704855,0.013956235,0.008228727,-0.002701386,0.010813355,0.007540066,-0.0001899,-0.016399061,-0.002489456,0.005027007,-0.008562316,0.001382348,-0.015623199,0.00249142,-0.009026815,-0.004718192,-0.006072016,-0.013333708,0.01641931,-0.011864544,-0.008324529,0.012815498,0.013769141,0.005606982,0.008342717,-0.013335269,-0.015241214,-0.011148578,-0.012576506,0.011253064,0.01743523,0.014928949,-0.008338971,0.015847592,0.000363886,-0.015083544,-0.008142801,-0.013656877,0.015348613,0.012637863,0.014247264,0.008745469,-0.01040673,-0.009239988,0.001214473,-0.007185224,-0.008618198,-0.002859899,0.004905445,-0.008936522,-0.01454905,0.014826466,0.015813807,-0.002176037,-0.000533688,-0.003771203,0.002830098,-0.002700604,0.00754059,-0.0067392,-0.011781543,-0.010865887,-0.005758735,0.003103054,-0.016045094,-0.01283269,0.003631521,-0.006640667,0.007611338,-0.010565992,-0.012421916,-0.002742526,-0.007473082,-0.007158298,-0.013597807,-0.000234621,-0.005023402,-0.001696437,-0.012188036,-0.001352986,-0.004219738,0.007967763,-0.003822038,-0.003821768,-0.01548633,-0.010140388,0.002964619,0.002370195,0.010850931,-0.016575433,-0.007966769,0.012958006,-0.010863606,0.005989253,-0.009587612,0.016899925,0.012296588,-0.005432273,-0.00991785,0.016798804,-0.006475958,-0.008875147,-0.007510006,-0.01297415,-0.011971699,0.00212395,0.002845432,-0.012226077,-0.009353913,-0.009521841,0.004390922,0.013120738,-0.013633688,-0.010244826,-0.013288803,0.01572008,-0.000554858,0.005681285,-0.013852188,0.014191513,0.011902758,0.009760725,0.006707323,0.008251962,0.017006863,0.003182532,0.002928014,0.01372154,-0.010160328,-0.001201264,-0.009297276,0.013732969,0.01162965,-0.009390851,-0.014843735,0.007540287,0.00091613,0.005923286,0.000691536,0.004288945,0.001515846,0.004906384,-0.003644416,-0.003275486,0.013064126,-0.016619124,0.003296765,0.007358117,-0.008616396,-0.014235647,-0.001821634,-0.016044136,0.000558684,0.013562132,0.016657256,-0.010159735,-0.008104324,0.003066253,0.00603203,0.005009039,0.011310233,-0.009294025,-0.000517216,-0.004199015,0.01120845,0.001373082,-0.005025487,0.002756583,-0.012062233,-0.008040988,-0.015879767,0.007039289,-0.004801801,0.012351586,0.015985282,-0.012495192,0.014830127,-0.015167839,-0.002193278,0.014257998,0.003452348,0.008524346,0.000736324,-0.008427198,-0.003221163,-0.00261821,0.013599025,-0.011097262,0.00512341,-0.01342708,0.01564488,0.007752779,-0.010648184,0.00098894,0.016302878,0.000891807,0.010266621,0.015925324,0.009414551,-0.006389031,0.00200689,0.015519405,-0.006066759,-0.015950799,-0.014615061,-0.010955093,0.003162006,-0.011613403,-0.007554395,-0.015024985,0.000454307,-0.003972709,-0.013891367,0.001211596,-0.003748588,-0.003235129,-0.002548335,0.007720148,-0.015020167,-0.01405819,-0.007175024,-0.00051347,-0.012576747,-0.002850458,-0.00479393,-0.008476923,0.005266673,0.011966611,0.000575892,0.01508473,-0.012149104,0.015548834,-0.003499552,-0.00386778,0.010235257,-0.01810538,-6.09E-05,-0.015356961,-0.008052649,-0.001099101,0.012148627,-0.012512086,0.010932446,-0.013130153,0.008325329,0.00239463,0.006897512,0.008054102,-0.01292529,0.006195184,0.010811134,0.003340768,-0.009098026,0.003932258,0.001068811,0.005895954,-0.013868508,-0.004485698,0.008112934,-0.005218827,0.001111292,0.016576024,-0.00566212,0.013008578,-0.008585181,-0.011222389,0.004577848,0.018003706,-0.013012534,0.00257648,-0.014063442,-0.011431952,-0.002546983,0.015052639,0.006059487,-0.002089532,0.012567425,-0.010032907,-0.001408364,0.000451186,0.01060149,-0.005460757,-0.004003273,-0.005254238,-0.004244349,0.012785706,-0.007776805,-0.014465281,0.011376433,0.005359664,0.015878245,0.006275537,-0.009819706,0.016803954,-0.001025161,-0.006867707,0.002755018,-0.014439506,0.001724893,-0.003350487,0.013636095,-0.008180996,-0.003183219,0.012030409,-0.00722932,0.004837898,0.008588924,0.012700433,0.006531058,0.012077041,-0.012699432,-0.002310894,0.015389324,0.013986064,0.012902036,0.011931946,0.001295259,-0.011755618,-0.006496867,-0.012345034,0.001354998,0.009073509,0.011287334,-0.00242076,0.011749565,-0.010475273,-0.004350655,0.01378682,-0.01777603,0.008228092,-0.008902507,0.013253346,-0.01672292,-0.009695922,-3.93E-05,0.005449086,-0.002836829,0.006115893,-0.013170957,0.001783987,0.002217913,0.010770604,0.013176991,0.012819177,-0.01097374,-0.01093994,0.002639665,-0.013360227,0.013450035,-0.012093262,0.01137245,0.001028809,-0.007543033,0.006296685,0.000440071,-0.011285145,0.011950789,-0.015364817,-0.008902696,0.014863689,0.009570454,-0.016601859,0.013876477,0.01625417,0.013137901,0.001657956,0.004993153,-0.001336647,-0.010634005,0.014379933,-0.013345845,0.016107902,-0.004933757,0.007278493,-0.006484213,-0.011558502,-0.011122156,-0.004333635,0.007397216,0.013990769,0.00344832,0.012317108,0.013079815,0.001509425,-0.0146396,-0.01641614,-0.006094351,-0.000600707,0.003281325,-0.006350964,0.002029794,0.00697309,0.006436728,0.000776197,-0.000446506,0.008348704,0.015205435,-0.006546895,0.007036742,0.003829041,-0.002946525,-0.010561121,0.011175006,0.001529,-0.004865759,-0.015486495,0.008704973,-0.008073398,-0.002303579,-0.009456242,0.004004789,-0.001879899,-0.015355264,-0.010976164,-0.010327035,-0.015607219,-0.012330925,-0.014283586,-0.002464707,0.004490346,0.009719207,-0.01455003,-0.001090223,0.014984347,0.011507991,0.016780827,0.016857095,-0.005150851,-0.006391022,0.002373725,-0.016875904,0.008445576,0.006815104,0.010003757,0.000930902,0.007872751,0.015393613,-0.014185869,0.004060569,0.017130299,0.016927093,-0.013650443,0.015085599,0.000222272,0.004285554,0.008350064,-0.013081651,-0.00502006,-0.004027049,0.008920754,-0.006871072,-0.003572367,-0.01264312,0.003830405,0.011548844,0.000641207,0.016153684,-0.014533173,-0.016018765,0.003709118,-0.014384037,0.008906753,-0.002947151,-0.012751749,-0.015932642,0.007101965,0.000234766,-0.00724334,-0.000151455,0.012333591,0.016805539,0.012316352,-0.002703173,-0.001656113,0.01196487,-0.002354976,-0.015332783,0.003442745,0.013843807,-0.000513521,0.004310727,-0.003224259,0.004491503,-0.002205625,-0.006398975,-0.004762164,0.006446265,-0.002043979,0.000779934,0.000991694,-0.002229196,0.004607708,0.005069144,-0.00809587,-0.003530479,0.018863102,-0.017013231,-0.006375963,0.010601876,-0.008701589,0.007289063,-0.004185874,-0.016263196,0.014350441,0.00683611,-0.005414932,0.01441627,0.010009747,-0.00588191,0.007505795,0.013620754,0.015460243,-0.007975144,-0.010878323,0.003363505,-0.000847565,0.003486421,-0.003208479,-0.004052855,0.005359762,-0.009501954,0.009043527,0.014545322,-0.000230222,-0.005948732,0.018398724,0.013930302,0.010036795,0.00399518,0.005157317,-0.016233083,0.012240042,0.003901366,-0.004202158,0.007800817,-0.013104877,-0.0123421,0.013828557,-0.001644599,-0.013586805,-0.01380476,-0.006052626,0.006227647,0.012059392,-0.00742941,0.000915004,0.006114443,0.006208603,-0.000703153,0.001107672,0.000678779,0.013515468,-0.005284711,0.011894248,0.007510007,0.008400667,0.001861818,-0.001496733,0.00445961,-0.010813087,-0.000793702,0.016623942,-0.016009428,0.008190714,-0.002365901,0.007893695,0.015453997,0.00109899,-0.009045902,-0.013175974,0.016969318,-0.014144209,0.000789592,0.004227374,0.003864477,-0.001652022,-0.004112492,0.013062824,0.01626037,0.006338909,0.011270557,0.014836225,0.014855036,0.005874776,-0.014499136,-0.016207438,0.002776895,0.004442181,0.003613757,-0.014417584,-0.004636247,0.008547618,-0.008325174,-0.002729959,0.002080835,0.01490059,-0.011851076,0.007674623,0.003252611,-0.002255253,0.012518176,0.007687262,0.011981074,-0.009724955,0.009388699,0.004460902,0.000738226,-0.006986675,0.013429035,0.009884826,-0.012346868,-0.01130546,-0.014393419,-0.008534445,-0.015034097,0.007326469,0.000581901,-0.012017317,0.01679835,-0.003497088,4.93E-05,0.018101746,-0.007979395,0.000158264,-0.014915074,-0.000174743,0.011064635,-0.005493224,-0.015895521,0.011791985,0.012149461,-0.01516442,0.002281119,0.009890011,0.01355233,0.010014654,-0.01276307,0.007348378,0.010315045,0.011408711,-0.007300333,-0.004407141,0.016937675,-0.003292189,0.004183803,0.011996927,-0.008112934,0.008460227,-0.003738131,0.010421917,-0.005090635,0.017713739,0.016454076,-0.001127833,-0.001869326,-0.016703568,-0.000652029,0.006768917,0.010896449,-0.014813275,0.007049602,-0.000352045,-0.006746505,0.011382799,0.002971202,-0.009370124,-0.011008535,0.013405035,-0.001042836,-0.01687922,-0.00819466,-0.006625116,-4.12E-05,0.013687148,0.000459265,0.009745251,-0.00664988,-0.009343105,0.009921975,-0.014063682,-0.012068958,0.009177421,-0.00225352,0.003248878,-0.011359211,-0.010110917,-0.005190731,0.000500556,0.007648648,-0.00088625,-0.008441659,0.005001343,-0.01459028,0.01196463,-0.002149591,-0.001688836,0.013199281,-0.00535289,-0.016288294,-0.011477079,-0.014347544,-0.005682526,-0.004794123,0.009159275,-0.000871442,-0.00264703,-0.017759603,0.008959139,0.014038933,-0.005397615,-0.00312028,0.009983828,-0.009412997,-0.004090791,-0.003438893,-0.014363543,-0.010662848,0.006844208,0.008326036,-0.006513085,0.007611358,0.004408009,0.016358295,-0.015270825,-0.005822614,0.004077453,-0.002882442,-0.008096004,0.006100487,0.005722331,0.006536636,-0.006753342,0.010845858,-0.006450468,0.000802196,-0.011841758,-0.005889384,-0.003331555,0.008629175,-0.010264891,-0.00233453,-0.000935939,-0.007439346,-0.015416934,0.013003215,0.004117955,0.004646685,-0.013246234,0.001324963,0.002351267,0.011178094,-0.006204342,-0.006807082,0.002508946,0.012896593,-0.001475876,-0.012560275,-0.002697611,0.004705944,-0.000937404,0.005260225,0.009158479,0.011585294,-0.009525379,-0.002634878,0.011603822,0.002141394,0.008299974,0.003715052,0.00013568,0.004918756,-0.010686897,-0.002499798,-0.001383092,0.007539742,-0.011069167,-0.011371319,-0.007012331,-0.012458938,-0.005874873,0.014449154,0.001686554,0.013372634,0.001196595,-0.004723755,-0.01340019,-0.011628171,-0.011303491,0.002082062,-0.011283912,0.005894064,-0.010393746,0.005894483,0.012094871,0.009587918,-0.00789738,-0.007186857,-0.010295026,-0.011974194,0.003732266,-0.005130561,-0.016116895,-0.00130787,0.010196982,0.007239129,-0.009372241,-0.011754212,0.009099719,0.001138756,0.012447633,-0.000960672,0.015952298,0.008737668,0.017389279,0.004230519,0.000154178,0.001775581,-0.00341059,-0.011521973,0.00120452,0.016317975,0.000746132,0.000330284,-0.01384499,-0.013673381,0.013526072,-0.007891913,-0.013091836,0.006028395,0.005414138,-0.001913333,0.018526016,-0.005041326,0.005595887,-0.012474839,-0.004292134,0.008055102,0.013957766,0.001288186,-0.015219836,-0.006173762,-0.010666662,-0.002154974,0.014962429,0.005403771,0.012947829,0.009791248,0.002171855,-0.000679664,-0.006514186,0.01494569,0.004990276,0.003374869,0.015324444,-0.000352788,0.015873766,0.012514927,-0.013353379,-0.008730553,0.007784089,0.000248117,0.003417256,-0.002209798,-0.002637073,0.00620639,-0.003974952,0.008191388,-0.011387093,-0.009006554,-0.000640073,-0.01165894,0.002189768,-0.015579097,-0.001905006,0.010680004,0.016849322,0.014293676,-0.005310635,0.013432341,-0.009362868,0.013073121,-0.001444554,-0.009194636,-0.002920685,0.004419755,0.00570424,-0.016012276,-0.00841553,0.012352038,-0.012439261,-0.000588501,-0.014305973,-0.000891719,-0.00039538,0.006945413,-0.012601127,0.005665795,-0.005107942,0.005969714,0.003056016,-0.000123359,-0.01087131,0.015393678,-0.006902305,-0.015436696,-0.013361027,-0.002443436,0.009830623,-0.005828493,0.010652662,-0.011800697,0.007921036,-0.016248835,0.006736855,-0.0131547,-0.010133942,-0.00129203,-0.007125264,-0.005739885,-0.01750387,0.004262205,-0.01446661,-0.010576114,-0.002846444,0.01194666,-0.009260561,0.010022588,0.001659208,0.001704457,0.00315711,-0.000268313,0.007680079,-0.001204664,-0.016232688,0.014159962,0.013076781,0.002647953,-0.010553568,0.011161363,-0.000142441,-0.007695698,-0.003863568,-0.005761987,0.016069176,-0.001569011,-0.00016683,-0.00933162,-0.010111954,0.00589021,-0.002768733,-0.010881449,-0.010969979,-0.004518064,0.013650597,0.012604141,0.010401154,0.009663757,0.007707965,0.001254522,-0.003600079,-0.010953546,0.016216395,-0.006396454,0.003213543,-0.006157554,-0.017186027,-0.005921795,0.009999929,0.000672355,0.005952002,0.01442747,-0.011495774,0.00089961,-0.007810622,0.00052704,0.003551176,0.013104078,-0.001915983,-0.011146636,0.013595759,0.014955625,-0.001022329,0.011394633,0.005714933,-0.015767196,0.002230865,-0.003305888,-0.005920116,0.005927202,0.008047847,0.009597327,0.009723772,-0.013068968,-0.006109309,-0.003656001,-0.011224808,-0.013855396,-0.005758866,0.001271387,0.002382458,-0.00046117,-0.011957316,-0.004881554,-0.000645834,0.011167448,0.012105387,0.007222083,-0.014925487,0.008397002,0.006675305,0.014048046,-0.016387004,-0.012905412,0.000783197,-0.011820916,-0.016593615,-0.014182756,0.015975503,-0.007091491,0.01645977,-0.006371781,0.014794422,0.007064247,-0.012494704,-0.004940309,-0.001166568,-0.012058166,-0.010927676,0.012721331,0.016532121,-0.002865519,-0.004100869,-0.01176304,-0.01420594,-0.001665029,0.018056592,-0.011353642,0.001846212,-0.00265549,0.012762664,-0.00749407,0.011511219,0.003241758,-0.012577184,-0.005599266,-0.002928001,0.012422567,-0.01590589,0.002023499,0.013287439,0.01762207,0.012739697,-0.005173486,0.0177966,-0.017794497,0.003946641,0.016928183,-0.007299658,-0.009069218,0.007556398,-0.009189438,-0.001774443,0.010286558,-0.001933581,-0.003907122,0.013712036,-0.00375367,-0.006045905,0.00896526,-0.011263951,0.000178371,0.009255185,-0.002053936,-0.002495521,-0.011027953,0.01576261,0.005927742,0.001580384,0.002613117,-0.010259271,0.013530981,-0.017079392,-0.012529617,0.002164551,-0.00829839,8.76E-05,0.017775735,-0.004269104,0.002287668,0.018750357,-0.006479668,0.009925145,0.017524367,-0.017191853,-0.01165586,0.009644604,0.01672682,0.007456932,0.0113921,0.01641209,0.010157327,-0.005922972,0.004836204,-0.003129738,-0.007312395,-0.015640303,-0.006948166,0.00120853,0.011601402,-0.012661237,-0.014332342,-0.007777689,0.01229811,0.015247922,0.009738241,-0.006013131,0.001050243,-0.01735619,0.012749855,-0.007432665,-0.002332374,-0.013735225,-0.006081546,-0.00586522,0.003961893,0.015575699,-0.005302064,0.013817727,-0.013591895,-0.01214673,0.003900789,0.001843346,0.006155485,-0.007024262,-0.00515208,-0.0158958,0.008979862,0.000944578,0.012876865,0.00279169,0.006857872,-0.003974095,-0.013243724,-0.003001712,-0.006929027,0.007883472,0.014136926,0.007495939,-0.006062289,-0.000776038,-0.016306361,0.009501763,0.012114861,-0.008167315,-0.004784705,0.009578877,0.004920149,0.001962918,-0.005722287,-0.01707647,0.008099531,0.012524444,-0.017709991,-0.004231167,0.002018325,-0.007523745,0.011218257,0.010890381,0.012447415,0.014879175,-0.006934514,-0.005961383,0.003470098,0.005319153,-0.010054898,0.001134719,0.009396219,-0.011421805,-0.009355752,-0.013844493,-0.006272612,0.015377889,0.004922158,0.016888056,-0.008432042,0.014053863,-0.0087962,-0.005299402,0.015685625,0.01642093,0.010850392,0.004355064,-0.016730158,0.002907903,-0.010777216,-0.018622508,0.005426783,0.016251503,-0.008921932,-0.004945087,0.010356267,-0.00737052,0.015715118,-0.003632053,-0.005430154,-0.000251652,-0.008142121,-0.004391189,-0.016120195,-0.009997371,0.00044029,0.002927158,0.014404616,0.001221861,0.00145679,0.016497305,0.005904669,-0.00917064,0.009156759,3.54E-05,0.007372228,0.016877444,0.011554256,0.009046695,-0.007663891,-0.007417936,0.00775891,0.005436277,0.007188139,0.009977357,0.010500699,-0.007257846,-0.004923405,-0.00348048,0.016074939,0.004865792,0.007344487,0.015389354,-0.0007364,-0.013446257,0.005913056,0.011687654,0.018253107,0.012346176,-0.000100176,0.000588212,-0.002361173,-0.002592805,0.014554987,0.003173858,0.004140737,0.010436382,-0.000181772,0.013411436,-0.006750855,0.015458712,0.01065563,-0.007438092,-0.010523719,0.012100188,0.006927218,0.007786899,0.013428068,0.006822155,-0.011089738,-0.002615977,-0.007037565,0.004155905,0.005584366,0.018064557,0.005478396,-0.012876846,0.014305473,0.001135446,0.001119049,0.016153643,-0.003520146,-0.013279569,-0.005383501,0.000831981,0.001039936,0.001645271,-0.012308097,0.011095609,-0.007230649,-0.007877843,-0.001449494,0.007306011,-0.013418227,-0.000522503,0.003938548,0.017039709,-0.005584524,0.002449187,-0.01209813,-0.011012021,-0.007105297,-0.001178645,0.010257504,0.009050157,-0.002124408,0.003219736,3.30E-05,0.003286309,0.011355754,0.000297447,0.004675905,-0.010092301,0.008827793,-0.00234465,0.001010464,-0.007758875,0.003159321,-0.004403607,-0.002088744,-0.007740693,-0.001943326,0.011790372,-0.005625458,-0.004635925,-0.006609757,-0.009277046,-0.007987579,0.002202352,-0.004938183,-0.000754113,0.014339498,0.009180973,0.000955504,0.003618171,-0.004435601,0.008573706,-0.008183409,-0.007198931,0.003709282,0.001965875,0.011545472,-0.017327087,0.001263275,0.002885975,0.003686839,-0.008446687,-0.014023109,-0.016302828,-0.016533228,-0.010496251,-0.010444452,-0.01636709,-0.000943241,-0.002499563,0.015598953,-0.012559623,-0.0022693,0.017415207,0.000119514,-0.014612888,0.011116292,-0.012168476,-0.001292079,-0.005131567,3.78E-05,0.002818676,-0.010536433,-0.010690933,-0.002495968,-0.008020116,0.006235626,-0.013955117,-0.00331243,-0.008363545,-0.008283148,0.01643366,0.004892081,-0.014559704,0.00543469,0.015912225,-0.003008085,-0.014582333,-0.015974628,-0.005294229,0.017559893,-0.011269937,-0.015730886,-0.003742436,-0.000599761,0.006854091,-0.008845802,-0.005356775,-0.006657198,-0.004815586,-0.010517113,-0.000874308,0.004415577,0.01043389,-0.001700097,0.011356169,0.010335718,0.015044949,0.015450681,-0.01435927,-0.002167989,0.015023831,-0.006760169,-0.015159721,0.010389173,0.007041064,-0.002260596,-0.003971731,0.012113913,-0.008886952,0.00140458,-0.00223777,0.012772828,0.008523224,-0.012222542,-0.004912414,-0.004688902,-0.009816423,0.003996689,-0.012840234,-0.01631548,-0.003313952,0.017918713,0.008947472,-0.002872777,0.016757684,-0.008700111,-0.000365718,0.018786034,-0.000262209,-0.005029115,-0.005696489,-0.010518516,-0.007215345,-0.000106047,0.016819088,-0.004134425,0.008540187,-0.009819144,0.01295544,-0.015936546,-0.007485857,0.010352285,-0.005146766,-0.014619176,-0.007113616,0.01680011,0.012115442,0.010871923,0.014390157,0.005178369,-0.004576047,-0.007882798,0.00315417,-0.005685107,-0.009745564,-0.01630974,-0.006561864,0.011579323,-0.011134745,-0.01664895,0.017437365,-0.014808122,-0.001336233,-0.005366484,-0.007542894,-0.002649877,0.004835817,0.01033101,-0.00340246,-0.011582678,0.011330451,-0.013828306,-0.00645604,-0.011493621,-0.000546563,0.011522609,-0.018043237,-0.014227141,0.015362768,0.010217401,-0.008392728,-0.001080972,0.003866787,-0.00295981,-0.003219291,-0.015830597,0.003002508,0.000293003,-0.007906616,-0.003926443,-0.012359686,-0.014398832,0.000130141,-0.0046478,-0.005350996,0.01005739,-0.008893821,0.001882765,-0.005207254,-0.010207936,0.01637456,-0.004889374,0.013935563,-0.014514138,0.003994206,-0.011682349,-0.01458134,0.000914812,0.01338183,0.001339022,-0.011966213,0.01095435,-0.010218836,0.01650923,-0.000127989,-0.001505941,-0.002834189,0.008624738,0.012190669,0.011851997,0.003838171,0.007733756,-0.006910288,0.00211308,-0.008427719,-0.012873277,0.013127769,0.006506241,-0.003160649,-0.00098749,-0.012494564,-0.00175356,0.014557049,0.011575086,0.000958583,0.007164816,0.015302343,-0.000658841,0.01080843,-0.017636495,-0.001264174,-0.012363913,0.001961059,0.002568497,0.002558179,0.00549544,-0.001354887,-0.00127709,-0.016590536,-0.001739106,0.011149854,0.005519999,0.003923995,-0.003838936,-0.009706919,-0.013617008,-0.004193897,0.00540185,7.37E-05,0.00550248,-0.010804455,-0.008044123,0.017018218,0.007479074,-0.004573342,0.015322994,0.01223578,-0.005169093,0.008135646,0.003793218,-0.011751094,0.005431069,0.014780375,-0.012319083,0.006594226,0.01184707,0.011042175,0.010076521,-0.007463748,-0.013344402,-0.012030209,-0.007053627,0.008172012,0.007508557,0.008153666,0.012989641,-0.011330134,0.000490722,-0.014172776,-0.0056875,-0.01061192,0.005359114,0.015693206,0.001866997,-0.000495163,0.003295954,-0.003537704,-0.012536058,-0.004499217,-0.007646523,-0.01159837,0.01211873,0.001167392,-0.003185728,0.014019962,-0.001041044,-0.016812552,0.005761097,0.015097508,0.009791538,0.009308653,0.005422758,0.014855957,-0.010943452,0.010572352,-0.012808483,0.009341771,-0.002001534,-0.016173482,-0.014955969,0.007229497,-0.00460846,-0.015488877,0.00704807,-0.010614883,-0.008535458,-0.016878515,-0.000321138,0.007242556,-0.001693162,-0.016101334,0.01375109,-0.00916265,-0.004056123,0.001349438,-0.012767704,0.015447178,-0.007904024,0.003128757,0.00195469,0.015966412,-0.010393661,-0.003602321,0.012801593,-0.002382282,0.016536413,0.006207121,-0.017829606,-8.50E-05,0.015891237,0.001377036,-0.009131093,0.001198522,0.007612305,0.012820301,0.003382031,0.01494541,-0.003096183,0.01034081,-0.001552681,-0.009826139,-0.002889442,-0.007441334,-0.00437814,0.010496812,0.011400572,-0.013779498,-0.009538703,0.014612558,-0.016733011,0.015365527,-0.006633913,-0.0130652,0.015030392,-0.005191054,-0.003332084,-0.002029168,-0.006192096,0.01689157,0.013465464,0.004565013,0.006767524,-0.016712083,-0.008995195,-0.011799648,-0.016068917,0.005811799,-0.004352681,-0.015701447,0.002027032,-0.001901115,-0.012231627,-0.004836647,-0.0129886,0.000320974,0.005060191,-2.12E-05,0.013459474,-0.001161426,-0.005316219,0.010224799,0.003744624,-0.011795888,-0.010758124,-0.016995082,-0.016825711,-0.012213865,0.00126002,-0.009376888,-0.004063356,-0.011911945,-0.013785904,-0.005306628,-0.00379749,-0.007486928,-0.004856824,0.002553269,0.001237108,-0.009833419,-0.007111859,0.002506773,0.004895792,-0.016152263,-0.0101332,0.010445385,0.001589283,-0.015136762,0.015250807,0.014903676,-0.007351317,-0.003812783,-0.005270477,0.013498694,-0.012813961,-0.007513579,0.016230978,-0.013013093,-0.000493988,0.005130182,-0.016715586,0.004878652,0.005338487,-0.000791903,-0.010730695,-1.81E-05,-0.008584025,0.016021319,0.008172008,-0.000608128,0.002409223,-0.007596158,0.016665507,-0.000350782,-0.010782405,0.009270949,-0.001202935,0.01023299,0.013805135,0.003881166,0.016096981,0.017478693,-0.002305527,-0.012749656,0.014738291,-0.005542527,-0.00914235,0.009609603,-0.01590496,-0.003988861,0.013039037,0.007768181,-0.000708292,-0.002589159,0.005179748,0.010974982,-0.002423429,-0.016906153,-0.013414228,0.012154828,-0.01355763,-0.01514582,0.011841068,0.002006127,-0.009893497,-0.008749248,-0.017573843,-0.006251834,0.014763361,-0.001710091,-0.000366055,0.012341794,0.005199153,-0.002258927,0.010753896,-0.010837592,0.003065878,0.010566999,-0.014716854,-0.002151262,0.004201426,-0.004439489,-0.007483715,-0.004179892,0.002705486,0.013389827,-0.015286205,-0.007434905,0.003740697,-0.016283447,-0.0169342,-0.009384518,-0.000687094,-0.00241758,0.010212708,0.009309392,-0.013316022,-0.00434092,0.006785477,-0.01230135,0.000260748,0.007861488,-0.010560501,0.009723594,0.017192524,-0.011000157,0.002017439,0.012641035,-1.70E-05,0.000262881,0.010029863,-0.015591021,-0.007749567,0.007866094,0.00499764,-0.006748007,-0.004116737,0.004104312,-0.001800678,-0.016548134,-0.010726624,0.007902732,0.016708326,-0.000972218,-0.010890742,0.015195771,-0.006809121,-0.005218559,-0.014985367,0.006415226,0.000411696,0.004179139,-0.002632168,-0.016013352,0.010587981,-0.009202709,-0.001482936,-0.00881462,-0.007769414,0.003548395,0.002419784,0.012673008,0.009158105,0.007936911,0.005558826,0.014864462,-0.010633928,-0.007270976,0.011588205,0.008198167,-0.004756827,-0.004862166,-0.010782311,-0.014703745,0.010539215,0.015471348,-0.012608595,-0.003097735,-0.014130721,-0.017470991,-0.00262317,0.013380314,0.009734048,-0.013554323,-0.012333278,0.006992576,-0.002430092,0.006097228,-0.011190413,0.016125983,-0.001225938,0.01166469,-0.015618363,-0.010105752,-0.012556916,0.006585365,0.008749566,-0.011273953,-0.005163658,-0.014402844,0.005303183,0.010965579,0.009753675,-0.014358767,-0.002986426,0.01476375,0.01721309,-0.01725699,-0.00078694,-0.006775789,-0.005633026,-0.013809736,-0.01096154,0.014978395,0.010311684,-0.008207276,0.00043927,0.003171777,0.013896991,-0.010009056,-0.007123998,0.011124925,0.015931915,-0.003069119,-0.008680683,0.016603202,0.016872473,-0.014246983,-0.008690903,-0.011265757,-0.012803426,0.006063787,-0.010244764,0.002017618,0.006115769,-0.012081591,0.011768697,-0.013143119,-0.015795376,-0.017069114,0.009807356,-0.015781188,0.013304588,-0.01183797,0.010089397,-0.018327737,-0.014173041,-0.012576016,-0.013825605,0.015533644,-0.005992963,-0.004208427,-0.015827402,0.005872822,-0.013886858,-0.014706593,-0.016109796,0.009083518,0.00206598,0.014769451,-0.016488874,-0.004488594,-0.014799583,-0.009653956,0.006398432,0.012943342,0.008040204,-0.014889459,-0.001587177,-0.009673953,-0.000566224,-0.005790513,0.013923863,0.006878336,-0.011351011,0.015755406,-0.009240354,0.016682226,-0.010322414,0.013278859,0.016599266,-0.017909748,-0.011154085,-0.007142904,0.00018584,-0.002207739,0.01337508,4.82E-05,0.000311383,-0.001765846,-0.007342589,0.015636848,-0.012883553,-0.011044004,-0.003507896,-0.012272364,0.009600941,-0.006371956,0.018524725,0.01402462,0.007671262,0.004088924,0.008144711,-0.01096207,0.006896869,0.012150375,-0.004753836,0.010952679,-0.00824948,-0.011004824,-0.008029431,0.013777352,-0.005056541,0.017214399,-0.015229763,0.0135085,0.006940343,0.013135351,-0.003855732,-0.007368329,-0.012406787,0.015615815,0.004385796,-0.011188998,-0.009902677,0.003528231,-0.017986106,-0.002904448,-0.000685162,-0.005533554,-0.011079266,-0.00458244,0.004672647,-0.01566777,-0.002203012,-0.016119983,0.016699515,-0.000503556,-0.009043973,0.015037265,-0.009148294,-0.003097344,0.010304975,0.006046002,-0.004991819,0.013278495,0.007922099,0.007697369,0.014149657,0.008669926,-7.36E-05,0.00939829,0.01871583,0.004408623,-0.008260575,0.015427803,-0.016724074,0.011193326,0.008702101,0.013573007,-0.001679006,0.007605157,-0.002252155,-0.016777555,-0.002503975,0.007165282,0.002622047,-0.006695695,0.017076079,0.008278636,-0.000861911,-0.015521058,0.01178471,0.01011909,0.006335232,-0.013261909,0.010346537,-0.007871108,0.00916283,0.001796605,-0.001832948,-0.012448725,-0.01435752,-0.010503454,-0.015304129,0.009049458,-0.00068637,0.009055057,-0.004753299,-0.004329941,-0.002552076,-0.006769379,-0.014962928,0.000712843,-0.000110095,-0.004575956,0.014254095,-0.00499172,-0.009673848,-0.002731536,-0.007499811,0.013673433,-0.009330361,0.007993686,-0.016341832,0.007999447,0.008836273,-0.017836083,-0.013285487,-0.002645407,-0.009784102,0.011711427,-0.007278633,0.014602144,-0.005312105,0.001269539,0.016411735,0.001273177,0.000951883,-0.007969886,0.007281924,0.013613658,0.015073348,0.013190199,-0.004252331,-0.004467078,-0.011595809,0.003969468,-0.009437407,0.011591375,0.003629426,-0.009883717,-0.001143621,-0.015091824,0.007234884,-0.009021156,0.017565122,-0.005506184,0.000196292,0.002208581,0.010383659,0.011869703,-0.004603371,0.014015598,0.007914296,-0.010443033,0.00669946,0.003418396,0.006628603,0.014961312,0.011678036,0.008464686,0.00504167,-0.01423164,3.12E-05,-0.011304842,0.008076185,-0.005651822,-0.0148398,0.005183074,-0.000543237,-0.009410229,0.009135898,-0.013508198,0.011852501,-0.003378206,-0.010955756,0.001117596,0.005494215,0.005532416,0.015494477,0.014079685,-0.008293615,-0.009681958,-0.01627866,0.010276527,0.004972655,-0.002475187,0.004202788,-0.001848354,0.005383729,-0.015264331,-0.007869309,0.001728573,0.018018307,-0.014260332,0.003578041,0.004678574,0.000628364,-0.00832323,0.0127795,0.00989625,-0.007124544,0.010152195,0.00538699,-0.007698824,-0.003400083,-0.017068991,-0.002987768,-0.011370015,0.005467278,-0.013277336,0.017702825,-0.013752217,0.000798925,0.003891253,-0.006634656,0.007621157,0.003108856,-0.00590238,-0.009324946,-0.015350945,0.013431048,0.013495891,0.00281467,-0.012814973,0.002617362,-0.002881891,0.009356781,0.006294652,0.000311658,0.007042094,0.01290554,-0.003817912,0.005048739,-0.007425601,0.007525973,-0.011599016,0.014332824,0.004524986,-0.01539204,-0.005974122,-0.004848715,-0.016271468,-0.005882349,0.001679269,0.015110621,-0.016182221,0.016584791,-0.003153851,0.011145248,0.007896652,0.007051108,0.012076892,0.010047996,0.006929449,-0.001419186,0.004820983,-0.015496313,-0.014374155,0.011346745,-0.011264991,-0.005121867,-0.00201242,-0.006545211,0.0154137,-0.012540144,-0.016468802,0.007627605,-0.014159351,-0.00866508,-0.005542706,0.00296138,-0.009258579,0.013214727,-0.00069102,-0.004706544,-0.011347276,-0.016612913,-0.012424408,0.004074605,0.001227646,-0.011480442,-0.003436212,-0.011233869,0.013961362,-0.014600335,0.003100961,0.002244147,0.003464676,0.003945229,-0.001250419,-0.008079468,0.012112793,0.016506229,-0.006917547,0.007481478,0.007330369,0.011703124,0.007912586,0.002198262,0.017108832,0.006679761,-0.003315883,0.00242183,0.011824061,0.016782489,0.016776346,0.007023803,-0.00027781,0.01197305,-0.009952023,-0.000598478,-0.008164161,0.010005845,0.011832409,0.0136569,-0.004114415,-0.007074222,-0.00575052,0.01560871,-0.006847386,0.005537448,0.017103646,-0.015581102,0.006197267,-0.003941759,0.011101437,0.001123271,0.010898755,-0.002389701,0.010116849,-0.013661764,-0.001293678,-0.004818384,